/**
 * @file
 * Default cnn weights for x2 upscaling with rtvsrgan model.
 */

#ifndef AVFILTER_DNN_RTVSRGAN_H
#define AVFILTER_DNN_RTVSRGAN_H

static const float rtvsrgan_conv1_kernel[] = {
    0.088264f,       0.2196935f,      -0.030608743f,   0.009984525f,
    -0.005378286f,   0.007880797f,    -0.21564187f,    -0.089175805f,
    0.008441718f,    0.019213248f,    -0.03350576f,    0.0026707607f,
    -0.057637505f,   0.4756793f,      0.00055936386f,  0.017165648f,
    -0.07102008f,    0.021501133f,    0.022586668f,    -0.11148986f,
    0.034494974f,    -0.060705945f,   1.1668924f,      -0.104827024f,
    0.024487365f,    -0.042547997f,   0.020704437f,    0.05251352f,
    0.3354916f,      0.09608353f,     -0.13114497f,    -0.65399885f,
    -0.24960102f,    0.058576256f,    0.3432779f,      0.13588567f,
    -0.0055529578f,  -0.0014691234f,  0.008305225f,    0.035984527f,
    -0.018774709f,   0.12155052f,     -1.1662487e-06f, -0.57774895f,
    0.18478556f,     0.02125354f,     -0.0015926226f,  -0.027713822f,
    -0.048119787f,   0.43680915f,     0.08224596f,     -0.0015004204f,
    0.08191764f,     -0.039607402f,   0.50302356f,     -0.2532213f,
    -0.24941312f,    -0.30028194f,    -0.7060671f,     0.51964664f,
    -0.2367772f,     0.47545093f,     0.2054917f,      0.038844116f,
    -0.049456697f,   0.021597276f,    -0.005009114f,   0.16247907f,
    -0.019370541f,   0.2264113f,      -0.64519954f,    0.030042699f,
    -0.03392354f,    -0.16458169f,    0.14329685f,     -0.22214186f,
    0.41369283f,     -0.100317985f,   0.059437055f,    0.07786434f,
    -0.15722857f,    -0.05352392f,    -0.027748615f,   0.05747433f,
    0.5180455f,      -0.4156868f,     -0.11837562f,    -0.058714204f,
    0.0021075094f,   0.0509568f,      0.41713804f,     -0.47345632f,
    0.055957805f,    -0.43844256f,    0.56494105f,     -0.107158296f,
    0.023007846f,    -0.06995783f,    0.03743941f,     -0.016381608f,
    -0.006262962f,   0.029799331f,    0.037966523f,    -0.36614725f,
    -0.086003594f,   0.004077821f,    -0.08296186f,    0.041342992f,
    -0.36114106f,    0.091062106f,    0.23713376f,     0.06380443f,
    0.65102905f,     -0.32866552f,    0.26964873f,     -0.29121664f,
    -0.34561235f,    -0.017462159f,   -0.6667845f,     -0.027123472f,
    0.0018435923f,   0.6890316f,      0.008586015f,    0.02012928f,
    -0.026033992f,   0.023055676f,    0.16006334f,     -0.49814495f,
    0.33111918f,     0.23352042f,     -0.46975082f,    0.24633181f,
    -0.06128738f,    0.08504378f,     -0.029132798f,   -0.00083263987f,
    -0.009428294f,   0.008706098f,    0.045943867f,    0.024782745f,
    -0.05450497f,    0.7049482f,      -0.75952697f,    0.040235005f,
    -0.022290861f,   0.48538595f,     -0.03365143f,    -0.02182518f,
    -0.6449435f,     0.10206663f,     0.037641775f,    0.024091875f,
    -0.028557023f,   -0.021279048f,   0.6273648f,      -0.0018438613f,
    0.046384085f,    -0.6595091f,     0.03190527f,     -0.020830387f,
    0.048884567f,    -0.038358554f,   -0.12424856f,    -0.009125913f,
    0.023636248f,    -0.48423725f,    0.083358504f,    -0.0417695f,
    0.20707808f,     0.11841253f,     0.00029738253f,  0.44425482f,
    -0.4936349f,     0.07905998f,     -0.59627604f,    0.6558115f,
    -0.100855485f,   0.14745256f,     -0.18534058f,    0.047027133f,
    -0.07757782f,    -0.33049715f,    0.40299773f,     0.60188705f,
    0.059887517f,    -0.6528137f,     -0.5187819f,     0.2742924f,
    0.2431195f,      0.17679802f,     0.017421184f,    -0.19141711f,
    0.14739206f,     0.0078071784f,   -0.16078292f,    -0.02226746f,
    -0.01705036f,    0.028647799f,    -0.24297167f,    0.5712351f,
    -0.339299f,      0.180307f,       -0.23377252f,    0.04582824f,
    0.061002344f,    -0.3364466f,     0.2938628f,      0.17476195f,
    -0.36632705f,    0.08362909f,     0.21384199f,     -0.013505435f,
    -0.059339702f,   -0.016432634f,   0.009161766f,    0.009619539f,
    0.056376323f,    -0.0425666f,     0.01836721f,     0.5514407f,
    0.03316727f,     -0.034768622f,   -0.12133106f,    0.03602372f,
    0.017009834f,    -0.44312298f,    -0.029644009f,   0.53299755f,
    0.4029927f,      -0.91932774f,    -0.0021233414f,  0.43450302f,
    0.4197156f,      -0.440076f,      0.10588421f,     0.04446615f,
    -0.031657897f,   -0.31403816f,    -0.05130873f,    -0.03736444f,
    0.20076078f,     0.05870529f,     0.052165728f,    0.07538616f,
    0.07291942f,     -0.16329175f,    -0.3732691f,     0.76080996f,
    -0.0012780062f,  -0.39874005f,    -0.109103926f,   0.13231729f,
    -0.014703013f,   -0.08642121f,    -0.3977391f,     0.0038516112f,
    0.31316885f,     0.0010303598f,   0.0030414362f,   -0.043390177f,
    -0.010391564f,   0.12859382f,     -0.009173419f,   0.015541073f,
    -0.61580616f,    0.2632218f,      0.0051450753f,   0.102143146f,
    -0.03733135f,    0.03410563f,     0.0062380596f,   0.09495369f,
    0.18900007f,     -0.039045714f,   0.2874902f,      -0.22699617f,
    0.0012055055f,   -0.019150987f,   0.029861478f,    -0.0038239118f,
    -0.02116294f,    0.01768641f,     -0.043835003f,   -0.6643158f,
    0.7210058f,      0.045746345f,    0.6850344f,      -0.7420699f
};

static const long int rtvsrgan_conv1_kernel_dims[] = {
    32,
    3,
    3,
    1
};

static const float rtvsrgan_conv1_bias[] = {
    -0.0061413054f,  -0.20079513f,    -0.76087004f,    -0.00023997594f,
    0.002592629f,    -0.14606762f,    -0.018496493f,   0.030278195f,
    0.0065121553f,   -0.022245126f,   0.0027365237f,   0.12926865f,
    -0.023575578f,   0.0017088774f,   -0.0010167196f,  -0.0054061413f,
    -0.018951396f,   -0.0005233455f,  0.001226947f,    -0.030324256f,
    -0.0022090224f,  -0.0055374526f,  -0.004411452f,   0.010256378f,
    -0.37083f,       -0.013749417f,   0.0068107755f,   -0.0069707492f,
    -0.009311177f,   0.006628485f,    -0.21744123f,    -0.003840571f
};

static const long int rtvsrgan_conv1_bias_dims[] = {
    32
};

static const float rtvsrgan_conv2_kernel[] = {
    -0.028902087f,   -0.28304854f,    -0.099901326f,   -0.14726016f,
    -0.16591105f,    0.029090399f,    0.29107213f,     0.21627145f,
    -0.032918368f,   0.83246475f,     -0.3163734f,     -0.4241008f,
    0.28012446f,     -0.56354946f,    0.52092534f,     -0.18984084f,
    -0.036943868f,   0.37656742f,     0.96067077f,     -0.12462938f,
    -0.3337442f,     0.08263858f,     -0.36566237f,    -0.12325163f,
    -0.0096369805f,  -0.1965813f,     -0.43083298f,    -0.3942777f,
    1.0598267f,      -0.3814092f,     0.4791093f,      -0.30936143f,
    0.1661998f,      0.17490447f,     0.8135431f,      -0.15566681f,
    0.2853955f,      -0.8103556f,     0.0013232713f,   0.7171943f,
    0.29019317f,     0.19683257f,     0.5493323f,      1.2267354f,
    0.3377563f,      0.049306426f,    0.38844818f,     -0.9047128f,
    0.5457855f,      -0.12850074f,    0.14315978f,     -0.52096546f,
    -0.18511878f,    -0.023701316f,   -0.04987605f,    -0.04125105f,
    -0.43282077f,    -0.27294353f,    0.19804013f,     -0.46044114f,
    -0.12886173f,    0.2344314f,      0.6415019f,      -0.6485845f,
    -0.4742857f,     -0.20805965f,    0.44180948f,     0.1935923f,
    0.94519573f,     -0.07432953f,    0.06622954f,     0.13208748f,
    0.1625674f,      0.5016561f,      0.32622746f,     0.110525765f,
    0.37420562f,     0.2893385f,      -0.05923446f,    -0.9682792f,
    -0.10188132f,    -0.17623925f,    0.20636754f,     -0.18437321f,
    -0.33893913f,    -0.049910624f,   0.27027446f,     -0.24389283f,
    -0.21141198f,    -0.12538755f,    -0.44133276f,    -0.38560703f,
    -0.41450414f,    0.19044866f,     0.12042594f,     0.14672251f,
    0.30770895f,     -0.061040472f,   0.31607667f,     -0.21248823f,
    0.14435388f,     0.26051688f,     -0.14937474f,    0.026692351f,
    -0.119855866f,   -0.04884251f,    -0.76693636f,    -0.5840857f,
    0.4268053f,      -0.91129434f,    -0.22259812f,    0.5573653f,
    0.094347686f,    0.20281427f,     0.4145757f,      -0.06605135f,
    -0.021598961f,   0.11035726f,     -0.20358275f,    0.42408568f,
    -1.0326575f,     -0.2587773f,     -0.07294022f,    0.3901621f,
    0.07588931f,     -0.5441823f,     0.89161104f,     0.17069463f,
    0.47962737f,     0.06651962f,     -0.53458375f,    0.46812204f,
    0.01569375f,     -0.21603079f,    -0.5660864f,     -1.8317512f,
    0.48844698f,     -0.26004553f,    -0.2964872f,     0.9663204f,
    0.42543837f,     -0.08248351f,    0.36780202f,     0.77991366f,
    0.27617067f,     -0.43540013f,    -1.1342506f,     0.37569928f,
    0.08427855f,     -0.365249f,      0.09844387f,     0.31688496f,
    0.50922287f,     -0.3462456f,     0.13865979f,     -0.041085944f,
    -1.0923514f,     -0.99683905f,    -0.5759868f,     0.11148758f,
    -0.8920572f,     0.5675729f,      0.41393134f,     -0.18591945f,
    -0.25792685f,    -0.64273995f,    -0.0360153f,     -0.012411361f,
    -0.2711315f,     0.66235113f,     -0.27102065f,    0.3418421f,
    0.110275134f,    0.26523677f,     -0.024775762f,   0.03378648f,
    0.39767244f,     0.3371871f,      -0.53437394f,    0.7067104f,
    -0.061087552f,   -0.4043359f,     -0.07596868f,    0.5345334f,
    -0.4898823f,     -0.43552577f,    0.08570659f,     0.6476418f,
    -0.45409974f,    -0.2989849f,     0.25068557f,     0.27962628f,
    -0.16838619f,    -0.1449998f,     -0.5301901f,     -0.41702372f,
    -0.29037794f,    0.18821113f,     0.21737142f,     -0.2665201f,
    0.111148864f,    -0.1181204f,     -1.0410863f,     0.12216262f,
    -0.112588495f,   -0.4156035f,     -0.53376526f,    0.06919798f,
    -0.79573f,       -0.36501127f,    0.49695596f,     0.3108864f,
    -0.05873104f,    -0.17109106f,    0.16101524f,     -0.76547974f,
    0.31445807f,     -0.2084861f,     0.69105893f,     -0.015126712f,
    1.1929771f,      -0.86463785f,    -1.5352713f,     0.28412473f,
    0.4598695f,      0.042579368f,    0.7016698f,      0.38939914f,
    -0.14140366f,    0.8983155f,      0.20277394f,     0.16420984f,
    0.1989976f,      -0.28434622f,    0.14772205f,     -1.2482588f,
    0.06383723f,     0.98110837f,     -0.27485508f,    0.07571484f,
    0.7660125f,      -0.14984997f,    -0.33489197f,    -1.2147872f,
    0.12207635f,     -0.14713997f,    0.053919513f,    0.41196784f,
    0.21703887f,     -0.36816156f,    -0.25652096f,    0.17424376f,
    -0.73503745f,    1.0038291f,      -0.99619716f,    0.30424172f,
    0.011777072f,    0.046013948f,    0.29043183f,     0.23525034f,
    -0.045362573f,   -0.07867394f,    0.04773314f,     -0.22543612f,
    -0.2281272f,     -0.2690791f,     0.38563466f,     0.23166893f,
    0.13776357f,     0.19039933f,     -0.13912791f,    0.1063762f,
    -1.045013f,      0.39642802f,     -0.36980572f,    -0.37516117f,
    0.036964428f,    0.26126567f,     0.21573046f,     -0.31096384f,
    -0.47995642f,    -0.16684034f,    0.11835286f,     0.21846433f,
    -0.18750925f,    -0.74896115f,    -0.34442407f,    0.21594281f,
    0.1944556f,      -0.00030487683f, -0.210054f,      -0.19361803f,
    0.6770746f,      0.24432369f,     0.05928878f,     -1.2993162f,
    -0.23622333f,    -0.14681649f,    -0.5893579f,     -0.047066115f,
    0.22705874f,     0.045670893f,    0.28508022f,     0.17712279f,
    0.6002987f,      -0.56065667f,    -0.056715872f,   0.11513661f,
    0.06751131f,     0.15127206f,     -0.03064094f,    0.16207878f,
    0.259794f,       -0.065077655f,   0.30004364f,     -0.04133975f,
    0.0016101719f,   -0.12912159f,    -0.20243393f,    0.03447615f,
    -0.023789678f,   0.16234094f,     0.16092381f,     0.3754167f,
    -0.4073335f,     0.05459372f,     0.16068621f,     -0.15822954f,
    0.42076632f,     -0.32215673f,    -0.0022602607f,  -0.052544795f,
    -0.21748604f,    -0.09664041f,    -0.051889393f,   0.68287754f,
    -0.51628685f,    0.41136503f,     -0.45091626f,    0.03301861f,
    0.058397714f,    -0.024561983f,   -0.105896674f,   0.021674102f,
    -0.29938218f,    0.015128871f,    -0.36936986f,    -0.13031985f,
    0.06682266f,     -0.13001361f,    0.30442217f,     -0.114442565f,
    -0.45627367f,    0.097133785f,    0.12993655f,     -0.10273272f,
    -0.732713f,      -0.40901455f,    -0.010302939f,   0.7898741f,
    0.020345075f,    -0.2730777f,     0.26528126f,     0.30002615f,
    -0.21902533f,    -0.06983864f,    -0.0052739996f,  -0.38314041f,
    0.26865676f,     0.11269042f,     0.29790074f,     -0.110685326f,
    -0.1476612f,     -0.29448077f,    -2.7772883e-05f, 0.23330002f,
    -0.08052453f,    -0.02857332f,    -0.23554856f,    -0.15693705f,
    -0.019822916f,   0.16744058f,     -0.19509107f,    -0.16605403f,
    0.33258924f,     -1.2718471f,     -0.8363807f,     0.0555113f,
    0.4137052f,      -0.21611764f,    -0.12751107f,    -0.57190406f,
    -0.35848156f,    -0.23113285f,    -0.34595597f,    -0.3367505f,
    0.17558074f,     0.02567371f,     0.27970943f,     0.19986184f,
    0.6051059f,      -0.8113752f,     0.47304413f,     -0.49015087f,
    -0.23360075f,    -0.08529348f,    -0.051515575f,   -0.21038105f,
    1.6159129f,      -0.10123749f,    -0.05596483f,    -0.0074844556f,
    0.07093474f,     0.2543654f,      -0.30879664f,    0.20865309f,
    -0.7753894f,     0.6064078f,      0.9266773f,      0.43862513f,
    -0.089996636f,   0.3367301f,      0.013841693f,    0.7135713f,
    0.17994583f,     0.033752028f,    0.5485151f,      -0.041725855f,
    -0.0065759323f,  0.12490961f,     0.2803426f,      -0.32719305f,
    -0.8382042f,     0.274693f,       0.09402808f,     -0.5172192f,
    0.08872148f,     -0.3658055f,     0.19049402f,     -0.4464973f,
    -1.4707729f,     0.04149767f,     0.45333827f,     0.13154496f,
    -0.004309874f,   0.43827266f,     0.22722128f,     -0.11408561f,
    0.40157953f,     0.05789057f,     -0.18165758f,    0.05942068f,
    0.12686357f,     0.13350067f,     0.21605112f,     -0.17162608f,
    0.053898405f,    0.023468208f,    0.13515323f,     0.84265155f,
    -0.10989226f,    -0.26874647f,    0.27786714f,     -0.16745713f,
    0.071030125f,    0.35658228f,     -0.88360953f,    -0.07112844f,
    -0.030112598f,   0.068671025f,    -0.111565195f,   0.012590756f,
    0.5135326f,      -0.033483967f,   -0.17160454f,    -0.13292308f,
    0.48423496f,     0.1627072f,      -0.22369738f,    -0.19420272f,
    -0.27524883f,    -0.072843574f,   0.12773393f,     0.13061303f,
    0.20648591f,     0.0068280254f,   -0.1475618f,     -0.26249865f,
    -0.37257305f,    -0.09064556f,    -0.23459779f,    0.17943287f,
    0.020871017f,    -0.36839905f,    0.27905566f,     0.11516104f,
    -0.6677982f,     0.04665723f,     0.44008812f,     -0.15835652f,
    -0.13592654f,    -0.4754038f,     0.032000203f,    -0.2317023f,
    0.33416927f,     -0.23657535f,    0.5361865f,      0.34657028f,
    -2.370234f,      -0.49519944f,    -0.40574884f,    0.10022628f,
    -0.066080324f,   -0.25889826f,    -0.33658037f,    0.17487347f,
    -0.004758774f,   0.0354988f,      0.007371821f,    0.09330662f,
    -0.061450623f,   -0.019722935f,   -0.4021833f,     0.0035656865f,
    -0.20827885f,    0.008674089f,    0.12877533f,     0.13938446f,
    0.38588217f,     -0.3004133f,     -0.020824863f,   0.01975907f,
    0.042027395f,    -0.22537526f,    -0.08380515f,    0.012679451f,
    -0.2819753f,     0.097720854f,    -0.87164795f,    -0.11259021f,
    0.72933763f,     0.1277987f,      0.7868839f,      -0.1662333f,
    0.39806613f,     0.17829359f,     -0.010174136f,   0.011955211f,
    -0.39885744f,    -0.18456568f,    -0.16233464f,    0.27484962f,
    0.07741986f,     -0.06894508f,    0.13378468f,     -0.21417828f,
    0.2041538f,      -0.019764282f,   0.28105745f,     -0.057798468f,
    0.34658048f,     -0.42541486f,    -0.46699226f,    -0.25510567f,
    -0.036782265f,   0.085818194f,    0.20145145f,     0.4954914f,
    0.33999807f,     0.16745804f,     0.5646297f,      -0.22813359f,
    -0.20262143f,    -0.123598434f,   -0.19399078f,    -0.20816638f,
    -0.2691332f,     0.36356583f,     0.6959491f,      -1.2274448f,
    -0.19583665f,    -0.38630024f,    -0.08123883f,    0.34572718f,
    0.01432591f,     0.61113685f,     -0.28556857f,    0.4157312f,
    -0.18075557f,    -0.7313866f,     0.43279758f,     -0.14612865f,
    0.8193632f,      -0.021853207f,   0.041447636f,    0.27074453f,
    -0.67348737f,    -0.20390025f,    0.12827864f,     0.3826356f,
    -0.76076984f,    -0.2145854f,     -0.10283594f,    0.1552061f,
    0.90743f,        0.5198302f,      0.61505824f,     0.08555357f,
    0.45929375f,     -0.58151793f,    -0.5626905f,     -0.25911617f,
    -1.320529f,      -0.55379975f,    -0.56628746f,    -0.64861983f,
    0.23047952f,     -0.010019127f,   1.4200771f,      0.46680573f,
    0.6463028f,      0.17069623f,     0.059063956f,    -0.23667002f,
    -0.4431333f,     -0.17802833f,    -0.36073163f,    -1.0547339f,
    0.03911298f,     -0.077580646f,   1.0623987f,      -0.20628045f,
    0.17469518f,     -0.31656754f,    -0.35540828f,    0.32187307f,
    0.44384214f,     -0.5399477f,     -0.4744945f,     0.04086358f,
    -0.8866553f,     0.3735626f,      0.720339f,       -0.08895859f,
    -0.20300728f,    -0.37509084f,    -0.061163206f,   0.3882629f,
    0.43897343f,     0.047560927f,    0.005058125f,    -0.32833067f,
    -0.54608935f,    -0.39845595f,    0.3789893f,      -0.06355237f,
    -0.7592828f,     1.0369129f,      0.046124496f,    0.14795963f,
    0.36977914f,     0.0440078f,      0.51130146f,     -0.18946387f,
    -0.48003054f,    -0.20464651f,    -0.067668386f,   0.2631515f,
    0.2365726f,      -0.09015137f,    0.58310896f,     0.065287486f,
    -0.9778448f,     0.02807049f,     -0.7713546f,     -1.0019423f,
    0.48553246f,     0.54200333f,     -0.18480563f,    0.014159672f,
    -0.43865487f,    0.030592201f,    -0.93480843f,    -0.98362017f,
    -0.14144436f,    -1.7066702f,     -0.94126856f,    -0.102971725f,
    0.162727f,       -0.091490895f,   0.028040217f,    0.28342304f,
    -0.082277775f,   0.7179828f,      -0.6571817f,     -0.30812478f,
    0.19949952f,     0.1032313f,      -0.16735756f,    0.4557919f,
    0.3376172f,      -0.68885875f,    -0.38245937f,    -0.06438207f,
    0.40798205f,     0.0088882465f,   0.0019414444f,   0.058397207f,
    0.3963312f,      0.21454471f,     0.089837015f,    -0.38938925f,
    0.5302299f,      0.38198444f,     0.021862622f,    0.06407139f,
    0.1389793f,      1.8187116f,      -0.56073296f,    0.29396617f,
    1.4371254f,      -1.8262588f,     -0.8838244f,     0.03148541f,
    0.16186191f,     -0.18200672f,    -0.5365593f,     1.1101111f,
    0.08567914f,     0.21573585f,     0.08049519f,     -0.24967495f,
    -1.4347664f,     0.89068997f,     -0.04192415f,    0.32736266f,
    0.0848063f,      -0.30889544f,    -0.16928606f,    -0.20312768f,
    -0.09308986f,    -0.024766818f,   -0.09765668f,    0.4380057f,
    -0.6223597f,     -0.44863322f,    -0.48374754f,    0.7013309f,
    -0.025276998f,   -0.5073864f,     -0.18533173f,    -0.17262109f,
    -1.0077068f,     1.1453792f,      0.13783678f,     0.9192296f,
    0.14231029f,     0.16717957f,     0.2541507f,      -0.20629734f,
    0.3117556f,      -0.11834283f,    -0.6628031f,     0.15959685f,
    0.1749108f,      -0.42211998f,    -0.40810832f,    0.29584336f,
    -0.05301437f,    -0.38716254f,    -0.97142154f,    -0.71133f,
    -0.18064342f,    0.025897758f,    -0.31631365f,    -0.27343753f,
    -0.40845606f,    -0.33313873f,    -0.86451167f,    0.07387553f,
    -0.18833831f,    -0.56225795f,    0.4082964f,      0.17510773f,
    -0.20427263f,    -0.32520512f,    -0.31158975f,    0.47361508f,
    -0.26443312f,    -0.31231242f,    -0.26869902f,    -0.08969975f,
    0.4631139f,      -0.041565586f,   -0.08052351f,    0.22112462f,
    -0.5925011f,     -0.21790773f,    0.022065433f,    -0.094937414f,
    0.009368574f,    0.4335447f,      0.18953033f,     0.041795235f,
    0.13294402f,     0.64367026f,     0.28625864f,     0.2962809f,
    -0.04833822f,    0.54526114f,     1.1005203f,      -0.79642534f,
    -0.59103787f,    0.5939505f,      0.012180014f,    0.26825207f,
    0.47452703f,     -1.251449f,      -0.10084936f,    -0.8963767f,
    0.26770607f,     0.14791998f,     0.70087874f,     -0.5524092f,
    -0.34005928f,    0.2412895f,      0.67236036f,     -0.33380854f,
    -0.35128227f,    0.5327801f,      0.541231f,       0.16146344f,
    0.60484314f,     -0.0808265f,     -0.35550174f,    -0.31073236f,
    0.25308383f,     0.11183171f,     -0.2879367f,     0.16790858f,
    0.16252218f,     -0.256615f,      -0.2334071f,     -0.019127764f,
    -0.10518298f,    -0.24842423f,    0.2666793f,      0.2590089f,
    -0.54811037f,    0.69406736f,     -0.12723282f,    0.203959f,
    0.076140285f,    -0.02415501f,    0.117965415f,    0.06917998f,
    0.36743128f,     -0.12360021f,    0.48813355f,     0.20845509f,
    0.3714625f,      0.11817617f,     0.08328222f,     0.19960944f,
    0.032760892f,    -0.14571328f,    -0.013804174f,   0.085869f,
    -0.10405981f,    -0.3327368f,     -0.2467017f,     -0.10140775f,
    0.09387005f,     -0.062029976f,   0.32789603f,     0.24966827f,
    0.2858603f,      0.06208507f,     -0.26726395f,    0.26382133f,
    0.1784105f,      -0.16896029f,    -0.37535354f,    0.052631367f,
    0.19441718f,     0.15671206f,     0.15390441f,     0.22704974f,
    -0.023030464f,   -0.18383089f,    0.15999807f,     0.04766628f,
    -0.14252874f,    -0.17731771f,    -0.10947355f,    0.7401185f,
    0.030233948f,    -0.027223552f,   0.21375398f,     -0.41250843f,
    0.16346812f,     -0.05365817f,    -0.049870998f,   0.33773512f,
    -0.0865856f,     0.30274457f,     0.16748187f,     0.13840514f,
    -0.16612166f,    -0.19982575f,    0.21948221f,     0.06313685f,
    -0.30644822f,    0.86398214f,     0.50599414f,     0.025585614f,
    0.23633552f,     -0.26091793f,    -0.08707186f,    0.03200606f,
    0.17162003f,     -0.008444631f,   -0.13801081f,    -0.274213f,
    -0.26744664f,    -0.04974463f,    -0.31297305f,    0.28896403f,
    -0.11353292f,    -0.0071244114f,  -0.059937727f,   0.1856188f,
    -0.85929936f,    -0.40176648f,    -0.07309917f,    0.29335356f,
    -0.5668524f,     -0.07131163f,    0.21351662f,     0.53026694f,
    0.14721997f,     0.33300194f,     -0.0710654f,     -0.5381665f,
    -0.21980572f,    -0.15417726f,    -0.25913018f,    0.10157843f,
    0.24508896f,     -0.08567956f,    0.019048939f,    -0.13258636f,
    -0.32268938f,    -0.14296556f,    -0.1753597f,     0.2573633f,
    0.045278415f,    0.44040537f,     0.37901226f,     0.041745503f,
    0.04610849f,     0.15378399f,     -0.12489346f,    -0.3442403f,
    -0.16592535f,    -0.29528114f,    -0.22898346f,    0.3043446f,
    -0.10405752f,    -0.5822657f,     0.07460345f,     0.5823748f,
    -0.015580833f,   -0.19644026f,    -0.19087835f,    0.015165708f,
    0.36248475f,     0.27092066f,     -0.19120859f,    0.09595583f,
    0.02543051f,     -0.22443429f,    -0.11745196f,    0.25918597f,
    -0.26992062f,    -4.9722803e-05f, 0.19768661f,     -0.21776089f,
    -0.40531218f,    0.10366886f,     -0.17717549f,    -0.046852734f,
    -0.123517245f,   0.73128635f,     3.2102444f,      -0.44928706f,
    0.35856596f,     0.3675691f,      0.051577616f,    0.1886349f,
    -0.3081793f,     0.5478502f,      -0.53013253f,    0.33176196f,
    -0.10646282f,    -0.6228342f,     -0.6429645f,     0.12677373f,
    0.5379733f,      -0.2801937f,     1.0504344f,      -0.8007291f,
    0.028334307f,    -0.15126674f,    0.02910664f,     -0.53396225f,
    0.37753958f,     0.21368697f,     -0.043830108f,   -0.20104551f,
    -0.038457647f,   -0.2685846f,     0.26759437f,     -0.3436347f,
    -0.30558658f,    0.27129236f,     -0.06901754f,    0.21856824f,
    -0.23585957f,    -0.3274916f,     0.10141432f,     -0.29286814f,
    0.1264284f,      -0.13787423f,    -0.29614455f,    0.7885631f,
    -0.1443811f,     0.29448324f,     0.55599993f,     -0.16925864f,
    -0.38475892f,    -0.06428394f,    0.2263649f,      0.019670319f,
    0.034271475f,    -0.22801568f,    -0.38080743f,    0.012065464f,
    1.5684264f,      -0.22296065f,    -0.46936178f,    -0.10606082f,
    0.19261861f,     0.92961097f,     0.31839827f,     -0.023150632f,
    0.08253145f,     -0.09243613f,    0.006805636f,    -0.006777637f,
    0.04335906f,     -0.09999019f,    0.0459723f,      -0.30003998f,
    0.3333626f,      -0.3274062f,     -0.017238798f,   0.30247134f,
    0.007211302f,    0.01815651f,     0.047010932f,    0.05559377f,
    0.2731927f,      -0.50320506f,    0.101919346f,    -0.018832676f,
    0.031517416f,    -0.14103054f,    0.12595816f,     0.124041855f,
    -0.17658707f,    -0.061017156f,   0.049762342f,    0.048637938f,
    0.12084116f,     0.16315094f,     -0.19296727f,    -0.05623925f,
    -0.08591644f,    0.008507523f,    -0.18749286f,    0.63916266f,
    0.5596922f,      -0.06441897f,    0.13347311f,     -0.14102554f,
    0.24046803f,     -0.2952285f,     0.0032371327f,   0.32239774f,
    -0.165365f,      -0.5690772f,     -0.2138436f,     -0.04565604f,
    -0.15759045f,    0.4580679f,      -0.10786619f,    0.09460082f,
    -0.2552742f,     0.36568645f,     -0.063531704f,   -0.31436107f,
    0.2892499f,      0.09083325f,     0.12402598f,     0.004916651f,
    0.5897463f,      -0.2090693f,     0.23819008f,     -0.1412912f,
    0.39883897f,     0.24234395f,     -0.09483178f,    0.19044703f,
    -0.06960183f,    0.031170601f,    -0.18166909f,    0.09161095f,
    0.16494696f,     0.6347069f,      0.12405214f,     0.13551305f,
    0.11596712f,     0.034234256f,    0.535847f,       0.036508884f,
    0.29147086f,     -0.15145761f,    -1.1604501f,     0.12437386f,
    -0.1706853f,     0.20622721f,     0.18831196f,     0.6118813f,
    0.12438383f,     0.20449904f,     0.36724508f,     -0.38315108f,
    0.18771458f,     0.20933731f,     0.10290224f,     -0.17797792f,
    0.117797874f,    0.27999213f,     0.5092427f,      -0.23499571f,
    0.6786522f,      -0.17222147f,    0.4368203f,      -0.17937486f,
    0.32130608f,     0.10579535f,     -0.18797892f,    -0.051724695f,
    0.28289914f,     0.010140317f,    -0.2446776f,     -0.080129854f,
    0.19038786f,     0.15203533f,     0.88396204f,     -0.2850844f,
    -0.21869595f,    0.2364079f,      -0.41528744f,    -0.11136393f,
    -0.06033431f,    0.00041032373f,  -0.15004332f,    -0.16416778f,
    0.1730771f,      -0.49021107f,    0.36981878f,     -0.15596166f,
    0.095613316f,    -0.3250797f,     -0.9727421f,     0.3720774f,
    -1.2621806f,     -0.04310666f,    -0.22367135f,    -0.7153946f,
    -0.77381396f,    -0.7756732f,     -0.1849344f,     -0.106701024f,
    0.47040778f,     -0.035443284f,   -0.06891503f,    0.6415279f,
    -0.44454056f,    -0.3451701f,     -0.9046293f,     0.2844331f,
    0.4388826f,      0.5165104f,      0.2661537f,      -0.33027104f,
    0.19850294f,     -0.23604302f,    0.13286534f,     -0.24772337f,
    0.557757f,       -0.4527977f,     -0.2721575f,     0.21989982f,
    -0.037867248f,   0.07813477f,     0.22528498f,     -0.09552846f,
    -0.10119154f,    0.23015234f,     0.17322038f,     -0.8782215f,
    1.191987f,       -0.011515079f,   0.36803275f,     -0.11401499f,
    0.16497324f,     -0.18326049f,    -0.07826622f,    0.6796582f,
    -0.34366265f,    0.21738459f,     -0.10255731f,    -0.18783751f,
    -0.13083676f,    -0.32128f,       0.30317646f,     -0.24729489f,
    -0.24674098f,    -0.43167025f,    0.05516035f,     0.08097161f,
    -0.2775638f,     0.2675053f,      0.042263936f,    0.16575998f,
    -0.09498651f,    -0.36426318f,    -0.79198545f,    -0.73079056f,
    -0.4924872f,     0.09132341f,     -0.2612004f,     -0.27492362f,
    -0.59798616f,    -0.51990944f,    -0.9331011f,     0.1447287f,
    0.13645051f,     -0.41994482f,    0.49596155f,     0.015033561f,
    -0.051798686f,   -0.08593686f,    0.61726874f,     0.9001161f,
    -0.108282186f,   0.77802986f,     0.43126985f,     0.17052986f,
    0.6649637f,      -0.036828905f,   -0.039789904f,   0.13256554f,
    0.81838685f,     -0.6676933f,     -0.46059483f,    0.54260164f,
    -1.1257219f,     -0.6102725f,     -0.67749476f,    -0.049522657f,
    0.46802226f,     0.15024251f,     -0.39944932f,    -0.9902478f,
    -0.78265053f,    -0.5642369f,     0.7021549f,      -0.4777617f,
    0.032834f,       0.4968788f,      0.05667498f,     -0.30456018f,
    0.39260453f,     0.0676868f,      -0.69089013f,    -0.11213795f,
    -0.39721033f,    -1.2999685f,     0.09098665f,     0.2761634f,
    -0.5469395f,     -0.20616566f,    0.07388112f,     0.27012336f,
    0.5332357f,      0.21838127f,     -0.15146112f,    -0.25577906f,
    0.104551986f,    0.6338109f,      0.6800194f,      -0.50686085f,
    -0.30653083f,    -0.30441862f,    0.39574865f,     0.8963344f,
    0.47823137f,     -0.16245008f,    0.7280723f,      0.24116553f,
    -0.5925304f,     -0.44182056f,    -0.04771649f,    -0.3838312f,
    0.1589105f,      0.1844519f,      -0.93078065f,    0.16229916f,
    0.3052386f,      -0.03701548f,    -0.11573185f,    -0.100685485f,
    -0.068631634f,   -0.01978392f,    0.58325726f,     0.34585226f,
    -0.52603996f,    -1.1986662f,     0.5564085f,      -0.29910758f,
    0.1397017f,      -0.15111195f,    0.08831291f,     -0.39665195f,
    -0.55647683f,    0.29364276f,     0.31756276f,     0.013615568f,
    1.1200838f,      0.4777504f,      -0.26675197f,    0.05735773f,
    -0.016243236f,   0.23438604f,     0.31210047f,     -0.063191295f,
    0.18642855f,     -0.2908617f,     -0.104420744f,   -0.17235342f,
    -0.3273915f,     -0.5459042f,     0.27787626f,     0.013654835f,
    -0.044030268f,   -0.3674346f,     0.10862136f,     -0.0037182504f,
    -0.48004562f,    -0.033520445f,   -0.3737097f,     0.18754f,
    -0.31422445f,    0.7992411f,      0.6301709f,      0.61673373f,
    0.50497174f,     0.35051247f,     0.6940912f,      0.13766962f,
    0.17654084f,     0.82377565f,     0.26323906f,     -0.18918383f,
    -0.26328194f,    1.3210762f,      -0.14718758f,    -0.14671326f,
    0.2320721f,      -0.70204574f,    -0.120937265f,   -0.38492927f,
    -0.16338006f,    -0.16924588f,    0.4632291f,      -0.4532379f,
    -0.31860545f,    -0.15160453f,    0.110484205f,    0.003042476f,
    -0.38119242f,    0.3351415f,      0.14740112f,     -0.17484632f,
    0.19087218f,     -0.48072848f,    -0.54923517f,    0.1660935f,
    0.23373392f,     -0.75117f,       -0.0038807886f,  -0.15151972f,
    -0.5480983f,     -0.26327166f,    -0.59146005f,    0.9523767f,
    0.23137511f,     -1.2498856f,     -0.0965234f,     -0.15240228f,
    -0.46422613f,    0.7124095f,      0.5477408f,      0.655151f,
    -0.4677438f,     0.5788142f,      -0.06797023f,    0.45822388f,
    0.82438546f,     -0.22315763f,    -0.79066634f,    -0.11280484f,
    -0.037124f,      -0.4618209f,     -0.10013632f,    -0.41821185f,
    0.09275793f,     0.044275966f,    0.01510409f,     0.1744276f,
    -0.22740503f,    0.22359404f,     0.046195477f,    -0.54364467f,
    -0.021935213f,   -0.066297226f,   -0.14069612f,    -0.17591918f,
    -0.06267182f,    0.16880985f,     0.18595593f,     0.27708468f,
    -0.24114579f,    0.0077775237f,   0.110069074f,    0.08726175f,
    0.08778186f,     0.30581528f,     0.34837452f,     -0.002766942f,
    0.01694294f,     0.043805648f,    0.12457747f,     0.24380693f,
    -0.22769496f,    -0.050395798f,   0.09941305f,     0.3099993f,
    0.088101864f,    -0.4252846f,     0.0683243f,      -0.10503676f,
    -0.6039756f,     -0.14120054f,    0.24643947f,     -0.20595197f,
    0.27598783f,     0.07328223f,     0.017073631f,    0.005425111f,
    -0.3391384f,     0.20181926f,     -0.07423635f,    -0.29110542f,
    -0.07530722f,    -0.15221772f,    -0.2356604f,     -0.42478254f,
    0.04468101f,     0.12673028f,     -0.20867977f,    -0.483039f,
    0.28539896f,     0.06635966f,     -0.24883646f,    0.091673926f,
    -0.8174765f,     0.13630123f,     0.00504591f,     0.2653933f,
    0.303758f,       0.28541407f,     0.059699383f,    -0.28091604f,
    0.16791096f,     -0.22797781f,    0.13932523f,     1.3497633f,
    -0.22072375f,    0.30576938f,     0.28154132f,     0.2463772f,
    -0.1856845f,     0.0028089825f,   0.020936837f,    -2.0574749f,
    0.7054888f,      -0.031970933f,   -0.76798546f,    -0.41882035f,
    -0.18414822f,    0.105836816f,    -0.5063216f,     -0.27917576f,
    0.2544205f,      0.19482869f,     0.33046073f,     -0.8939524f,
    0.6785085f,      -0.5018245f,     -0.21887016f,    -0.85886556f,
    0.0520687f,      -0.21653639f,    -0.3573116f,     0.100374855f,
    0.46613735f,     0.019134313f,    -0.00092078105f, -0.09254572f,
    -0.057498552f,   -0.13480958f,    -0.07785295f,    -0.22698909f,
    -0.05130403f,    -0.38456586f,    0.24595277f,     0.2879319f,
    -0.18953533f,    0.6097014f,      -0.015117263f,   0.11473466f,
    0.13616876f,     0.06488165f,     0.5234473f,      -0.39530665f,
    0.12588564f,     -0.014561643f,   0.46860656f,     0.18492581f,
    0.14648494f,     -0.6386379f,     -0.2411636f,     0.11729605f,
    -0.2912454f,     0.44025928f,     0.4004039f,      0.14270282f,
    -0.1625878f,     0.29356563f,     0.13971849f,     0.27977124f,
    0.054178126f,    0.49038646f,     -1.0772619f,     -0.2999766f,
    -0.44019762f,    1.1774917f,      -0.37119853f,    0.50625676f,
    0.47648862f,     -0.8115606f,     0.26634887f,     -0.17012854f,
    0.11602992f,     0.3887534f,      0.46373105f,     -0.33061722f,
    0.09440629f,     0.3317494f,      -0.3364197f,     0.019577991f,
    -1.2872106f,     0.014302621f,    -0.009832903f,   -0.8534037f,
    0.48698735f,     -0.4235255f,     -1.1287733f,     0.5433176f,
    0.24580304f,     0.5657774f,      0.21356848f,     -0.23475967f,
    -0.46602392f,    -0.6740277f,     -0.5893612f,     0.035706602f,
    -0.08192843f,    -0.9683411f,     -0.8772809f,     0.14478251f,
    -0.036820095f,   0.37800792f,     -0.43242478f,    -0.31593838f,
    -0.050818697f,   -1.0910217f,     -0.4055456f,     1.6763817f,
    0.40434843f,     0.3045598f,      0.041782107f,    -0.22961093f,
    1.4394214f,      -1.6974642f,     -0.90468234f,    -0.62904805f,
    0.05858293f,     0.08986774f,     0.09662544f,     0.21478207f,
    0.17447685f,     -0.30075464f,    -0.19236389f,    -0.10289613f,
    -0.19372794f,    -0.21666475f,    0.17792387f,     0.35731462f,
    0.16878073f,     0.20243339f,     0.014323707f,    0.07096695f,
    -0.36751887f,    -0.14537424f,    -0.050208732f,   0.066864535f,
    0.05521384f,     0.52401227f,     0.13828526f,     -0.54243875f,
    0.17509139f,     -0.19870532f,    0.38665915f,     0.08798023f,
    -0.015595004f,   -0.16884528f,    0.23924147f,     0.33877143f,
    -0.20342635f,    -0.18152641f,    -0.03242365f,    -0.15876895f,
    -0.00010968215f, -0.48696896f,    0.18649727f,     0.07938925f,
    0.30162913f,     -0.23987806f,    0.34282127f,     0.25064322f,
    -0.43729797f,    0.2585269f,      -1.0453112f,     -0.009294315f,
    -0.06150199f,    -0.6013586f,     0.061280444f,    -0.28495628f,
    -0.07106804f,    1.0158948f,      -0.14836606f,    -0.7460907f,
    -0.14103875f,    0.12694843f,     -0.38643408f,    -0.122776814f,
    0.018843161f,    -0.015412722f,   0.15902914f,     0.14888565f,
    0.05741878f,     0.07907467f,     0.13631773f,     0.1870783f,
    0.24665768f,     0.105116114f,    -0.0012800602f,  0.043593146f,
    0.08151153f,     0.5743315f,      0.7001113f,      -0.29426607f,
    0.104974054f,    -0.895915f,      -0.2952834f,     0.10165688f,
    0.4754311f,      0.7259202f,      0.047516137f,    -0.29403788f,
    0.055120785f,    -1.3544337f,     -0.43302754f,    1.2970631f,
    0.16573828f,     0.13671052f,     -0.036299717f,   -0.09403407f,
    0.7098938f,      0.3371499f,      0.49804032f,     -0.16121767f,
    -0.15158454f,    -0.25875822f,    -0.043456174f,   0.23261088f,
    -0.5399289f,     0.14922334f,     0.01571373f,     -0.2401031f,
    -0.1832502f,     -0.3381582f,     0.07294367f,     -0.27727425f,
    -0.08056237f,    0.11208787f,     0.11070255f,     0.2835927f,
    0.1992552f,      -0.27401713f,    -0.2825875f,     -0.13607706f,
    0.22793405f,     0.50268286f,     -0.0017892193f,  -0.1975905f,
    0.018717207f,    0.23785633f,     -0.0031250142f,  0.16357952f,
    0.10280171f,     0.15942341f,     -0.016550366f,   0.3433544f,
    0.23691294f,     0.45063087f,     0.18325138f,     -0.45719358f,
    -0.41804153f,    -0.3884084f,     0.092866644f,    -0.57007486f,
    -0.47755405f,    0.009619847f,    -0.11018274f,    -0.18734987f,
    -0.5348448f,     -0.23879597f,    -0.3020214f,     0.26553136f,
    0.56919914f,     -0.62403613f,    0.022601895f,    -0.17651643f,
    0.24560873f,     0.15588252f,     -0.05039186f,    -0.3048103f,
    -0.16212505f,    -0.17422472f,    -0.16053693f,    0.3774261f,
    -0.09616421f,    0.16734318f,     0.08056497f,     1.535515f,
    -0.6491484f,     -0.30077058f,    -0.12225604f,    0.042711284f,
    -0.02996888f,    -0.13871247f,    -0.40257072f,    -0.72984415f,
    -0.23962326f,    -0.14927314f,    -1.208039f,      1.023598f,
    0.5580116f,      -0.035808034f,   -0.42220283f,    -0.7278142f,
    -0.37384245f,    0.7224022f,      -0.15690173f,    0.4934473f,
    -0.24107888f,    0.15588446f,     -0.4231904f,     0.9948767f,
    0.16622001f,     0.23548174f,     0.4283028f,      -0.12401827f,
    0.19830212f,     -0.723041f,      -0.08450035f,    -0.66742676f,
    -0.14107664f,    -0.4408732f,     -0.23381516f,    0.11513199f,
    -0.1314336f,     0.32147208f,     0.1645553f,      0.3599451f,
    0.026150914f,    -0.15594907f,    0.2289013f,      -0.27817243f,
    0.018216174f,    -0.6026104f,     -0.2126337f,     0.2782756f,
    0.28041872f,     0.27808642f,     -0.49732587f,    -0.23514345f,
    0.07749452f,     -0.30471462f,    0.33974618f,     0.006237885f,
    -0.31621873f,    -0.083408736f,   -0.08068325f,    0.124744765f,
    -0.24453697f,    -0.013482386f,   0.401775f,       -0.22678782f,
    0.24394004f,     -0.42331612f,    -1.078519f,      0.22201914f,
    0.03917737f,     -0.2616369f,     -0.16310832f,    0.4590841f,
    -0.44903073f,    -1.3927817f,     -0.471175f,      -0.39827543f,
    -0.22351958f,    0.5549097f,      -0.81615776f,    0.9743573f,
    0.3727166f,      -0.45976922f,    0.12686907f,     -0.56654733f,
    0.050535966f,    -0.7320837f,     0.35902175f,     0.16546088f,
    -0.42376456f,    0.112093866f,    -0.45619923f,    -0.25411907f,
    0.58498573f,     0.4687446f,      0.14285932f,     0.08007238f,
    0.2819659f,      1.1825141f,      1.5042032f,      0.17853588f,
    0.31699815f,     0.4591458f,      -0.07074499f,    1.0139108f,
    1.5139337f,      0.3628391f,      1.35649f,        0.18558969f,
    -0.39203233f,    -0.26703677f,    -1.3501872f,     -0.28984892f,
    -1.1536573f,     0.042793013f,    0.6235138f,      -1.708047f,
    0.21086083f,     -1.6211059f,     0.09076279f,     -1.1743561f,
    -0.26519677f,    0.16742824f,     0.5265562f,      -0.5464529f,
    0.30142224f,     -0.73237437f,    -0.016835852f,   -0.5942523f,
    0.35627934f,     -0.0660245f,     0.0014224529f,   0.13186912f,
    0.015962906f,    0.02074256f,     -0.0053892313f,  -0.099309616f,
    -0.34771103f,    -0.25396115f,    -0.20254163f,    -0.4867892f,
    0.10245117f,     0.0803703f,      0.03965457f,     -0.007851614f,
    -0.08131766f,    -0.092052095f,   -0.1172418f,     0.09435241f,
    -0.072999544f,   0.40469503f,     0.262708f,       -0.3851507f,
    -0.23551814f,    0.04410779f,     -0.026163792f,   -0.067113735f,
    -0.35547942f,    0.03783351f,     0.03968389f,     0.1688048f,
    -0.073011f,      -0.42567194f,    -0.24591036f,    -0.21587694f,
    0.4934823f,      -0.10444317f,    0.05999923f,     -0.044675335f,
    -0.31255665f,    -0.4765046f,     -0.27800414f,    -0.28149807f,
    0.00023869725f,  0.23433231f,     -0.39551795f,    0.031686313f,
    -0.21226962f,    -0.60550755f,    -0.024125502f,   0.2471154f,
    -0.28196177f,    -0.15561862f,    0.063363135f,    -0.06618963f,
    0.2580804f,      -0.15797f,       -0.59842473f,    0.04331616f,
    -0.66293555f,    -0.10469699f,    -0.0184139f,     0.45186916f,
    -0.11019309f,    0.0836f,         -0.17741077f,    0.16749544f,
    -0.29785305f,    0.10204121f,     0.13645178f,     0.18865012f,
    0.09658966f,     0.32703573f,     -0.035605732f,   0.31531227f,
    -0.255009f,      -0.4006816f,     -0.2589319f,     -0.16873227f,
    0.5760757f,      0.28897658f,     -0.26041892f,    0.29443613f,
    -0.20737451f,    -0.43699926f,    -0.025254171f,   0.18875962f,
    -0.27691016f,    0.2132872f,      0.34291533f,     0.0015327975f,
    0.0537162f,      0.17578776f,     0.9775663f,      0.0903448f,
    -0.06382803f,    0.013933196f,    -0.25797322f,    -0.2666435f,
    1.329192f,       0.4098555f,      0.18780781f,     1.9305202f,
    -0.68095094f,    1.1537681f,      -0.104271546f,   -0.46488565f,
    -0.24863805f,    0.43066624f,     -0.30748108f,    -2.2412279f,
    0.5556012f,      -0.026189689f,   0.860375f,       -0.48437935f,
    -0.7954864f,     0.22356318f,     -0.5978534f,     0.41562092f,
    -0.16306937f,    0.66644984f,     0.76229495f,     -1.0532513f,
    -0.7489701f,     -0.27487075f,    -0.13780539f,    -0.5631787f,
    0.09845149f,     0.015332355f,    -0.03774686f,    -0.004388461f,
    -0.6339366f,     0.06671756f,     0.021457544f,    -0.40529668f,
    0.175663f,       0.6549195f,      -0.16792051f,    -0.22380133f,
    -0.24386708f,    0.14797178f,     0.16014807f,     -1.9047168f,
    0.0140083255f,   0.17553253f,     -1.0710558f,     0.48260388f,
    0.28799096f,     -0.039748136f,   -0.126624f,      -0.23135786f,
    0.572722f,       0.41691726f,     -0.41534752f,    -0.5830542f,
    0.08697458f,     -0.097628646f,   -0.11402763f,    -0.1495369f,
    -0.21801661f,    0.07404842f,     0.14489377f,     0.33109295f,
    -0.42089444f,    -0.23219566f,    0.20391892f,     -0.6375239f,
    -0.0645345f,     -0.17794839f,    0.27892625f,     0.6465412f,
    -0.18327813f,    0.010170331f,    0.2522843f,      0.33732852f,
    -0.38262025f,    0.041084133f,    0.02517941f,     0.057396475f,
    0.231233f,       0.020566447f,    0.019066768f,    0.41000906f,
    0.30256698f,     -0.23167749f,    -0.34576917f,    0.66335535f,
    -0.34193832f,    -0.5271331f,     0.1878784f,      0.16966058f,
    0.2037558f,      -0.19013332f,    -0.91633284f,    0.27091786f,
    1.2085387f,      0.7936786f,      0.12720011f,     0.24577105f,
    0.7943679f,      -0.17723161f,    -1.0203137f,     -0.4829128f,
    -0.35093632f,    -1.0654292f,     -1.2919317f,     -1.5305288f,
    -0.8388643f,     0.03945376f,     0.9291356f,      -0.43811995f,
    -0.8861497f,     -1.2835871f,     -0.45675862f,    1.6296371f,
    0.22850344f,     0.33603275f,     -0.27783445f,    -0.39217034f,
    0.4995856f,      -0.5348642f,     -1.4124364f,     -0.9342517f,
    0.40925193f,     0.5624057f,      0.26651788f,     0.24042417f,
    0.66263634f,     0.024266372f,    0.46910548f,     -0.07920065f,
    -0.55267245f,    0.7170979f,      0.07570779f,     -0.41928264f,
    -0.14473963f,    0.8519136f,      0.03396324f,     -0.44157317f,
    0.33463565f,     -0.35525185f,    -0.1810574f,     -0.7863045f,
    0.5623546f,      0.90198183f,     0.5359931f,      -0.62512726f,
    0.06127074f,     0.14231871f,     0.41769832f,     -0.6096249f,
    0.28114635f,     2.0315511f,      -0.6999514f,     0.13440554f,
    0.08940748f,     -0.3375932f,     -0.21093191f,    0.496864f,
    0.32261327f,     -0.2373839f,     -0.1053403f,     -0.061562266f,
    -0.37357503f,    -0.21416447f,    -0.39398307f,    0.022903977f,
    -0.059535976f,   0.0037127521f,   0.31657368f,     0.34817737f,
    -0.29786763f,    0.22687668f,     -0.31006688f,    0.36707938f,
    0.34540078f,     -0.029357553f,   0.2871191f,      -1.0474266f,
    0.33752424f,     -0.09830633f,    0.47230765f,     0.3001384f,
    -0.006958096f,   -0.79841864f,    0.36514917f,     0.24573436f,
    0.6104369f,      -0.16923822f,    -0.23172629f,    -0.020792052f,
    -0.17839068f,    -0.24240983f,    0.30279619f,     -0.17046374f,
    0.7089319f,      1.4731053f,      -0.23909979f,    -0.15689903f,
    0.19294159f,     -1.276641f,      -0.017857503f,   -0.13818035f,
    0.04060937f,     0.016242314f,    0.7162245f,      -0.13398278f,
    -0.32506076f,    -1.1273125f,     -0.49901405f,    2.1123776f,
    -0.38507023f,    0.14891161f,     -0.074703135f,   0.02554915f,
    2.3960671f,      -0.1182859f,     0.46329698f,     -0.18266283f,
    0.17071243f,     -0.19640014f,    -0.17052393f,    0.10657159f,
    -0.07253894f,    0.026212323f,    0.09931025f,     0.16209722f,
    -0.42046866f,    0.15242453f,     0.19817801f,     -0.24141939f,
    0.18175517f,     -0.016782403f,   0.19577157f,     -0.063697055f,
    -0.05737726f,    -0.039297942f,   -0.3183771f,     0.26780862f,
    0.39358807f,     1.2136389f,      -0.049174804f,   -1.0990368f,
    0.4783869f,      0.07212172f,     -0.7893196f,     -0.43410155f,
    -0.9543965f,     -0.2872245f,     0.66031855f,     0.09645777f,
    -0.5004329f,     0.13207258f,     0.15265732f,     0.10909866f,
    -0.037503317f,   0.0073895864f,   -0.029743273f,   -0.15099083f,
    -0.003674925f,   -0.7475582f,     0.4818472f,      0.47872058f,
    0.11045481f,     -0.12431106f,    0.19377682f,     0.37693307f,
    -0.31525508f,    0.119679846f,    -0.27261007f,    -0.3582922f,
    0.4661505f,      0.82725316f,     0.09186837f,     -0.9833496f,
    0.20530945f,     -0.12800205f,    0.38775852f,     0.015479891f,
    -0.5950244f,     -0.08844837f,    0.018451355f,    0.2649409f,
    -0.26128018f,    0.26610115f,     0.17722039f,     0.28902376f,
    -0.8257447f,     -0.1569602f,     -0.20083936f,    -0.96598715f,
    0.054430958f,    0.29026717f,     -0.020202557f,   0.4814647f,
    0.12612003f,     0.5297354f,      0.00814829f,     0.029958036f,
    -0.38819844f,    -0.37804106f,    -0.04669917f,    0.34230524f,
    0.32053858f,     0.298792f,       0.5779466f,      0.200591f,
    0.4665404f,      -0.09189545f,    0.5345129f,      0.3298581f,
    0.14726621f,     -0.49854034f,    -0.057079315f,   0.5737779f,
    0.15375768f,     -0.3980483f,     -0.5624939f,     -0.4664168f,
    0.48519662f,     0.14230147f,     0.5077037f,      0.44926167f,
    -0.10208845f,    -0.47922182f,    0.38965145f,     -0.42017168f,
    -0.14653099f,    -0.67137873f,    0.049248166f,    -0.33102033f,
    0.3841588f,      0.46528f,        -0.08079047f,    -0.22905749f,
    0.3834978f,      0.27322426f,     -0.5442024f,     -0.093386546f,
    0.2873975f,      -0.37858564f,    -0.38312268f,    0.6940837f,
    -0.43902373f,    0.053637896f,    0.21249992f,     -0.06433232f,
    -0.4648767f,     -0.094229326f,   -0.035434715f,   -0.30439836f,
    1.0947583f,      0.1277194f,      0.11988297f,     -0.38503549f,
    -0.122650005f,   0.29061466f,     -0.5721351f,     0.03813799f,
    0.19060256f,     -0.20700915f,    0.22372387f,     -1.55942f,
    0.5556447f,      0.15057738f,     -0.649779f,      0.07202518f,
    -0.062950194f,   0.14688583f,     -0.022553833f,   0.25895366f,
    0.41664124f,     0.06221368f,     0.30843434f,     -0.86776376f,
    1.1165879f,      0.36551383f,     0.22572728f,     0.10784859f,
    0.10402209f,     0.1038138f,      0.40052268f,     0.60506505f,
    0.10191841f,     0.13667619f,     0.14223023f,     -0.5742547f,
    0.21520844f,     0.11218675f,     0.3676329f,      -0.023297593f,
    0.08963797f,     0.4706087f,      -0.130189f,      0.01763658f,
    -0.35154256f,    0.24152933f,     0.42966247f,     -0.25946006f,
    0.087964f,       -0.3260153f,     0.94501144f,     0.012809148f,
    0.31286472f,     0.0635677f,      0.6497421f,      -0.15847011f,
    -0.33224595f,    -0.23746714f,    -0.5138219f,     -0.38608357f,
    -0.4640005f,     0.30078176f,     -0.22550428f,    0.065289885f,
    -0.6110181f,     0.17824805f,     -0.098955475f,   -0.022039361f,
    -0.39832717f,    0.3440856f,      -1.1638445f,     0.2651682f,
    -0.34893543f,    -0.8368453f,     0.5602093f,      -0.20314863f,
    -0.006714212f,   0.22607896f,     -0.07066118f,    -0.05927035f,
    -0.036705993f,   -0.21299872f,    -0.38273132f,    0.55438936f,
    0.43720552f,     0.2805258f,      -0.84405947f,    0.1697702f,
    -1.0967458f,     -0.44859448f,    0.048599076f,    -2.1217597f,
    0.8243571f,      -0.6493036f,     -0.6700846f,     0.41120505f,
    0.6567699f,      0.24996267f,     0.026302824f,    0.28377002f,
    -0.18214817f,    -0.7723968f,     -0.22139208f,    -1.347895f,
    -0.28389686f,    -0.09911672f,    -1.1915466f,     -0.08788692f,
    -0.15503807f,    -0.54062945f,    -0.82035965f,    -0.16017468f,
    -0.39040914f,    -0.75522345f,    -0.17008081f,    0.9092736f,
    -0.09067691f,    0.59061855f,     -0.23769635f,    -0.8349125f,
    1.0347317f,      0.38488388f,     -1.2027702f,     -0.5713323f,
    0.25465474f,     0.16946532f,     0.14317955f,     0.14051358f,
    0.19360457f,     -0.3646829f,     -0.07828813f,    -0.0023382287f,
    0.14505926f,     0.04819708f,     0.52666265f,     0.5727795f,
    0.26203418f,     0.15583268f,     0.16031103f,     0.29617003f,
    -0.051417083f,   0.1295844f,      0.14071554f,     -0.035384323f,
    0.2703633f,      0.063269936f,    0.22834066f,     -0.012076297f,
    0.44489563f,     -0.2945456f,     0.5303428f,      0.2680311f,
    0.8808585f,      -0.50623196f,    0.44419748f,     0.4131594f,
    -0.9921302f,     -0.07325759f,    0.76145273f,     -0.09412313f,
    0.032039523f,    -0.035284963f,   -0.07051077f,    -0.3051429f,
    0.49325114f,     -0.37940714f,    0.26568794f,     0.05358753f,
    -0.23236261f,    -0.76016736f,    -0.10777858f,    0.017150758f,
    0.19971557f,     -1.3633287f,     0.38054088f,     -0.31673732f,
    -0.14841755f,    0.7200718f,      0.30853242f,     -0.29313785f,
    -0.20347756f,    0.2499911f,      -0.05933802f,    -0.0100228675f,
    0.23349f,        -0.7363798f,     -1.296854f,      -0.4649877f,
    0.91361064f,     -0.11587616f,    0.66034377f,     0.077637725f,
    0.27490965f,     -0.45025945f,    0.41756204f,     -0.0016700352f,
    -0.02499009f,    1.348731f,       0.13012081f,     0.641013f,
    -0.11750705f,    -0.6246088f,     -0.38606337f,    0.22548026f,
    -1.4731256f,     0.12690113f,     -0.057420187f,   1.1241955f,
    0.104642585f,    -0.68074083f,    -0.43227136f,    -1.3691746f,
    -0.040814403f,   0.22854425f,     -0.1629237f,     -0.5126632f,
    0.19182827f,     -0.0045096767f,  -0.8803721f,     0.09692672f,
    -0.10013801f,    0.39179346f,     -0.31859928f,    -0.6004544f,
    0.15320112f,     -0.29920703f,    0.15056415f,     -0.010247238f,
    0.26297873f,     0.30621213f,     -0.2670766f,     -0.33101967f,
    -0.38340712f,    -0.9537728f,     -0.84461987f,    0.17744353f,
    1.4431429f,      -0.3927632f,     -0.1438529f,     -0.19007568f,
    -0.9397775f,     0.112227246f,    -0.29807413f,    -0.013913504f,
    -0.60116255f,    0.20949768f,     0.19825302f,     0.4206937f,
    1.6343554f,      -0.11277366f,    -0.54695404f,    -1.6035419f,
    -1.1136191f,     -0.91483706f,    -0.22803748f,    -1.3758909f,
    0.5416404f,      -0.28365093f,    -0.00848559f,    1.000657f,
    0.015899219f,    -0.109741f,      -1.1371531f,     0.08130385f,
    -0.39545354f,    -0.9451767f,     -0.34882337f,    -0.77803683f,
    2.4339771f,      -0.9472789f,     0.7207647f,      -1.5325265f,
    -1.4862514f,     0.02918492f,     -1.078102f,      -0.40217465f,
    -0.42909798f,    0.5064415f,      0.28164315f,     -0.63397825f,
    2.2621136f,      -0.11711636f,    -0.7284724f,     -1.9034194f,
    -0.8113803f,     0.19161601f,     -0.9021866f,     0.18203723f,
    0.49023286f,     0.450725f,       -0.016763713f,   -1.0503281f,
    -0.35833335f,    -0.3407498f,     -0.50790906f,    -1.0220428f,
    0.45949763f,     -0.718178f,      -0.26920772f,    -0.11298304f,
    1.2595787f,      -0.20940568f,    0.13382336f,     -0.06395801f,
    -0.1436902f,     0.27744496f,     0.32483244f,     0.5275701f,
    0.39835134f,     0.36148924f,     0.05273459f,     -0.90804684f,
    0.36286783f,     -0.49936926f,    -0.05241004f,    -0.31943977f,
    0.21644711f,     -0.079447575f,   0.30378866f,     -0.531663f,
    -0.3894982f,     0.2108099f,      0.064252f,       -0.8392233f,
    -0.32010192f,    -0.15314768f,    0.8825437f,      0.35775205f,
    0.040139075f,    -0.14965545f,    -0.20470437f,    0.059535522f,
    0.4691505f,      -0.760248f,      -0.2716342f,     0.2932303f,
    0.48411164f,     0.4565994f,      -0.28636816f,    0.22458704f,
    0.33439738f,     0.18152575f,     0.4117997f,      0.0040947394f,
    -1.7146807f,     0.16758318f,     0.34565684f,     -0.35195097f,
    0.10406262f,     -0.29869935f,    0.11386116f,     -0.44033042f,
    -0.16302128f,    0.031074056f,    0.4479f,         -0.12457173f,
    0.4209878f,      -0.04144198f,    0.5744488f,      0.0048448625f,
    0.33314994f,     -1.9218014f,     -0.009811876f,   0.61650556f,
    -0.74509484f,    -0.70317316f,    -0.59212714f,    0.42437074f,
    0.07792961f,     0.2266818f,      0.73254925f,     -0.26303247f,
    0.17223775f,     0.30363268f,     0.38347164f,     0.6941887f,
    -0.9646068f,     0.13456509f,     1.0126524f,      0.10589845f,
    -0.10837075f,    -0.05048263f,    0.4267007f,      0.07243077f,
    -0.21488696f,    0.2992758f,      -0.25421384f,    -0.09243941f,
    0.39483932f,     0.72062266f,     0.36903155f,     -0.21163766f,
    0.30370462f,     -0.345916f,      0.2662558f,      0.1325753f,
    -0.18723527f,    0.7920869f,      0.040405136f,    -0.024228996f,
    -0.06879343f,    0.42628714f,     0.35696462f,     -0.04696207f,
    -0.061171774f,   -0.050208293f,   -0.3254849f,     0.30802014f,
    -0.9257141f,     0.9483636f,      0.029416336f,    0.34010735f,
    -0.41416052f,    0.18090515f,     0.33588514f,     0.5545084f,
    -0.6626649f,     -0.18015717f,    -0.031192414f,   0.36605725f,
    -0.36433545f,    -0.19133101f,    0.093537055f,    0.43537584f,
    0.08475587f,     0.5107986f,      0.84202844f,     -0.050350085f,
    -0.29069403f,    0.67551535f,     -0.03430873f,    0.1607755f,
    0.4132792f,      -0.38354746f,    0.07603155f,     -0.5969461f,
    0.3672316f,      0.254284f,       0.07519248f,     -0.07570201f,
    -0.27029637f,    0.19547962f,     -0.3313445f,     0.22713707f,
    0.7228396f,      0.087329954f,    0.5725363f,      0.35253465f,
    -0.39641726f,    0.090346985f,    -0.1526472f,     -0.0302622f,
    -0.03537076f,    -0.3693397f,     0.20300293f,     -0.30752674f,
    0.12441795f,     0.3129891f,      0.76610124f,     0.23784138f,
    -1.2081131f,     -0.30688465f,    -0.030915122f,   0.12686773f,
    0.35559627f,     0.062990464f,    -0.053583644f,   0.13854767f,
    -0.37912142f,    -0.18471964f,    -1.149253f,      0.20227003f,
    -0.34187523f,    -0.67779124f,    0.52643925f,     0.39024264f,
    0.5034959f,      0.50410956f,     0.1504051f,      0.4269138f,
    -0.06770957f,    -0.28636476f,    0.32223582f,     -0.13914034f,
    -0.010171108f,   -0.28437382f,    -0.51252395f,    0.8598965f,
    -0.2678585f,     0.6148046f,      -0.13584007f,    0.039477024f,
    -1.0057113f,     -0.014604751f,   -0.18253782f,    -0.041061897f,
    0.06703692f,     -0.5984219f,     -0.042483218f,   0.2038262f,
    -0.6337596f,     -0.26032022f,    -0.06434683f,    -0.06346839f,
    0.008474957f,    -0.042105325f,   -0.0792533f,     0.39828426f,
    0.12932155f,     -0.6516886f,     -0.29234916f,    -0.8224918f,
    0.95843756f,     0.39626223f,     -0.025387026f,   1.553577f,
    0.051849518f,    -0.75669736f,    -0.116897866f,   -1.4215586f,
    0.19154766f,     -0.3750518f,     0.1572072f,      -0.9605453f,
    0.5433566f,      -0.16056405f,    0.076519325f,    0.31377357f,
    -0.21552604f,    -0.2027902f,     0.09746302f,     0.027912224f,
    -0.42166233f,    -0.074407145f,   -0.056516137f,   -0.29437235f,
    0.6569849f,      0.41928205f,     -0.3499974f,     -0.02906421f,
    -0.7591116f,     -0.1696996f,     0.009091213f,    -0.7981392f,
    1.0060418f,      -0.077894f,      -0.43630287f,    0.6306329f,
    -0.1381846f,     0.59396434f,     -0.25716868f,    -0.75677156f,
    0.10520036f,     -0.4621707f,     0.1177346f,      -1.6453524f,
    0.36781698f,     0.42905405f,     1.2204932f,      0.1734235f,
    -0.5278524f,     0.20280318f,     -0.40626335f,    0.6196927f,
    -0.36174667f,    0.3807683f,      -0.25729838f,    -0.92715716f,
    0.014441116f,    1.1283268f,      -0.16261414f,    -0.83317673f,
    -1.6231891f,     0.15537909f,     -0.1293977f,     -0.0326539f,
    -0.6894072f,     0.06330476f,     0.046136554f,    0.35027742f,
    -0.05162761f,    0.6031348f,      0.52554685f,     -0.22622035f,
    0.13270812f,     0.26728782f,     -0.03176197f,    -0.20416422f,
    0.67653424f,     -0.2029865f,     -0.8084752f,     0.057074845f,
    0.11119494f,     0.4114791f,      0.2220277f,      -0.4404215f,
    -0.24591365f,    0.105576f,       -0.0052622687f,  -1.2865703f,
    0.089868546f,    0.5633221f,      -0.5011865f,     -0.20429909f,
    0.07587146f,     1.3246602f,      0.4778319f,      0.49048886f,
    -0.10293245f,    0.2556766f,      0.3602364f,      0.15176734f,
    -0.33708057f,    0.94847006f,     0.122702405f,    1.0207652f,
    -0.23812774f,    -0.6683286f,     -0.5716287f,     0.21886015f,
    -0.16394894f,    -1.1420931f,     -0.888875f,      -0.21285017f,
    0.05006145f,     0.22944345f,     -0.20314376f,    0.17053248f,
    -0.96796024f,    -0.059394587f,   0.89513385f,     0.25436065f,
    0.9874853f,      0.5848741f,      -0.10400021f,    -0.1815035f,
    0.6480718f,      0.90641123f,     0.51492214f,     0.6819228f,
    -0.75175077f,    -0.29226795f,    -0.10746163f,    -0.039909646f,
    0.35336453f,     -1.4083185f,     -0.039530635f,   0.49129954f,
    -0.31451786f,    -0.833689f,      0.33196828f,     0.6304912f,
    0.7809047f,      -1.4142867f,     1.7540584f,      0.15107644f,
    -0.111847185f,   -0.04432673f,    0.41506597f,     -0.26821733f,
    1.5199702f,      0.6610955f,      -0.6126455f,     0.016611896f,
    1.2728169f,      -0.485108f,      0.43530008f,     0.06849106f,
    1.2345598f,      -0.8354764f,     -0.43856943f,    0.6190102f,
    -0.06293728f,    -0.3178325f,     -0.0059601557f,  -0.045493208f,
    0.26566175f,     0.62012315f,     -0.243666f,      -0.22517534f,
    0.20740837f,     -0.03629095f,    -0.024835067f,   0.04968994f,
    0.47974625f,     0.17935613f,     0.5414231f,      0.14835991f,
    0.10114627f,     -0.70652354f,    0.08219048f,     0.46308166f,
    1.0535816f,      0.10105451f,     -0.2686613f,     0.24645509f,
    0.09567264f,     0.11718239f,     -0.5295985f,     0.123789005f,
    -0.26970387f,    -0.2513035f,     -0.3145276f,     0.0013087402f,
    0.25836077f,     0.26980135f,     0.054678436f,    0.35856518f,
    -0.17386793f,    -0.44508266f,    0.739095f,       -0.73987025f,
    0.10699686f,     -1.0303817f,     0.29890093f,     -0.093715444f,
    0.04490293f,     0.77804977f,     -0.55568165f,    0.09316981f,
    0.40904564f,     -0.08340876f,    0.21551628f,     -0.11367655f,
    -0.12145178f,    0.13750395f,     0.33788553f,     -0.11682609f,
    0.19102249f,     -0.1567777f,     0.5515587f,      -0.048664447f,
    -0.9253645f,     -0.14560595f,    -0.4315464f,     -0.30741793f,
    -0.5559623f,     -0.20798708f,    0.026429806f,    0.17851353f,
    0.04375886f,     -0.43765706f,    -0.28220844f,    0.6504399f,
    0.15842134f,     -1.6426779f,     0.1398709f,      0.04328383f,
    0.07058678f,     0.52967054f,     -0.43031183f,    0.23854719f,
    0.1444129f,      0.03559954f,     0.054595552f,    -0.28123018f,
    0.26335087f,     -0.32158667f,    0.058775365f,    0.2957934f,
    -1.0702686f,     -0.13616568f,    0.14129767f,     0.008092616f,
    -0.27672243f,    -0.22339319f,    -0.048590098f,   0.19928169f,
    -0.07317166f,    0.43591762f,     -0.2262278f,     0.1606976f,
    -0.18890549f,    -0.14902447f,    -0.30172354f,    -0.2964479f,
    0.28184986f,     0.32796037f,     0.2504115f,      0.120641135f,
    0.14882396f,     -0.2576946f,     -0.7965526f,     -0.4536407f,
    0.14627488f,     -0.4827627f,     0.5586678f,      -0.42524892f,
    0.045370735f,    0.054046396f,    0.393938f,       0.11909675f,
    -0.23720571f,    -0.05738618f,    0.41156584f,     0.09610438f,
    0.12654601f,     0.14888617f,     0.32386824f,     0.2266211f,
    0.13862514f,     -0.30005267f,    -0.19365914f,    -0.23225395f,
    -0.28393304f,    0.31895137f,     0.116713785f,    0.3986961f,
    0.04396007f,     -0.37857008f,    0.1799641f,      -0.047448672f,
    0.048390996f,    0.0011406116f,   0.29232293f,     -0.007955177f,
    -0.06334862f,    0.13158229f,     -0.2727201f,     -0.28404343f,
    -0.0673827f,     0.11777601f,     0.081344046f,    0.018562311f,
    1.1373866f,      -0.023069652f,   0.22050174f,     -0.07858919f,
    -0.26493397f,    0.2691096f,      -0.66328627f,    0.49630222f,
    -0.6928891f,     0.12633783f,     -0.27057487f,    -0.44831458f,
    0.5633183f,      0.108924404f,    0.023951463f,    0.6678439f,
    -0.32790944f,    -1.4716578f,     -0.21792817f,    0.13410369f,
    0.8058254f,      -1.3255216f,     -0.19731191f,    -0.48436007f,
    -0.10028138f,    -0.0046788445f,  0.17676057f,     0.18776774f,
    -0.40757412f,    0.058368497f,    -0.024618085f,   0.28937384f,
    2.036705f,       -0.6190169f,     -0.52512115f,    0.1125227f,
    0.29618308f,     -0.020114182f,   -0.21330601f,    0.048235457f,
    0.0038738365f,   -0.3436425f,     0.065184206f,    -0.35330117f,
    0.37433758f,     0.1917945f,      -0.58014536f,    0.12069418f,
    -0.14047253f,    -0.5076519f,     0.21781595f,     0.0455871f,
    0.5642404f,      -0.57960707f,    0.69816816f,     -0.3079666f,
    -0.34286904f,    -0.004166967f,   -0.37874186f,    0.047852207f,
    -0.13590182f,    -0.058471166f,   -0.13826121f,    -0.07300543f,
    0.527704f,       1.3261454f,      0.20359702f,     -0.17809056f,
    -0.24538057f,    -0.12689841f,    -0.054656774f,   0.0513141f,
    0.28111222f,     -0.13648674f,    -0.03066368f,    -0.014400951f,
    0.14961931f,     -0.009537564f,   -0.10636209f,    0.006054651f,
    0.14399491f,     -0.59304553f,    0.21368381f,     -0.2050838f,
    -0.28584847f,    1.0051037f,      0.17569467f,     0.40575093f,
    0.12827131f,     -0.06416899f,    0.22034365f,     0.009558818f,
    0.023459144f,    0.17442136f,     0.078208126f,    0.058686588f,
    0.6735122f,      -0.25139868f,    0.28440258f,     0.02159826f,
    0.07389404f,     0.013553392f,    0.46744955f,     -1.0679741f,
    0.006651953f,    0.42483917f,     0.34866533f,     0.16024637f,
    -0.31535044f,    -0.02875477f,    -0.3995612f,     -0.5148253f,
    -0.098954365f,   -0.15939483f,    -0.42946467f,    0.104815796f,
    2.0496244f,      -3.5951326f,     -0.17285298f,    0.06311227f,
    0.26455113f,     -0.24836893f,    -0.08625144f,    0.3535892f,
    0.23302114f,     0.20297602f,     0.033430614f,    0.0052564787f,
    -0.41498733f,    -0.30046737f,    0.3115412f,      0.14224623f,
    -0.027934901f,   0.030474968f,    0.15054171f,     -0.051028877f,
    -0.20754726f,    0.5555647f,      0.085045226f,    0.27037933f,
    -0.08180103f,    0.026829733f,    0.13588503f,     -0.46641335f,
    0.109537534f,    -0.9704971f,     -0.16993952f,    -0.040107477f,
    -0.32098716f,    0.30718493f,     0.867198f,       -0.35719708f,
    -0.07217249f,    0.27131343f,     0.31704116f,     0.71408343f,
    0.032230485f,    -0.057019167f,   0.29588193f,     0.3834468f,
    -0.3745903f,     -0.8548407f,     0.15435061f,     0.11212398f,
    0.07873486f,     -0.066212386f,   0.17261794f,     0.27459055f,
    0.04298446f,     -0.04403592f,    0.031689607f,    -0.043883458f,
    0.048627157f,    0.17335816f,     0.18602774f,     0.15978596f,
    0.10184509f,     0.17117555f,     -0.054266393f,   0.056131683f,
    -0.42765117f,    0.4529796f,      -0.18925428f,    -0.13424523f,
    -0.0004208982f,  0.075156435f,    0.0675489f,      -0.23223776f,
    0.0720063f,      0.03232752f,     0.12981261f,     -0.017448463f,
    -0.058605716f,   0.085646525f,    -0.006765724f,   -0.04219172f,
    0.07609404f,     -0.11060414f,    -0.36233068f,    0.10580408f,
    -0.27515137f,    0.06581691f,     -0.029538078f,   -0.20435648f,
    -0.0003936233f,  -0.15087998f,    0.17934804f,     -0.43030667f,
    0.12700844f,     -0.06711034f,    0.18222708f,     0.08584578f,
    -1.0103887f,     0.15313493f,     0.1506277f,      -0.2607077f,
    0.26607066f,     -0.31049696f,    0.0058784266f,   -0.09769302f,
    -0.07910536f,    0.10653427f,     -0.23799545f,    -0.14626917f,
    -0.09539314f,    -0.22413446f,    0.29469058f,     -0.023995543f,
    0.48859468f,     -0.12490905f,    0.052445948f,    0.3711661f,
    -0.057219617f,   -0.021913437f,   0.03768761f,     -0.046085645f,
    -0.16002873f,    -0.4142672f,     -0.06846639f,    0.1282832f,
    0.0053885076f,   0.47913232f,     0.09800636f,     0.16800316f,
    -0.49572536f,    -0.22182132f,    -0.64402056f,    -0.18769635f,
    0.0743604f,      0.0021752808f,   -0.066247135f,   -0.1723674f,
    -0.011792135f,   0.0029332382f,   0.08822819f,     0.04797639f,
    -0.24390437f,    0.25095946f,     -0.056566227f,   0.031780086f,
    0.21675742f,     -0.17096873f,    0.25050104f,     0.45408857f,
    -0.020671006f,   -0.23661649f,    0.10353288f,     0.045809157f,
    -0.36257565f,    -0.27648076f,    0.32975775f,     0.43011346f,
    0.5341183f,      0.5964112f,      -0.27089527f,    0.54646987f,
    -0.30193964f,    -0.3744808f,     0.068450436f,    0.11355072f,
    0.5359115f,      -0.26687106f,    0.30371332f,     -0.26675594f,
    0.036049675f,    -0.24014159f,    -0.019125892f,   0.09837863f,
    -0.3694306f,     0.31441572f,     0.8241548f,      0.45432556f,
    0.008482803f,    0.110075586f,    0.40651095f,     0.50911826f,
    -0.92410505f,    -0.5394055f,     -0.049868025f,   1.0919038f,
    0.27750152f,     -0.27335808f,    0.708804f,       0.73886514f,
    0.050240323f,    -0.47526413f,    0.27545205f,     -0.06487223f,
    -0.15014386f,    0.32993007f,     0.111446284f,    0.2242521f,
    0.7962426f,      -0.20555906f,    0.26511583f,     0.29631984f,
    -0.24289387f,    -0.23901592f,    -0.18631738f,    0.50975895f,
    -0.39931825f,    -0.30680808f,    0.1441029f,      0.70814323f,
    0.22224697f,     -0.15117058f,    -0.12892766f,    0.30906886f,
    -0.2742788f,     -0.33129874f,    -0.02442812f,    -0.28723142f,
    -0.20028543f,    -0.14212596f,    0.15855676f,     0.70692277f,
    -0.076512486f,   0.5682805f,      -0.18568979f,    0.0012347213f,
    -0.63783056f,    -0.09924346f,    -0.7515337f,     0.061803803f,
    0.26360407f,     0.14158374f,     0.23876911f,     0.022801451f,
    0.018013816f,    0.06990181f,     -0.5347911f,     0.74326944f,
    -0.53936917f,    -0.6635766f,     0.30531397f,     0.5490724f,
    0.15442601f,     0.3693277f,      0.019673403f,    -0.38490567f,
    -1.8022466f,     0.077455714f,    0.617839f,       -0.09078673f,
    -0.35442516f,    0.242908f,       0.18980898f,     -0.027559545f,
    0.08352938f,     0.5213082f,      0.9016644f,      0.0063868994f,
    -0.2825868f,     0.28074107f,     0.0809525f,      0.13284631f,
    -0.4404913f,     -0.026033422f,   0.03533312f,     -0.57053256f,
    0.2081266f,      -0.040293492f,   -0.09697252f,    -0.3187044f,
    -1.2997042f,     0.029253276f,    0.25730935f,     -0.8344944f,
    -0.19025372f,    0.09196927f,     0.73673207f,     -0.13397881f,
    -1.9059949f,     0.3805473f,      -0.09542737f,    -0.3883152f,
    0.015084762f,    -0.29764056f,    -0.20678174f,    -0.010310168f,
    -0.60490966f,    -0.0004893999f,  0.45325997f,     -0.78245574f,
    -0.336295f,      0.6444904f,      0.6489564f,      -0.5850028f,
    -0.27563486f,    0.21477075f,     0.17329152f,     -0.881748f,
    -0.22754541f,    -0.09874654f,    -0.20422384f,    -0.3938123f,
    0.337743f,       -0.9337428f,     -0.42265683f,    -0.847178f,
    0.8710638f,      0.23747848f,     0.3434376f,      -0.22832623f,
    -0.7131936f,     -0.08666762f,    -0.28943312f,    -0.51820445f,
    -0.48412216f,    0.6034389f,      -0.7675687f,     -0.089331515f,
    0.067616336f,    0.18163165f,     0.0018486173f,   -0.026147958f,
    -0.6310904f,     0.36479512f,     0.36108088f,     0.32636052f,
    -0.17994823f,    -0.24469388f,    -0.18593849f,    -0.5178377f,
    -0.04607299f,    0.3218534f,      -0.3851124f,     0.48433015f,
    -0.34755424f,    1.1770746f,      0.20012355f,     0.051505856f,
    0.42148158f,     -0.52487206f,    -0.7398181f,     -1.2620375f,
    1.2391845f,      0.26742503f,     -0.07251572f,    -0.14469029f,
    0.32716614f,     0.03782674f,     -0.2808574f,     -0.53670675f,
    0.20200224f,     -1.4105504f,     -0.69139034f,    -0.25372857f,
    1.6457738f,      -0.123846844f,   -0.781835f,      0.013195629f,
    -0.7292295f,     0.47032765f,     -0.8035698f,     0.27135763f,
    -0.027426053f,   0.35824308f,     -0.0764725f,     0.29557604f,
    2.5164347f,      -0.10099871f,    -0.08047041f,    -1.5819441f,
    -1.4270428f,     -0.26037076f,    -0.83407426f,    -1.9597541f,
    1.358835f,       0.3109357f,      -0.5051733f,     -0.3721467f,
    0.64228594f,     0.52533835f,     -0.5137928f,     -1.183227f,
    0.016268708f,    -1.9111853f,     -0.16175014f,    -0.2204793f,
    1.3445668f,      -0.7885392f,     1.0598439f,      -1.115109f,
    -1.531161f,      -0.46659714f,    -0.42812613f,    0.85394615f,
    0.28381798f,     0.55861044f,     1.2409326f,      -0.9041081f,
    1.011538f,       1.0962249f,      -0.48373684f,    -1.8661827f,
    -0.5648195f,     0.019416375f,    -0.18717846f,    0.05908529f,
    0.28119093f,     0.26538223f,     0.16029367f,     0.15643884f,
    0.08760072f,     -0.09251534f,    0.42125282f,     -0.18645191f,
    0.37435374f,     0.10135588f,     0.37464586f,     -0.31126013f,
    1.000966f,       -0.42143625f,    1.2335241f,      -0.14133577f,
    -0.6600437f,     0.93893534f,     0.61909086f,     0.50358146f,
    0.09302431f,     0.041381687f,    0.16833706f,     -0.62880814f,
    -0.69045717f,    -0.24230243f,    0.043409713f,    -0.018128682f,
    0.43807754f,     -0.21279502f,    0.12863682f,     0.5478693f,
    -0.21398354f,    0.0066746874f,   -0.18375386f,    0.61400187f,
    0.20754263f,     -0.24370015f,    0.16036868f,     0.16612679f,
    0.062273636f,    0.07368161f,     -0.15132263f,    -0.3101699f,
    -0.23152162f,    -0.27203324f,    -0.36277518f,    0.15564367f,
    0.3296338f,      0.15026017f,     0.2605016f,      -0.0041253953f,
    0.031128729f,    0.17827591f,     0.14547947f,     -0.0032787914f,
    -0.0287143f,     -0.37770668f,    0.26267457f,     0.2743504f,
    0.28118333f,     -0.0099506f,     0.6076494f,      0.41983342f,
    0.53339124f,     -0.48385397f,    -0.21139936f,    2.4766152f,
    0.4339808f,      0.38570067f,     0.34290725f,     0.4536537f,
    0.013410747f,    -0.008389579f,   -0.11448211f,    -0.84447145f,
    0.13160723f,     -0.6333024f,     -1.416242f,      -0.25510433f,
    -0.04342977f,    0.025905287f,    0.030374551f,    0.08077436f,
    0.2906667f,      -0.011606954f,   -0.19106784f,    0.34085834f,
    -0.840711f,      0.26452875f,     0.27467364f,     0.7663319f,
    -0.43239647f,    0.40535983f,     0.31963488f,     -0.1076045f,
    0.06008076f,     -0.547468f,      -0.44770452f,    -1.3065559f,
    -0.3297887f,     0.020239614f,    -0.61061543f,    0.6254776f,
    0.45778275f,     0.39313617f,     -0.050055042f,   -0.13111375f,
    0.11691365f,     -0.41660243f,    -1.0541497f,     0.560949f,
    -0.10832845f,    0.31794313f,     0.08195327f,     0.637882f,
    0.43762767f,     0.043571223f,    1.7834173f,      -0.16772705f,
    -0.27745852f,    -0.0255066f,     0.2909704f,      -0.042969253f,
    0.15137315f,     0.010919319f,    0.91725445f,     0.35045764f,
    -1.7323573f,     -0.83948123f,    -0.043056216f,   0.289013f,
    0.21034274f,     0.27203295f,     0.029578218f,    0.7495169f,
    0.03546602f,     0.24401636f,     0.12938741f,     -0.024076266f,
    -0.320628f,      0.104466125f,    -0.29400572f,    -0.09962001f,
    -0.38949463f,    -0.37179595f,    -0.09825422f,    0.29667252f,
    -0.15175816f,    0.023023164f,    0.1965529f,      0.37024686f,
    0.12299233f,     -0.87840843f,    0.6642912f,      0.025068222f,
    -0.42575547f,    0.2095159f,      -0.46380535f,    -0.01162025f,
    -0.5274995f,     0.019854562f,    0.23664847f,     -0.21157096f,
    0.025556667f,    0.2938647f,      -0.03645612f,    0.30151653f,
    -0.30015388f,    -0.85493904f,    -0.16505875f,    0.06382897f,
    0.22830932f,     0.12399985f,     -0.61490667f,    -0.010049908f,
    0.70813894f,     -0.34998393f,    0.4938461f,      -0.14158997f,
    -1.0157741f,     -0.018461777f,   -0.01166123f,    -0.45538625f,
    -1.2370995f,     -1.2398392f,     -0.17299363f,    0.19167978f,
    -0.061465416f,   0.62296474f,     1.0200632f,      0.34505022f,
    -0.18049125f,    -0.4206608f,     -0.30857491f,    -1.141283f,
    0.09096999f,     -0.6981019f,     -0.12648864f,    0.48871607f,
    0.217102f,       1.0083064f,      -0.07562347f,    0.46807045f,
    -0.1806779f,     -0.28927994f,    0.9418591f,      -0.5641676f,
    0.1636917f,      0.08996064f,     0.12199021f,     0.13069636f,
    -0.40384257f,    0.026306381f,    -0.46110252f,    0.013852228f,
    -0.77143526f,    1.6984904f,      0.32389677f,     0.07148382f,
    0.18935269f,     0.4619646f,      0.47015157f,     -0.107946165f,
    -1.1884944f,     -0.30662432f,    0.24166651f,     -0.31836495f,
    0.28788647f,     0.48222965f,     -0.48174044f,    0.66753703f,
    0.033814427f,    -0.095298104f,   0.2720654f,      -0.031999707f,
    -0.0052087624f,  -0.2655649f,     0.4024748f,      0.47211424f,
    -0.17378658f,    -0.46289626f,    0.04876937f,     -0.9157464f,
    -0.1956561f,     -0.027063988f,   0.3806169f,      0.25040197f,
    2.0137942f,      -1.0058086f,     -1.1363668f,     0.010363398f,
    -0.28676885f,    -0.2505999f,     1.2316995f,      0.9975069f,
    -0.26820815f,    -0.442293f,      -0.3299844f,     -0.5550112f,
    0.03069331f,     -0.12961572f,    0.67053825f,     0.5202088f,
    0.19075303f,     -0.16844524f,    -0.22633635f,    0.20390433f,
    -0.6961193f,     0.94283104f,     -0.34390682f,    0.2920904f,
    -0.10048787f,    -0.20505688f,    -0.49479765f,    -0.21797007f,
    0.621682f,       -0.18735845f,    -0.19931686f,    0.5816724f,
    0.49461472f,     -1.2605945f,     -0.47705233f,    0.20625788f,
    -0.49322549f,    0.24271964f,     0.8064927f,      -0.11497963f,
    -0.2177626f,     -0.13793594f,    0.028081192f,    -0.6106309f,
    0.095791206f,    0.14148547f,     0.70748913f,     1.0173558f,
    0.09801933f,     -0.2292803f,     0.37776917f,     0.18227206f,
    -0.3996391f,     0.89413935f,     0.4905301f,      0.049461685f,
    0.24662231f,     -0.7497049f,     -0.046232395f,   0.43529388f,
    -0.7668514f,     -0.38849923f,    -0.15336448f,    0.8039103f,
    -0.45333245f,    -0.12228629f,    -0.8797888f,     0.2536455f,
    -0.12029232f,    -0.18653329f,    -0.055690616f,   0.38572285f,
    0.29993138f,     -0.12026581f,    0.06436825f,     -0.29395488f,
    0.36088157f,     0.108146094f,    -0.40155596f,    0.11916357f,
    -0.1520896f,     -0.29412833f,    0.02134054f,     0.07183165f,
    0.15406539f,     -0.34088305f,    0.17882472f,     0.15710826f,
    -0.07350069f,    -0.31778157f,    -0.18163554f,    0.04087912f,
    0.06752856f,     -0.029703457f,   0.07948861f,     0.039488684f,
    0.472655f,       -0.22789156f,    1.0566f,         -0.111269444f,
    0.04334612f,     0.6386588f,      -0.20818058f,    1.0332751f,
    -0.6789428f,     0.011282041f,    -0.07674211f,    -0.017165227f,
    0.16984937f,     0.23652364f,     -0.4955586f,     0.34789115f,
    0.020280462f,    -0.10735636f,    -0.02603307f,    -0.19750693f,
    -0.078435555f,   -0.39867428f,    -0.15332411f,    0.074320994f,
    -0.06638449f,    0.070505865f,    -0.25883535f,    0.18696247f,
    -0.40672556f,    0.09782767f,     -0.13166496f,    -0.04414574f,
    -0.0538938f,     0.013915821f,    0.24742731f,     0.29067424f,
    0.30849376f,     -0.1634096f,     -0.012323382f,   -0.03460492f,
    -0.13070914f,    -0.13005415f,    0.12692851f,     0.043375667f,
    -0.23293523f,    0.3846533f,      0.08548791f,     -0.03080668f,
    -0.14304689f,    -0.03286426f,    0.20530172f,     -0.6631116f,
    0.13837494f,     -0.46053338f,    0.7016454f,      -0.21155584f,
    0.04644445f,     -0.17805988f,    -0.26540646f,    -0.19448732f,
    -0.3782642f,     -0.038804617f,   0.45089152f,     -0.15697846f,
    0.5178698f,      -0.012965271f,   -0.19640628f,    -0.12146209f,
    -0.41452944f,    -0.15798399f,    0.09234421f,     0.2998625f,
    0.039135028f,    0.123669125f,    -0.07735262f,    0.33316195f,
    -0.27099797f,    -0.225299f,      -0.06690941f,    -0.14506002f,
    0.1761069f,      -0.44297418f,    -0.11922772f,    -0.18608859f,
    0.073583394f,    0.29063258f,     -0.28091094f,    -0.13880923f,
    0.05833918f,     0.11858477f,     -0.3616268f,     0.23876615f,
    -0.119369574f,   -0.068965f,      0.3864605f,      0.033410892f,
    0.31500557f,     0.06556144f,     -0.7184442f,     -0.0058965357f,
    -0.0014507715f,  -0.025100427f,   0.5326231f,      0.047549233f,
    0.09996335f,     -0.19356151f,    0.08271521f,     0.26859426f,
    -0.1424613f,     -0.9279175f,     0.27938578f,     -0.10152438f,
    -0.21148106f,    0.2522647f,      0.16235097f,     0.03717772f,
    -1.1047935f,     0.75097716f,     0.22758311f,     -0.25162148f,
    0.3266894f,      -0.083164975f,   0.05689495f,     0.10036527f,
    0.13664608f,     0.094847955f,    -0.069474205f,   -0.13544011f,
    -0.023525577f,   0.3026247f,      0.17244725f,     0.15611567f,
    0.15698572f,     -0.17894907f,    0.25126553f,     0.4055372f,
    0.21455085f,     0.035856508f,    0.20860599f,     0.109213136f,
    -0.25051552f,    0.025221674f,    -0.18888494f,    -0.060368154f,
    -0.09773476f,    -0.31344894f,    -0.23071022f,    -0.036098905f,
    -0.16862358f,    -0.14963622f,    -0.8798897f,     -0.606825f,
    0.13726442f,     -0.1781572f,     -0.0006870389f,  0.22817661f,
    0.55575216f,     -0.030974388f,   -0.29767314f,    0.14067967f,
    0.100237995f,    0.014320045f,    -0.22042671f,    -0.073159695f,
    0.08593269f,     -0.09697458f,    0.018365834f,    0.3618889f,
    0.28719535f,     0.008489005f,    -0.017496325f,   -0.28429174f,
    0.13328901f,     0.29973888f,     0.17402337f,     -0.10386143f,
    -0.119183056f,   -0.028315376f,   -0.0770337f,     0.054961022f,
    -0.2183437f,     -0.07694562f,    -0.08997701f,    -0.29695454f,
    0.013882113f,    -0.31998825f,    -0.24969196f,    0.18513212f,
    -0.04582874f,    -0.051014718f,   0.27403083f,     0.039536715f,
    -0.8294676f,     0.016145611f,    0.09831704f,     -0.2763652f,
    0.17801161f,     0.3365099f,      -0.32484722f,    0.66106975f,
    0.12668332f,     0.339894f,       0.018630093f,    -0.08761583f,
    -0.14968488f,    0.36794913f,     -0.1744408f,     0.4331364f,
    -0.016236136f,   0.03869174f,     0.12451496f,     0.1668115f,
    -0.117998965f,   0.8218704f,      -0.039610248f,   0.10469829f,
    0.071923405f,    0.2058105f,      -0.18203928f,    -0.18836647f,
    -0.014960455f,   -0.15886241f,    -0.18123356f,    -0.102105506f,
    -0.40271938f,    0.13393681f,     0.10560911f,     -0.18878321f,
    -0.051129065f,   -0.24572453f,    0.049927346f,    0.048360534f,
    0.33584732f,     -0.23532161f,    -0.05310094f,    -0.09011039f,
    0.335123f,       -0.1168523f,     0.3371738f,      0.20507948f,
    0.14846578f,     -0.06192869f,    -0.29048622f,    0.22984697f,
    0.07417231f,     -0.14559066f,    -0.84573996f,    -0.30540794f,
    -0.01774907f,    0.07324626f,     -0.33378392f,    -0.26806355f,
    0.1987194f,      -0.13356166f,    0.23891377f,     -0.14908576f,
    -0.1780336f,     -0.3319388f,     -0.42421174f,    0.017333675f,
    0.40681252f,     -0.0641162f,     0.5391682f,      -0.03940093f,
    -0.7233196f,     -0.85882396f,    -0.15326548f,    -0.029201448f,
    -0.24354707f,    -0.20859309f,    0.18566792f,     0.73008907f,
    0.030869743f,    -0.20846336f,    0.075742f,       -0.10268336f,
    0.07554968f,     -0.02594978f,    -0.43747818f,    -0.49841547f,
    -0.17589289f,    -0.0019801727f,  -0.24355645f,    0.07428705f,
    0.32760125f,     -0.050803185f,   -0.35578245f,    0.19207606f,
    0.24181098f,     -0.18329105f,    -0.041096948f,   -0.091588795f,
    -0.57745194f,    -0.23593314f,    -0.2954479f,     -0.049217086f,
    -0.14108771f,    0.43393332f,     0.027727298f,    -0.21657453f,
    -0.28340548f,    -0.19785443f,    -0.13301349f,    -0.49904785f,
    0.31916013f,     -0.06917279f,    0.04222901f,     0.55358166f,
    -0.23022817f,    0.5317942f,      -0.2969954f,     0.2011823f,
    -0.025079189f,   -0.26698297f,    -0.02890304f,    0.25951058f,
    -0.39148593f,    0.15170689f,     0.085782945f,    0.004933841f,
    0.0817317f,      -0.3702426f,     0.17225654f,     0.091846935f,
    -0.074166924f,   0.050229207f,    0.12946557f,     0.30801246f,
    -0.7518819f,     -0.066296294f,   -0.24821271f,    -0.59475416f,
    0.15460445f,     -0.2099244f,     0.031685412f,    -0.28142393f,
    0.4076119f,      -0.097901106f,   -0.015874498f,   0.22759786f,
    -0.4993049f,     -0.11434234f,    0.04613029f,     0.093552105f,
    -0.20069385f,    0.1664565f,      0.088288076f,    0.42839277f,
    -0.11036712f,    -0.098608136f,   0.6061293f,      0.2045871f,
    0.3038009f,      -0.51891536f,    0.26195127f,     -0.19760005f,
    -0.33784482f,    0.19187762f,     0.86830634f,     0.030879537f,
    0.11359575f,     -0.46106726f,    -0.37680325f,    0.74775165f,
    0.111426465f,    -0.15772752f,    0.29943064f,     0.6355488f,
    0.12364975f,     -0.21783206f,    0.48844767f,     -0.019135255f,
    0.4593863f,      -0.034936428f,   -0.382914f,      -0.13062444f,
    -0.047787443f,   -0.13367812f,    0.5277657f,      -0.19660378f,
    -0.29382733f,    0.06683943f,     -0.52572864f,    -0.19505115f,
    0.046652816f,    0.33007857f,     -0.49817193f,    0.80553263f,
    0.10621893f,     -0.50223625f,    0.7600467f,      0.005889803f,
    0.09078999f,     -0.49009877f,    -0.42784423f,    -1.0933352f,
    -0.38688394f,    -0.14328709f,    -0.11963012f,    0.35837823f,
    0.28920564f,     -0.15355343f,    0.0758583f,      0.7507949f,
    0.30348217f,     -0.02353447f,    -0.55530864f,    0.34833083f,
    0.2810947f,      -0.21568494f,    0.20383175f,     0.42757225f,
    0.43653226f,     -0.027938265f,   0.57782f,        -0.16649942f,
    0.28884584f,     -0.4284972f,     0.5986047f,      0.13050434f,
    -0.87940216f,    0.53206795f,     0.7273687f,      -0.083388746f,
    -0.51103103f,    -0.7066501f,     0.06114741f,     1.0739999f,
    1.2502992f,      0.6468899f,      0.4705689f,      1.0199819f,
    -0.307932f,      0.03783026f,     0.48542735f,     0.29119566f,
    -0.56818634f,    -0.092338495f,   0.49080077f,     0.15915725f,
    0.026071806f,    -0.24853033f,    -0.051828347f,   0.05843215f,
    -0.4057054f,     -0.11506555f,    -0.1319236f,     -0.04538032f,
    -0.6547004f,     -0.4036946f,     -0.25961554f,    0.16616324f,
    -0.35309795f,    0.062548004f,    0.54581493f,     -0.25213668f,
    -0.2837814f,     -0.5352491f,     0.15833727f,     -0.533616f,
    0.35851458f,     0.6998016f,      -0.56303453f,    0.58848083f,
    -0.39615533f,    -0.012098824f,   0.50355864f,     -0.0072079063f,
    0.5619386f,      -0.3748138f,     0.06476742f,     0.73759836f,
    -0.52793014f,    -0.8049799f,     0.32594478f,     0.1511304f,
    0.13579786f,     -0.25922552f,    0.33918256f,     0.21222064f,
    0.3135939f,      0.047922187f,    0.69668585f,     0.47136617f,
    -0.27502406f,    0.52951545f,     -0.6919163f,     0.38837054f,
    0.08148367f,     0.03983285f,     0.12795228f,     -0.060935467f,
    -0.6289914f,     0.13429686f,     -0.3547449f,     0.33075604f,
    -0.48234382f,    0.70111793f,     0.07212006f,     0.057154983f,
    0.21248724f,     -0.16246837f,    0.058946654f,    0.022028817f,
    0.4999915f,      0.21650442f,     1.079883f,       0.1218834f,
    0.42139673f,     -0.25640926f,    0.22070317f,     0.38887924f,
    -0.09788517f,    0.14187203f,     -0.018928092f,   0.69564444f,
    -0.17616911f,    0.07910838f,     0.39153537f,     -0.111235306f,
    0.26608247f,     0.15518147f,     -0.4466784f,     -0.2552739f,
    0.21255794f,     0.2533024f,      1.0493124f,      -0.18554765f,
    -0.107129425f,   -1.1101987f,     0.6593912f,      0.44349498f,
    0.22199173f,     0.66713095f,     0.13143194f,     -0.5653687f,
    -0.31924725f,    -0.73411983f,    -0.040568046f,   -0.24561925f,
    -0.6415247f,     -0.22601254f,    0.23846498f,     0.37899178f,
    0.24822406f,     0.20303026f,     0.16994867f,     -0.07852268f,
    -0.41548383f,    0.030929442f,    -0.265761f,      0.48240885f,
    0.15387364f,     0.7061427f,      -0.7890768f,     -0.67498314f,
    -0.9070694f,     0.5741163f,      0.3393801f,      -0.56155515f,
    -0.20346236f,    0.22870792f,     -0.3097433f,     -0.17413867f,
    -0.30901927f,    0.061773203f,    0.27335972f,     -0.039600734f,
    0.4399048f,      0.5104473f,      0.2159026f,      0.26169884f,
    -0.31941402f,    -0.03816411f,    1.1749176f,      -0.11337486f,
    -0.40288585f,    0.59802026f,     0.55013347f,     0.45947662f,
    -0.6502168f,     -0.11135438f,    -0.35639405f,    -0.1375056f,
    0.0013989625f,   -0.108494006f,   -0.42678404f,    0.05862331f,
    0.051120907f,    0.16496104f,     0.8376807f,      0.55719596f,
    -0.31316096f,    -0.41787067f,    0.55424505f,     -0.5873087f,
    0.16186726f,     -0.022052383f,   -0.3249351f,     -0.703032f,
    0.15812711f,     -0.2104365f,     0.6055194f,      0.0930976f,
    -0.6008173f,     -0.30929926f,    -0.60283285f,    -0.24034001f,
    0.3764777f,      0.0612027f,      0.2735744f,      -0.19623944f,
    0.5754904f,      0.2944541f,      0.6720479f,      0.4689216f,
    -0.20169389f,    0.037033975f,    0.08676268f,     0.32196724f,
    1.4958324f,      0.9528552f,      0.5766047f,      -0.46131712f,
    -0.7353564f,     0.11305337f,     0.26014045f,     0.62597716f,
    0.034564205f,    -0.3228328f,     0.21093322f,     -0.9701721f,
    0.16412838f,     -0.023307038f,   0.05613373f,     -0.72853637f,
    0.46663165f,     -0.4549209f,     -0.13188115f,    0.22259377f,
    0.2743358f,      -0.22776514f,    -1.0186588f,     0.5687221f,
    -0.553997f,      0.17887962f,     0.3213078f,      0.30740178f,
    0.8461599f,      0.2489574f,      -0.25002104f,    0.38868973f,
    0.6237394f,      -1.5768533f,     -1.1266271f,     0.0095669925f,
    -0.63969636f,    0.6553445f,      -0.55333954f,    -0.55297166f,
    -0.25884417f,    0.44736874f,     0.17010325f,     1.240433f,
    0.6675223f,      -0.7176905f,     0.06858174f,     0.57680684f,
    1.1270814f,      0.637508f,       -0.21438895f,    -0.23035687f,
    -0.18935567f,    0.2525768f,      -0.46894124f,    -0.953954f,
    0.36751094f,     -0.004209321f,   -0.1813176f,     -0.09549926f,
    -0.42505628f,    -0.093329966f,   -0.04045133f,    -0.5196601f,
    0.058581743f,    -0.425892f,      -1.5860099f,     -0.20052451f,
    -0.14455943f,    0.33360356f,     -0.59716064f,    -1.3207781f,
    0.3099677f,      0.013452352f,    0.15560214f,     1.07024f,
    0.31968f,        0.65809184f,     0.38322058f,     -0.059477143f,
    -0.30309904f,    -0.18415497f,    0.7406212f,      0.7931547f,
    -0.05207155f,    -0.5063639f,     -0.3015605f,     -0.37130484f,
    -0.32764488f,    -0.60560346f,    -0.99358064f,    0.1474215f,
    0.6084511f,      -1.0452838f,     -0.75045294f,    -0.32627234f,
    -1.7536122f,     -1.7285117f,     -0.70528495f,    1.4490296f,
    0.47598645f,     0.13513501f,     -0.17520478f,    -1.0181f,
    -0.15933403f,    0.48999622f,     -0.4045222f,     0.60387605f,
    0.5130385f,      -0.11574547f,    -0.036391146f,   -0.84605914f,
    -0.45888227f,    -0.4979678f,     -0.14186633f,    0.5867041f,
    -0.7962181f,     -1.1341628f,     1.075981f,       -0.14169483f,
    -0.5219694f,     -0.7033846f,     -1.4207733f,     0.65344685f,
    -0.49771872f,    0.29167247f,     -0.6321053f,     -0.08840929f,
    -0.6688636f,     0.19669487f,     0.16528223f,     -0.64569443f,
    -0.13279429f,    -0.13529417f,    -1.425894f,      0.24150509f,
    -0.21893865f,    -0.20680813f,    -0.53832954f,    -0.85613966f,
    -0.21453278f,    0.74209917f,     -1.2410394f,     0.2242033f,
    -0.35807854f,    0.07330958f,     0.066002764f,    0.4203858f,
    -0.08954266f,    0.038868826f,    0.8689541f,      -0.53013927f,
    0.9468709f,      -0.13529997f,    -0.21459791f,    -0.8709797f,
    -1.2911519f,     0.11300865f,     -0.36582294f,    -0.29902953f,
    -0.05009946f,    1.8011515f,      1.152991f,       -0.003380755f,
    -0.11819088f,    -0.24116243f,    -0.84663737f,    0.1076531f,
    0.45554456f,     -0.084137775f,   0.19930479f,     -0.89803195f,
    -0.31538978f,    -1.6083162f,     -0.18538404f,    0.17393501f,
    0.11097736f,     0.7391924f,      -0.5797322f,     -0.22708559f,
    -0.045934908f,   0.13990833f,     0.2853661f,      -0.8478763f,
    1.1915518f,      0.92404634f,     0.8026018f,      0.6274014f,
    0.122509636f,    0.16346534f,     0.20309925f,     0.9606107f,
    0.6379384f,      2.7470798f,      0.47744685f,     -0.4822704f,
    0.19375359f,     0.2919821f,      -0.28467995f,    -0.082280226f,
    -1.3239224f,     -0.14654441f,    0.37784034f,     -0.0328276f,
    -1.0526994f,     -0.49957183f,    0.08685086f,     0.6526262f,
    0.117193036f,    0.017333608f,    -0.176077f,      -0.7550941f,
    0.81697005f,     -0.2202355f,     -0.9622347f,     -0.18821369f,
    0.34706292f,     0.34083295f,     0.27375206f,     0.0901318f,
    -0.28535768f,    -0.2316993f,     -0.23088108f,    0.5596671f,
    -0.3425945f,     -0.31838274f,    -0.8646526f,     0.94767964f,
    -0.53753364f,    0.100876704f,    0.5338827f,      -1.0747596f,
    1.6342661f,      -1.6609694f,     0.3369519f,      0.64752674f,
    -0.04064017f,    0.060751952f,    0.59410197f,     0.90973234f,
    1.5794345f,      0.41379124f,     0.16708109f,     0.04540249f,
    -0.10402491f,    0.065288514f,    -0.5468967f,     0.68434936f,
    -0.6997611f,     0.35768327f,     0.56327033f,     -0.017961893f,
    -0.29209816f,    -0.11428855f,    -0.14948231f,    0.28204563f,
    0.21297777f,     0.038131f,       -1.2930646f,     -0.43185192f,
    -0.33997986f,    -0.7255293f,     0.2742007f,      -0.31461313f,
    0.01689619f,     0.32412046f,     -0.98407006f,    1.7066821f,
    0.3056189f,      -0.11092887f,    0.26403525f,     0.19115086f,
    -0.38647622f,    0.09834361f,     -0.20590127f,    -0.16081405f,
    0.21963768f,     0.07979732f,     1.0655259f,      -0.25473937f,
    0.52830285f,     -0.25002673f,    -0.17761774f,    0.18665555f,
    0.5653677f,      -0.7844139f,     -0.7091556f,     -1.062545f,
    -0.3439957f,     0.29898238f,     0.38057026f,     0.4519468f,
    0.65773004f,     0.3357223f,      0.14291246f,     -0.2759757f,
    1.6764328f,      -1.888447f,      -1.6372752f,     -0.8419006f,
    -0.53473794f,    0.34302115f,     -0.6623265f,     0.34157223f,
    -0.5294433f,     -0.10371328f,    -0.17973727f,    0.21785185f,
    -0.29445758f,    0.156513f,       -0.7147128f,     -0.14063822f,
    0.6416172f,      0.12851445f,     -0.7322768f,     0.4357746f,
    -1.4358706f,     0.15521547f,     -0.5435711f,     -0.8383731f,
    -0.36532858f,    0.3511314f,      0.7886766f,      0.11676846f,
    -0.11244547f,    -0.42263135f,    0.38965774f,     -0.6585866f,
    0.016383162f,    0.09183951f,     0.33827516f,     -1.2868687f,
    -0.21067594f,    0.5494305f,      0.725986f,       -0.56221867f,
    0.016377935f,    -0.48968098f,    1.1556863f,      0.533773f,
    0.5097244f,      -0.23023236f,    -0.57916826f,    0.47989452f,
    -0.62967366f,    -0.35530162f,    -0.5797839f,     -0.82823265f,
    -0.30548373f,    0.2095319f,      -1.053176f,      0.22023347f,
    -0.33317655f,    -0.30208686f,    -0.14406547f,    -0.42072868f,
    0.074935116f,    -0.1695826f,     0.28580397f,     0.1741032f,
    -1.7097033f,     1.7917308f,      0.3413804f,      -0.45910794f,
    0.14870365f,     -0.589091f,      -0.043548573f,   -0.38148782f,
    0.45482957f,     -0.7708568f,     -0.8570794f,     0.6301021f,
    0.07285376f,     -0.11572132f,    0.74206644f,     0.5942666f,
    -0.6971601f,     0.121248946f,    -0.123148635f,   0.45596948f,
    0.71511614f,     0.19049853f,     -0.4366688f,     -0.37949565f,
    0.2644341f,      -0.08139748f,    1.1338235f,      0.22698706f,
    -0.0017731001f,  0.4385306f,      -0.16299686f,    -0.51577187f,
    -0.04342093f,    -0.14222145f,    1.0152162f,      -1.3719938f,
    0.13597186f,     0.20159332f,     0.39738908f,     -0.43105644f,
    -0.021986207f,   0.04312576f,     -0.7868652f,     0.13401331f,
    -1.2458616f,     -0.041438878f,   -0.22914676f,    0.042692572f,
    -0.20996897f,    0.22738032f,     0.78062445f,     -0.1985257f,
    0.5060637f,      -0.24489333f,    0.13330892f,     -0.24757776f,
    0.5880298f,      0.54971206f,     -0.25122112f,    -0.18970817f,
    -1.0634202f,     0.29647586f,     0.30880135f,     0.22172515f,
    0.56882143f,     -0.9250588f,     -0.4357936f,     -0.48061597f,
    -0.76284444f,    0.2583765f,      -0.5997679f,     0.43585786f,
    0.3015782f,      0.06856224f,     0.18410343f,     0.10356682f,
    -0.8168441f,     -0.68545663f,    -0.37946278f,    -0.8835274f,
    0.21169934f,     -0.14502849f,    -1.2535172f,     0.21493565f,
    0.5546483f,      -0.11290982f,    -0.42685482f,    -0.5055197f,
    -0.7495859f,     -0.8093124f,     -1.2002231f,     0.5624482f,
    -0.24396119f,    0.20828128f,     -0.23159613f,    1.2126044f,
    -1.3044362f,     1.148918f,       0.5708536f,      1.559965f,
    -0.01678815f,    -0.4985744f,     -0.40886375f,    0.48347288f,
    -0.40254614f,    -0.3734214f,     1.0589356f,      0.45905983f,
    1.8010821f,      -1.2729224f,     -0.31828263f,    -1.5021126f,
    0.69893235f,     -0.08826634f,    0.834917f,       0.33892184f,
    0.8484216f,      0.73682624f,     -0.11782128f,    0.3585299f,
    0.9813653f,      0.36317813f,     0.561928f,       -0.9641884f,
    -0.13149329f,    0.4838696f,      -0.092389144f,   1.0165772f,
    0.03478245f,     0.21038319f,     -0.45327f,       -0.83319163f,
    0.20097616f,     -0.11272613f,    -0.6114842f,     -0.856928f,
    -0.8892488f,     0.5232672f,      -0.246252f,      -0.22355796f,
    -0.49797294f,    0.58136195f,     0.34555984f,     -0.43746704f,
    -0.13617243f,    -0.01804994f,    -0.29407892f,    0.062786125f,
    -0.80637735f,    0.04505456f,     0.069545805f,    0.5496764f,
    0.42109185f,     0.15341961f,     0.070238635f,    0.0116335265f,
    0.1532562f,      -0.1475155f,     0.18664461f,     -0.30071077f,
    -0.015486868f,   0.17493679f,     0.24125355f,     -0.049940255f,
    -0.012982159f,   -0.10480539f,    -0.111731246f,   -0.055552498f,
    0.2868009f,      -0.12968674f,    0.10585139f,     -0.07819065f,
    0.2936001f,      -0.28334764f,    -0.14659682f,    0.088730186f,
    -0.2563901f,     0.098489046f,    0.2620217f,      0.04966178f,
    -0.34129515f,    -0.21531726f,    0.14581238f,     -0.073999636f,
    0.021974294f,    -0.050829615f,   0.23859164f,     -0.031445205f,
    -0.05349807f,    0.15264153f,     0.021804463f,    -0.83641636f,
    0.18192114f,     0.0238986f,      0.15632623f,     0.026464868f,
    0.11772928f,     -0.002474951f,   0.14318043f,     0.10206901f,
    0.32318166f,     0.001243185f,    0.08356985f,     -0.19216433f,
    -0.4897175f,     -0.08232976f,    -0.023504656f,   0.086492695f,
    -0.14627272f,    -0.020312313f,   -0.14193116f,    0.11097295f,
    1.4407856f,      0.052863397f,    -0.114002876f,   -0.70772564f,
    -0.04668402f,    0.12137062f,     0.035864692f,    0.059104756f,
    0.2617589f,      0.1733373f,      -0.088822864f,   -1.0045043f,
    -0.016987346f,   -0.05542036f,    -0.116184294f,   0.16807625f,
    0.014849898f,    0.20175873f,     -0.055541158f,   -0.13732359f,
    -0.05272761f,    0.079905055f,    0.37902826f,     -0.045976214f,
    -0.15794192f,    -0.33245572f,    0.088942684f,    -0.21058331f,
    -0.27388743f,    -0.016081883f,   -0.055545233f,   0.027544208f,
    -1.6483064f,     0.59376025f,     -0.09340707f,    0.6847002f,
    0.23146404f,     0.17780963f,     -0.10631822f,    -0.63224614f,
    0.11708929f,     -0.13138855f,    0.07057989f,     -0.23506816f,
    0.14459105f,     -0.07327722f,    0.4847908f,      -0.12986381f,
    0.23235218f,     0.522277f,       -0.3456932f,     0.30711353f,
    -0.43329304f,    -0.0008088845f,  0.21863808f,     -0.11485514f,
    -0.13668443f,    -0.29012984f,    0.24808696f,     0.059088293f,
    0.5593213f,      0.13780832f,     -0.27972698f,    0.42753476f,
    0.49247327f,     -0.27481145f,    0.17275456f,     0.3879593f,
    -1.0535239f,     0.098929696f,    -0.10415912f,    0.63864726f,
    -0.053846117f,   0.10387201f,     0.69003546f,     -0.6412443f,
    0.11427437f,     0.51777303f,     -0.68263745f,    -0.5292025f,
    -0.19697092f,    0.28271356f,     -0.3822582f,     -0.22033443f,
    0.32968506f,     -0.20473035f,    -0.22910015f,    0.11027794f,
    0.0712653f,      -0.60116434f,    -0.39437348f,    -0.2150836f,
    0.45446995f,     0.07056592f,     0.018312179f,    0.1845833f,
    1.0518285f,      -0.107625075f,   0.11457971f,     -0.77309424f,
    0.14195392f,     -0.22097555f,    -0.43524772f,    -0.0039000204f,
    -0.041455526f,   0.33592916f,     -0.04077512f,    -0.8450555f,
    -0.05646621f,    -0.30452788f,    0.5221466f,      0.4084924f,
    0.4062485f,      -0.044845693f,   -0.00675527f,    -0.16546082f,
    -0.2449499f,     -0.027966376f,   0.11862535f,     -0.19570951f,
    0.14488046f,     0.4629437f,      0.4621903f,      -0.3498245f,
    0.07456678f,     -0.06814027f,    -0.19533563f,    0.074666165f,
    -0.16300361f,    -0.061587058f,   -0.021368502f,   0.08157048f,
    0.13682462f,     -0.0080435155f,  -0.30939406f,    -0.20605056f,
    -0.00640911f,    0.1735207f,      -0.99776226f,    -0.05340253f,
    -0.2871095f,     -0.42911834f,    0.1045171f,      -0.41954255f,
    0.24398503f,     -0.05020468f,    -0.408768f,      0.6109281f,
    -0.28774956f,    0.025587741f,    0.2855889f,      0.11424107f,
    0.90691215f,     -0.24799907f,    0.21343668f,     -0.36246556f,
    0.45017475f,     -0.037146706f,   0.35652065f,     0.50946826f,
    -0.21021615f,    0.06779977f,     0.13433804f,     -0.41327855f,
    -0.108340554f,   0.26875365f,     0.62934756f,     0.2553603f,
    0.02482053f,     -0.28076586f,    -1.7298099f,     0.3387008f,
    -0.2227814f,     0.31580994f,     -0.05450237f,    -0.08439766f,
    0.27756682f,     0.16046016f,     -0.31295905f,    -0.32212594f,
    0.6911025f,      -0.03156562f,    -0.5024653f,     -0.2625634f,
    -1.3227975f,     -0.34561318f,    0.22318932f,     -0.2125078f,
    0.56852263f,     0.109452836f,    -0.14680962f,    0.057027906f,
    0.021473028f,    -0.114363514f,   -0.12510273f,    -0.03142646f,
    -0.049169436f,   0.7397265f,      0.12042582f,     -0.0328768f,
    0.25663072f,     0.11190394f,     -1.0483608f,     0.22698613f,
    -0.31101966f,    0.024680836f,    -0.15616561f,    0.71057796f,
    0.13606492f,     -0.82187545f,    -0.019969111f,   -0.20025295f,
    -0.5858112f,     0.13279377f,     -0.11610191f,    -0.16215813f,
    0.05036238f,     0.65925646f,     0.14916392f,     -0.09155407f,
    -0.42260358f,    -0.042944282f,   0.006228813f,    -0.15698408f,
    -0.15604138f,    0.6410182f,      -0.30222255f,    0.27782017f,
    -0.23504427f,    -0.16571034f,    -0.0018200871f,  -0.8552681f,
    -0.81991786f,    -0.31038836f,    -0.33974394f,    -0.23361848f,
    0.17542662f,     0.064964555f,    -0.358511f,      -0.0861181f,
    0.062451795f,    0.16618039f,     0.035333917f,    0.68212956f,
    -0.44507414f,    0.42074344f,     0.19247465f,     0.12714154f,
    -0.19763985f,    0.17420256f,     -0.22297545f,    -0.4830643f,
