/**
 * @file
 * Default cnn weights for x2 upscaling with espcn model.
 */

#ifndef AVFILTER_DNN_ESPCN_H
#define AVFILTER_DNN_ESPCN_H

static const float espcn_conv1_kernel[] = {
    -0.15531488f,    -0.26322886f,    -0.084046684f,   0.37081778f,
    0.4477238f,      -0.07256179f,    0.115250155f,    -0.28385338f,
    -0.7328908f,     -0.33223855f,    0.44830093f,     0.18288065f,
    0.064379856f,    -0.10807146f,    -0.4546719f,     0.22531334f,
    0.29060012f,     0.54324496f,     -0.09969114f,    -0.057496514f,
    -0.27225634f,    -0.21141183f,    -0.07403384f,    0.286803f,
    0.25319132f,     -0.11536559f,    0.2819697f,      0.09170956f,
    -0.22491062f,    -0.05084461f,    0.10087475f,     -0.4269683f,
    0.23044166f,     0.18744387f,     -0.19975412f,    0.20607223f,
    0.13701302f,     -0.10520347f,    -0.2817585f,     0.14890757f,
    -0.15237771f,    0.04910416f,     0.1377946f,      -0.107418254f,
    -0.3347221f,     0.06473301f,     0.09947778f,     -0.16476257f,
    0.015926339f,    0.40639406f,     0.08021512f,     -0.21399419f,
    -0.5660315f,     0.0543517f,      -0.5372026f,     0.120609835f,
    0.79247266f,     -0.06830335f,    -0.1680599f,     0.18101649f,
    -0.29071823f,    0.9515066f,      -0.06564545f,    0.23267333f,
    0.28923267f,     0.09031381f,     0.7303668f,      0.44151476f,
    0.33024487f,     -0.59670824f,    0.1071774f,      -0.28213143f,
    0.19701971f,     -0.3094865f,     -0.050812908f,   0.26678652f,
    0.07515344f,     0.033371344f,    -0.05849519f,    0.34141806f,
    -0.43958977f,    0.559812f,       0.505013f,       0.037268937f,
    -0.5708646f,     -0.24868734f,    0.3491771f,      0.52236927f,
    -0.04617022f,    -0.40427005f,    -0.4724403f,     -0.12001233f,
    0.29179904f,     0.083604835f,    0.21873853f,     -0.12448502f,
    0.008124613f,    -0.2715466f,     0.2835717f,      -0.21629342f,
    0.22064704f,     0.12168199f,     -0.31183377f,    -0.1531785f,
    0.31474578f,     0.17989512f,     -0.23822278f,    0.002584101f,
    -0.08913444f,    -0.065891035f,   -0.31883097f,    -0.20434345f,
    0.2855312f,      -0.2163348f,     0.25418124f,     -0.31951106f,
    0.39784646f,     -0.5750412f,     0.25706694f,     -0.21647985f,
    0.3046549f,      0.10512398f,     -0.47645694f,    -0.062266193f,
    0.015106442f,    0.14918771f,     -0.17572984f,    0.09119614f,
    0.039884776f,    0.078227445f,    -0.04542884f,    0.29721835f,
    -0.42809433f,    0.42374495f,     -0.1653979f,     -0.11621234f,
    0.27531832f,     -4.4669194f,     -4.0328526f,     0.7721507f,
    0.1407551f,      -0.45087433f,    0.4241771f,      -0.49524942f,
    0.23215951f,     -0.013922565f,   0.09759158f,     0.25958094f,
    0.074170336f,    0.128836f,       -0.022533083f,   0.22806855f,
    -0.59955114f,    0.26777947f,     0.16446361f,     0.059897304f,
    0.34286696f,     -1.1217103f,     0.977544f,       0.13116755f,
    -0.51849914f,    0.5429076f,      -2.0887527f,     1.5836301f,
    0.09333868f,     -0.13831791f,    0.08285549f,     -0.5779657f,
    0.46808773f,     0.097430944f,    -0.051371753f,   0.15492117f,
    -0.4349883f,     0.8971107f,      -0.43193036f,    0.1658602f,
    -0.3318768f,     0.34336284f,     -0.26287f,       -0.080776975f,
    0.09401278f,     0.05424067f,     0.0023013176f,   -0.045719363f,
    0.26011512f,     -0.025666332f,   -0.2907909f,     0.6100486f,
    0.09558375f,     0.32998833f,     -0.055327974f,   0.140259f,
    -0.1944006f,     0.17071028f,     0.018933672f,    0.28371412f,
    0.22735827f,     -0.19527161f,    -0.22615558f,    -0.3559399f,
    0.2222505f,      -0.12666601f,    0.16414034f,     0.25890464f,
    -0.4277369f,     -0.2743601f,     0.27250028f,     -0.588632f,
    0.6615496f,      -0.09008318f,    -0.27198124f,    -0.0060849674f,
    -0.11926984f,    -0.30138493f,    0.5807007f,      0.008286456f,
    0.09936842f,     0.15253098f,     -0.05506436f,    0.10252065f,
    0.11505854f,     -0.08968674f,    -0.17190084f,    -0.042616248f,
    -0.0793154f,     -0.28019392f,    0.21582362f,     0.04773685f,
    0.325302f,       -0.011989162f,   0.0299111f,      0.29125503f,
    0.929816f,       0.22618558f,     -0.019301927f,   -0.1185423f,
    -0.49754566f,    0.3976235f,      0.3058554f,      0.5713702f,
    0.35705638f,     0.2700989f,      0.55352175f,     0.68764704f,
    1.1563358f,      0.26415706f,     -0.15221812f,    -0.33002952f,
    0.1657649f,      0.059907332f,    -0.19120398f,    -0.037159704f,
    -0.24460468f,    -0.22303638f,    0.036370557f,    0.14787212f,
    -0.038419776f,   0.3860881f,      0.48657227f,     -0.10959976f,
    -0.013389183f,   0.3379473f,      -0.0697842f,     -0.19915313f,
    -0.14011818f,    -0.11320045f,    -0.041242406f,   0.4979219f,
    -0.44051126f,    0.0044348445f,   0.12267266f,     -0.15250424f,
    -0.31517065f,    -0.003892317f,   0.2991341f,      -0.33516902f,
    0.18629855f,     -0.203175f,      0.4142729f,      0.07036332f,
    0.24955645f,     -0.30080807f,    -0.061599202f,   0.2914695f,
    0.09983892f,     0.40206882f,     0.07927804f,     -0.043152884f,
    -0.07115546f,    -0.18576977f,    -0.3098763f,     -0.101314f,
    -0.07859201f,    -0.07761192f,    0.0755897f,      0.10522621f,
    0.24504435f,     0.11331313f,     0.19076474f,     -0.55548215f,
    -0.19762675f,    0.11464383f,     0.34743863f,     0.054492805f,
    0.37033775f,     -0.114905566f,   -0.34328225f,    -0.12079051f,
    0.041213363f,    -0.11834926f,    -0.11890036f,    -0.27157634f,
    -0.18562984f,    0.36095196f,     0.2735559f,      -0.1162402f,
    -0.11024498f,    -0.3660824f,     0.38658312f,     -0.28809586f,
    -0.4047225f,     0.27639332f,     -0.27525f,       0.1581156f,
    0.18424648f,     0.01878513f,     0.09098413f,     -0.16001934f,
    0.040990245f,    0.02756752f,     0.076551035f,    -0.07765319f,
    0.055852883f,    -0.11996967f,    0.09327111f,     0.13862693f,
    -0.17020513f,    0.1408361f,      -0.057326946f,   -0.08078934f,
    -0.14333002f,    0.058958717f,    0.104403205f,    -0.1353219f,
    0.10207608f,     -0.13113731f,    0.16632634f,     -0.17485096f,
    0.25645912f,     -0.1405639f,     0.25864547f,     -0.3508068f,
    0.52031803f,     0.076065175f,    -0.1574515f,     0.25312322f,
    1.223908f,       2.8830256f,      0.6112126f,      0.19648239f,
    -0.3940282f,     0.87620485f,     -0.6819076f,     -0.57912815f,
    -0.0909692f,     -0.3542211f,     0.8724723f,      0.6863091f,
    0.064260945f,    -0.27372393f,    -0.11270778f,    -0.18099762f,
    0.0628571f,      -0.09202584f,    -0.020717293f,   0.04703827f,
    0.18048607f,     0.11614717f,     0.24148466f,     0.028085457f,
    0.012248322f,    0.0957025f,      -0.010158319f,   0.35486412f,
    -0.27071482f,    -0.025704386f,   0.4480068f,      -0.14217007f,
    0.18756403f,     0.10530252f,     -0.13040172f,    -0.21950984f,
    -0.25899473f,    -0.12749803f,    -0.0989889f,     -0.24826252f,
    -0.41077733f,    0.09095195f,     -0.28667277f,    0.10210855f,
    0.4124741f,      0.039632928f,    -0.08281914f,    -0.20719872f,
    -0.23512621f,    -0.64941806f,    -0.38493368f,    -0.10490014f,
    0.3515883f,      -0.021513566f,   0.48984912f,     0.03161801f,
    0.1918482f,      0.34530836f,     0.13509673f,     -0.12854414f,
    -0.36404243f,    -0.023859572f,   0.19256392f,     0.13031031f,
    -0.18014184f,    0.3429501f,      -0.13781652f,    0.18880062f,
    0.23034744f,     0.1578678f,      -0.24134015f,    -0.4773051f,
    0.57284427f,     -0.056485027f,   0.22374468f,     -0.24257214f,
    -0.49520445f,    0.93184173f,     -0.30508497f,    0.22761251f,
    -0.76118433f,    -0.42537922f,    1.113541f,       -0.24329685f,
    0.020487498f,    -0.50616705f,    -0.26874852f,    1.279124f,
    -0.016567461f,   0.2392377f,      -0.14907086f,    -0.6207954f,
    0.5872717f,      -0.36574036f,    -0.15146488f,    -0.111475065f,
    0.14682874f,     -0.18739282f,    0.27127537f,     -0.010286538f,
    -0.28217158f,    0.55728877f,     0.000965172f,    0.07639735f,
    0.35650072f,     -0.20378368f,    0.24558486f,     -0.31264016f,
    0.14155965f,     -0.14451373f,    0.61305946f,     0.38533494f,
    0.24939622f,     -0.35914394f,    -0.18157844f,    -0.24299192f,
    0.030068625f,    -0.16728546f,    -0.027076714f,   0.27716306f,
    0.22687067f,     -0.48798722f,    -0.027023932f,   0.0956376f,
    -0.014876482f,   -0.058644045f,   0.11825005f,     -0.1649256f,
    0.17784438f,     -0.001982541f,   -0.091179535f,   -0.16909078f,
    0.21175167f,     0.2661538f,      -0.087280266f,   0.03377589f,
    0.047511276f,    -0.33380088f,    -0.3233847f,     0.5966043f,
    0.19173095f,     -0.0059414734f,  0.35697845f,     -0.18168357f,
    -0.10860514f,    0.06403393f,     0.0011442116f,   -0.13761957f,
    -0.059380244f,   -0.24986221f,    0.15636286f,     0.08162785f,
    -0.08947248f,    0.084223025f,    -0.04164346f,    -0.47788313f,
    0.6054356f,      -0.29712173f,    0.3139097f,      -0.19614173f,
    -1.2143166f,     1.8129307f,      0.0879624f,      -0.2744126f,
    -0.17164439f,    -0.36412874f,    0.21724933f,     0.19837144f,
    0.04634126f,     -0.24928263f,    0.1431027f,      -0.058208063f,
    -0.23578349f,    -0.14908712f,    0.39513236f,     0.18344265f,
    -0.36673182f,    0.13659307f,     -0.2853696f,     -0.17387918f,
    0.13252492f,     0.46895856f,     0.08895336f,     0.12708306f,
    -0.21592772f,    -0.377515f,      -0.24377918f,    -0.1520888f,
    0.23863423f,     0.47371536f,     0.13925976f,     -0.06722392f,
    -0.004008064f,   -0.15215327f,    -0.020746723f,   0.12003485f,
    -0.27340508f,    -0.7037266f,     -0.49698213f,    0.023364047f,
    -0.14789498f,    0.3102192f,      0.20768134f,     -0.8702338f,
    0.07189858f,     0.26818123f,     0.4005066f,      0.7209781f,
    0.695899f,       0.202451f,       -0.5000385f,     -0.21640937f,
    0.075570986f,    -0.31188682f,    -0.13591684f,    0.03828727f,
    0.24850245f,     0.11921491f,     0.26434985f,     0.016079053f,
    0.09478107f,     -0.11024617f,    -0.003163186f,   0.0006508201f,
    0.028699571f,    -0.040541634f,   0.097007155f,    -0.03996607f,
    -0.014391547f,   -0.01857146f,    -0.019394161f,   0.020298172f,
    -0.044502508f,   0.03779221f,     -0.00042444046f, -0.053327113f,
    0.014638328f,    0.059248827f,    -0.015220922f,   -0.01329706f,
    -0.009823312f,   -0.019780172f,   0.049034894f,    -0.030149607f,
    0.12018663f,     0.36456484f,     -0.096461535f,   0.07495637f,
    0.2827264f,      -0.45493257f,    -0.35554293f,    -0.53209496f,
    -0.10298972f,    -0.3984711f,     -0.12101457f,    -1.1001726f,
    -0.52501935f,    0.011579975f,    -0.18685079f,    0.27421424f,
    1.0609539f,      1.5098912f,      0.42793345f,     0.3201397f,
    -0.07588195f,    -0.012523975f,   0.08670903f,     0.22998868f,
    -0.20649529f,    -0.11608702f,    0.03350319f,     -0.10131051f,
    -0.061584696f,   0.26173022f,     -0.049632974f,   0.33351198f,
    -0.27668586f,    -0.5326111f,     -0.24295495f,    0.006845085f,
    -0.09041086f,    -0.23451492f,    0.49142954f,     -0.10021302f,
    -0.020276142f,   0.24633238f,     -0.015671436f,   0.08504646f,
    -0.13866667f,    -0.16118848f,    0.20478947f,     0.30857998f,
    -0.29013252f,    -0.22038047f,    0.233659f,       -0.56632024f,
    0.46765134f,     0.12923826f,     0.24174857f,     0.12538989f,
    -0.58322746f,    0.2676244f,      0.4346035f,      -0.24469927f,
    0.23667927f,     0.30509096f,     0.76200104f,     0.4946759f,
    -0.59055865f,    -0.24921425f,    0.14872149f,     0.54352003f,
    0.1792257f,      0.037827116f,    -0.41537765f,    -0.16993558f,
    -0.117394455f,   0.1600045f,      0.051209223f,    0.09217666f,
    -0.0113697285f,  -0.20007725f,    0.13574728f,     0.098310344f,
    -0.103170164f,   0.34637457f,     -0.42433822f,    -0.34686038f,
    -0.023856208f,   -0.060379904f,   -0.16003981f,    0.24594513f,
    0.23317787f,     -0.01155957f,    -0.16060105f,    -0.059855044f,
    0.68681794f,     -0.1281622f,     -0.08532278f,    0.2670492f,
    -0.29560748f,    0.020027857f,    0.16022514f,     -0.23565865f,
    -0.2798193f,     0.2018398f,      0.29548413f,     -0.25782615f,
    -0.011635923f,   -0.33082604f,    0.39530554f,     -0.14362824f,
    0.1041118f,      -0.11377008f,    0.27544802f,     0.21719769f,
    -0.20172198f,    -0.18193635f,    0.05890265f,     0.45618704f,
    -0.39798737f,    -0.1388073f,     0.03599379f,     0.071139224f,
    -0.15124573f,    -0.037124466f,   -0.018691523f,   0.14133403f,
    0.013499413f,    0.13778904f,     -0.023541378f,   -0.14196141f,
    -0.09432117f,    0.051327925f,    0.03582088f,     0.10668796f,
    0.46618342f,     0.8245619f,      -0.06172956f,    -0.68560183f,
    1.2282233f,      13.490934f,      1.8698f,         -0.9381348f,
    0.06523142f,     0.29037437f,     0.61573195f,     0.2414795f,
    0.19351754f,     -0.121070094f,   0.07024501f,     -0.2581058f,
    0.029032877f,    -0.029650537f,   0.37013885f,     0.13917404f,
    -0.29773515f,    0.043351404f,    0.27980706f,     -0.4357645f,
    0.69995534f,     -0.03532479f,    -0.2589999f,     -0.13940243f,
    -0.10200814f,    0.3368956f,      -0.20628744f,    -0.23987561f,
    -0.17426375f,    -0.35315323f,    0.09276076f,     0.3838673f,
    -0.16537942f,    -0.27414417f,    -0.06390644f,    0.021379514f,
    0.078191124f,    0.17282468f,     0.079497896f,    -0.23333311f,
    0.43186224f,     0.43773893f,     -0.021811474f,   0.15613726f,
    0.36329797f,     -0.12468301f,    -0.5826642f,     0.62048125f,
    -0.6667542f,     -0.32002634f,    0.2534053f,      0.025056468f,
    0.3259108f,      -0.12883343f,    -0.034024395f,   -0.29621297f,
    -0.06758307f,    0.004763f,       -0.20306793f,    -0.072407395f,
    -0.014120695f,   -0.17528497f,    0.17207833f,     0.315608f,
    -0.08255101f,    -0.08732515f,    0.45091027f,     -0.4863759f,
    -0.10187276f,    0.16520236f,     0.25888565f,     0.5177988f,
    0.52172786f,     0.0674382f,      -0.1590253f,     -0.13816516f,
    0.034888778f,    -0.052003253f,   0.36938566f,     -0.3081959f,
    -0.040636886f,   -0.5106885f,     -0.18094938f,    -0.0056637363f,
    0.13329211f,     -0.009209943f,   0.4721468f,      -0.26387712f,
    0.24571656f,     0.18045199f,     0.35338485f,     -0.07313063f,
    0.011536909f,    -0.07092504f,    0.11766828f,     0.39882344f,
    0.6333672f,      -0.011224907f,   -0.13376395f,    -0.20132959f,
    0.29039937f,     -0.048493348f,   0.015897812f,    0.038155f,
    0.07064107f,     -0.080699466f,   -0.2657557f,     0.5576656f,
    -0.20180903f,    -0.24090779f,    -0.4574506f,     -0.10648446f,
    -0.08384659f,    -0.10540231f,    0.0854785f,      -0.13805155f,
    0.36387482f,     -0.40974945f,    0.1850221f,      -0.1431225f,
    -0.3971103f,     0.235788f,       0.3653529f,      -0.37572798f,
    0.051400788f,    -0.15539227f,    -0.16874567f,    0.2937544f,
    -0.022389393f,   -0.025858643f,   -0.20051552f,    -0.47768462f,
    -0.10398623f,    -0.23488072f,    0.3254901f,      0.27893323f,
    -0.5048598f,     0.26794323f,     -0.009634366f,   0.061503496f,
    0.20911962f,     -0.25661746f,    0.17899653f,     0.21611781f,
    0.20950831f,     -0.24940135f,    0.1037358f,      -0.1380591f,
    -0.25956613f,    -0.3159027f,     0.084748484f,    0.58681726f,
    0.33058712f,     -0.2084396f,     0.044100318f,    0.14031008f,
    0.19148831f,     0.5142235f,      -0.07389511f,    0.0070838835f,
    -0.037996523f,   -0.24473006f,    -0.27405778f,    -0.2808779f,
    0.049423642f,    -0.15306379f,    0.042914536f,    -0.011158962f,
    0.05258122f,     -0.062430598f,   0.28331354f,     -0.15620615f,
    0.06850147f,     -0.15992714f,    0.0428039f,      -0.22637103f,
    0.3882654f,      -0.1547148f,     -0.0063878605f,  -0.026140658f,
    0.08908723f,     -0.113549985f,   -0.0802228f,     0.06585248f,
    0.0564342f,      -0.023446904f,   -0.11167514f,    0.043882884f,
    0.07019119f,     0.20253432f,     0.03210936f,     0.01896887f,
    0.14058724f,     -0.019664457f,   0.21793172f,     0.15790424f,
    0.56935215f,     -0.68052626f,    0.02927577f,     -0.07391599f,
    -0.17846988f,    -0.87221664f,    -0.324f,         0.44808015f,
    0.24182113f,     -0.6111933f,     -0.16623227f,    -0.27940506f,
    -0.2219633f,     -0.21271423f,    0.24323763f,     0.17813185f,
    -0.23884962f,    0.21583976f,     0.13297692f,     -0.1089453f,
    -1.247181f,      -0.5185761f,     0.28563568f,     -0.1350463f,
    -0.27734634f,    -1.848669f,      0.38646996f,     0.41323957f,
    -0.2914869f,     0.09699365f,     -0.28109708f,    0.0615828f,
    -0.10961314f,    -0.052596886f,   0.03084208f,     0.33983368f,
    -0.045561627f,   0.17080273f,     -0.055324107f,   -0.0024507605f,
    -0.27482694f,    0.027546445f,    -0.13147779f,    -0.123898424f,
    -0.028090226f,   -0.30509502f,    0.19763654f,     0.20998615f,
    0.2419704f,      0.1290823f,      -0.29799774f,    -0.06354342f,
    0.11030034f,     -0.28193536f,    0.109903365f,    -1.2910556f,
    0.24825385f,     0.70870596f,     -0.34640154f,    -0.16522132f,
    -0.65334237f,    0.34237516f,     0.53934354f,     0.12068158f,
    -0.046180326f,   -0.7983707f,     0.6119264f,      0.36395308f,
    0.065816306f,    0.32769933f,     -0.121483155f,   0.37326446f,
    0.10159054f,     -0.08468141f,    -0.36649728f,    -0.1181951f,
    0.2416331f,      -0.557066f,      0.44574055f,     0.88063806f,
    1.6913698f,      0.5151961f,      0.71968496f,     -0.17138831f,
    -0.60265017f,    -0.675864f,      -0.8062114f,     -0.091734804f,
    -0.40234315f,    -0.14294457f,    -0.47153202f,    0.014723108f,
    -0.50400865f,    -0.24340127f,    -0.037174154f,   0.062953f,
    -0.11619039f,    -0.3141665f,     0.28241476f,     0.18727507f,
    0.33837566f,     -0.47834983f,    0.09395394f,     -0.16734615f,
    0.033579357f,    0.69206184f,     0.8105434f,      -0.0015697787f,
    -0.1703309f,     -0.26258212f,    0.33256528f,     0.9062835f,
    0.09548933f,     0.00186095f,     0.0366395f,      -0.35841998f,
    -0.24626677f,    -0.23033632f,    0.10807649f,     -0.061685197f,
    -0.0018432188f,  -0.13164784f,    -0.17159334f,    -0.03277828f,
    -0.27524152f,    -0.2118958f,     0.45198154f,     0.168735f,
    0.5022433f,      -0.13118628f,    0.5096506f,      0.7097431f,
    -0.114806615f,   0.024567986f,    -0.26279712f,    1.1736814f,
    0.5869893f,      -0.12158126f,    0.011755659f,    0.27065298f,
    0.18029033f,     0.14832422f,     -0.063342094f,   0.09438722f,
    -0.14805506f,    -0.10198728f,    0.28919798f,     -0.110754155f,
    -0.10630755f,    0.33077568f,     -0.19787665f,    0.008221105f,
    0.016130466f,    -0.0023693377f,  0.10121081f,     0.18065022f,
    -0.4419914f,     0.0858202f,      -0.14019884f,    -0.33492103f,
    0.11045362f,     0.41371697f,     -0.11050882f,    0.15652302f,
    0.062450994f,    -0.010100835f,   -0.2621434f,     0.09984758f,
    0.034230042f,    0.040884078f,    -0.027646255f,   -0.32813132f,
    0.15694733f,     -0.044353668f,   -0.13772719f,    -0.0933025f,
    0.6269849f,      -0.16337956f,    0.004480847f,    -0.15922034f,
    0.32223916f,     -0.39742002f,    0.22361274f,     -0.022749687f,
    0.3792777f,      -0.45669138f,    0.12809625f,     -0.1615229f,
    0.012821456f,    -0.256237f,      0.24145037f,     0.15525998f,
    -0.042383548f,   -0.29496875f,    -0.13957529f,    0.10091025f,
    -0.14107394f,    0.015706558f,    0.08339804f,     -0.17247607f,
    -0.07203405f,    0.11358924f,     0.27566588f,     -0.0036206883f,
    0.09708222f,     0.06306355f,     -0.058983073f,   0.015980357f,
    -0.04526406f,    -0.16013162f,    0.06984798f,     0.013900564f,
    -0.1279869f,     0.22269274f,     0.09870757f,     -0.05154472f,
    -0.032197002f,   0.12937494f,     0.029714739f,    -0.419313f,
    0.23285484f,     -0.35187092f,    -0.15190619f,    -0.16719116f,
    0.4843098f,      0.6799078f,      -0.3665087f,     0.37746003f,
    -0.041489378f,   0.47045854f,     2.0879433f,      0.042487383f,
    0.3864938f,      -0.32752156f,    -0.12627275f,    0.84758073f,
    -0.02017126f,    0.0022708299f,   -0.3437269f,     0.18362446f,
    0.16046481f,     -0.12070339f,    -0.013480293f,   0.13209364f,
    0.041778974f,    0.1786952f,      -0.18059236f,    0.2934586f,
    0.27719286f,     -0.2819942f,     0.073338315f,    -0.56215847f,
    0.061519984f,    0.08989745f,     0.05373965f,     0.012674808f,
    -0.5240022f,     -0.2415802f,     -0.21986979f,    0.15515846f,
    -0.035690673f,   -0.26134992f,    0.43515408f,     -0.010016175f,
    0.079616584f,    -0.020139858f,   -0.099231735f,   -0.21041116f,
    0.31674528f,     -0.45456252f,    -0.08122367f,    -0.12955931f,
    -0.3308597f,     -0.043276507f,   0.47291172f,     0.040851783f,
    0.14046115f,     0.47562036f,     0.12255592f,     -0.18989186f,
    -0.08893935f,    0.4220491f,      -0.04917021f,    0.15291016f,
    -0.23603624f,    0.051359087f,    -0.23566915f,    0.12198609f,
    -0.43247887f,    0.60399187f,     -0.026330119f,   0.14696825f,
    -0.13498281f,    -0.14599288f,    -0.08321489f,    0.17439628f,
    0.2374727f,      -0.3232884f,     0.1957331f,      0.16254514f,
    -0.0037229375f,  -0.265027f,      0.122425504f,    -0.2530944f,
    -0.2889427f,     -0.226483f,      0.2839591f,      0.31670943f,
    0.23516002f,     -0.14564294f,    0.3214663f,      -0.14402346f,
    -0.15992586f,    0.03342848f,     0.25929913f,     -0.10385804f,
    -0.08792242f,    -0.11114751f,    0.15327322f,     0.027310994f,
    -0.1354841f,     -0.10291103f,    0.08709356f,     -0.098150186f,
    -0.13243449f,    0.123593085f,    0.033913415f,    0.19324476f,
    -0.20562781f,    0.009226762f,    -0.42994282f,    0.24439907f,
    0.12557712f,     0.109785974f,    -0.032720312f,   0.06415671f,
    0.1808051f,      -0.25729164f,    0.02035923f,     0.066329464f,
    0.26460353f,     -0.04205003f,    -0.24181801f,    0.16027738f,
    -0.08593516f,    0.27406365f,     0.20719402f,     -0.17443244f,
    -0.38884833f,    -0.045582313f,   0.19892463f,     0.31224057f,
    0.6924516f,      -0.011032177f,   0.103203796f,    -0.40117455f,
    -0.2297014f,     -0.3459673f,     0.061194476f,    -0.32315117f,
    0.19686729f,     0.050299153f,    -0.2760817f,     0.11668181f,
    -0.099673614f,   0.11494739f,     -0.17399064f,    -0.1892343f,
    -0.45222417f,    0.20699823f,     0.4697226f,      0.07461165f,
    0.3090794f,      -0.005607222f,   -0.12778439f,    0.20333563f,
    -0.05285441f,    0.19844173f,     -0.60705787f,    -0.084907725f,
    -0.15367699f,    -0.5562796f,     -0.2778202f,     -0.24686964f,
    0.0062598237f,   -0.3877683f,     -0.67851424f,    -0.07284757f,
    0.049940255f,    0.3387249f,      0.20799571f,     0.20960666f,
    0.38949788f,     0.058692332f,    0.23102991f,     0.42809916f,
    -0.17277662f,    0.03235414f,     -0.23768897f,    -0.33708957f,
    -0.5592928f,     0.4131185f,      0.29223475f,     0.12907222f,
    0.18279682f,     -0.21314205f,    0.024891276f,    -0.19197808f,
    -0.019073682f,   0.024375672f,    -0.15288313f,    -0.3011507f,
    0.20190527f,     -0.15683222f,    0.17743084f,     0.43092006f,
    -0.06196169f,    -0.21019568f,    -0.085761845f,   -0.22736213f,
    -0.036723595f,   -0.32468924f,    -0.0668207f,     0.020109339f,
    -0.008083963f,   0.30350694f,     -0.28410873f,    0.13024141f,
    0.31498408f,     -0.30478474f,    0.17950265f,     0.03002875f,
    0.32155758f,     0.24577932f,     0.19545773f,     0.3387229f,
    0.13486591f,     -0.13530116f,    -0.18568425f,    0.083144285f,
    0.011813413f,    -0.18634422f,    0.15485287f,     -0.10907167f,
    -0.14787842f,    0.00038606994f,  0.2873933f,      -0.115251526f,
    -0.056741845f,   -0.45919034f,    0.07602786f,     0.31516305f,
    0.29543987f,     0.07511439f,     0.64019835f,     0.7342009f,
    -0.51835173f,    -0.3333909f,     0.31431252f,     0.048084483f,
    -0.7503794f,     -0.04637157f,    -0.1778709f,     0.13314722f,
    -0.42416632f,    0.059544686f,    -0.053333294f,   0.16146043f,
    0.08789709f,     -0.11545655f,    0.44593456f,     -0.008033377f,
    -0.3052203f,     -0.08154165f,    -0.16508316f,    -0.07736343f,
    -0.06691089f,    0.05053998f,     -0.15833937f,    0.28630736f,
    -0.45235318f,    -0.374583f,      0.2181239f,      0.29085436f,
    0.07106734f,     0.48447272f,     -0.042708863f,   -0.4205879f,
    -0.19884661f,    0.29353046f,     -0.12829012f,    0.06481876f,
    0.299801f,       0.009945575f,    -0.10234107f,    -0.63454044f,
    -0.6293913f,     0.0025813272f,   -0.7002676f,     -0.61352307f,
    -0.83593565f,    0.5105494f,      0.08124794f,     0.23883934f,
    0.20091005f,     1.4393821f,      0.96655f,        0.10373518f,
    0.023521468f,    0.26369864f,     -0.34664398f,    -0.5929933f,
    -0.0014600643f,  0.38691932f,     -0.18524194f,    0.37148523f,
    -0.1468602f,     -0.10998362f,    -0.20284274f,    -0.21134052f,
    -0.056632638f,   0.49354064f,     -0.027527286f,   -0.26459637f,
    0.34063414f,     0.038534235f,    0.023790672f,    -0.3006736f,
    -0.27135122f,    -0.30713376f,    0.2744758f,      -0.07960383f,
    -0.1943049f,     -0.32801628f,    -0.30406198f,    0.50737506f,
    0.4194524f,      -0.006633888f,   -0.27825174f,    0.38666376f,
    0.36581314f,     -0.07936003f,    0.07633319f,     0.029810825f,
    -0.38366506f,    0.14034346f,     0.12195423f,     0.09806263f,
    -0.3034178f,     -0.021159878f,   -0.4306352f,     0.1754133f,
    0.36602443f,     0.27524084f,     0.4113425f,      0.25982895f,
    -0.7047569f,     0.27460077f,     0.6764358f,      -0.410153f,
    -0.38378298f,    -0.6050491f,     0.34928545f,     -0.20505159f,
    0.09791516f,     -0.15604104f,    0.23388718f,     0.13150787f,
    -0.08687427f,    0.6434568f,      -0.40483093f,    -0.120798044f,
    -0.2587069f,     0.3686738f,      -0.7508968f,     1.0696019f,
    -0.29724234f,    -0.085391544f,   -0.0073623024f,  -0.054604348f,
    -0.2114694f,     0.16355729f,     -0.1548298f,     -0.2892616f,
    0.35824755f,     0.43120232f,     0.09731537f,     0.047645487f,
    -0.12989804f,    -0.4474332f,     -0.27386773f,    0.27736387f,
    0.062018234f,    -0.047000766f,   -0.12392689f,    0.5532804f,
    0.3742534f,      -0.24807721f,    -0.1289067f,     -0.37375882f,
    1.2540364f,      0.20449446f,     0.24906692f,     -0.16974613f,
    -1.215844f,      0.3364947f,      0.84231263f,     0.47082102f,
    -0.37972733f,    0.06126186f,     -0.6370893f,     -0.24769603f,
    0.0019388885f,   -0.07871559f,    -0.44616562f,    0.3020577f,
    -0.17134058f,    -0.030728823f,   -0.12724915f,    0.11717995f,
    -0.17391203f,    0.038760293f,    0.36062282f,     -0.50899255f,
    0.21551295f,     0.33523798f,     0.8310013f,      0.40113482f,
    -0.055959508f,   -0.10449623f,    -0.1002806f,     0.31146362f,
    -0.018248156f,   -0.17795296f,    -0.1893931f,     -0.47050008f,
    -0.33525997f,    0.21133028f,     0.22321774f,     -0.17139001f,
    0.118950106f,    0.10813454f,     -0.11958983f,    0.12454857f,
    -0.10936665f,    -0.18725544f,    -0.34654868f,    0.22043636f,
    0.005284951f,    0.08529451f,     -0.029851932f,   -0.022418689f,
    0.1950032f,      0.031550307f,    -0.1694988f,     0.60280234f,
    -0.25953838f,    0.31975794f,     -0.18733421f,    -0.16671173f,
    0.03745849f,     -0.09537112f,    0.049410585f,    0.07364191f,
    -0.37199053f,    -0.075313985f,   -0.054498978f,   -0.23486912f
};

static const long int espcn_conv1_kernel_dims[] = {
    64,
    5,
    5,
    1
};

static const float espcn_conv1_bias[] = {
    -0.024782976f,   -0.001644047f,   0.077961065f,    -0.26862282f,
    0.23801635f,     0.33651984f,     -0.067884535f,   -0.23122932f,
    0.008682562f,    0.06656141f,     0.006333467f,    -0.13435903f,
    0.23138523f,     -0.0005739158f,  -0.2633656f,     0.11222022f,
    -0.258911f,      -0.030300606f,   -0.22033916f,    -0.2489427f,
    0.014879682f,    0.14380868f,     -0.0378014f,     0.0012346051f,
    -0.19360435f,    0.242221f,       -0.10513503f,    0.015462285f,
    0.0035511162f,   -0.031994488f,   0.018908938f,    -0.113113336f,
    -0.26072025f,    -0.28530186f,    0.30576158f,     -0.23807533f,
    -0.0008368339f,  0.16753578f,     -0.009276519f,   0.22299612f,
    -0.10444064f,    -0.07278673f,    0.0823937f,      -0.001915287f,
    -0.001531116f,   0.0047030603f,   0.20556873f,     0.20554778f,
    -0.22954565f,    -0.00036041203f, -0.0034704572f,  0.15496814f,
    0.3547925f,      -0.0022098096f,  -0.22995484f,    0.018312216f,
    0.005197535f,    0.16890176f,     -0.00016840041f, -0.025922643f,
    0.012165996f,    -0.17233312f,    -0.32060504f,    0.2525512f
};

static const long int espcn_conv1_bias_dims[] = {
    64
};

static const float espcn_conv2_kernel[] = {
    0.023608878f,     -0.02431984f,     0.036545865f,     0.026396181f,
    -0.04625506f,     0.017993141f,     -0.16924034f,     0.008430793f,
    0.078877784f,     0.18034819f,      0.030509084f,     -0.07609916f,
    -0.080185086f,    -0.006714289f,    -0.086258546f,    -0.02447682f,
    -0.0252647f,      0.022609951f,     -0.16374111f,     -0.3447188f,
    0.11548812f,      0.03425055f,      -0.31705707f,     0.07300921f,
    0.013045228f,     -0.11594536f,     0.17257677f,      -0.13135757f,
    0.16105597f,      -0.050484136f,    -0.13889098f,     -0.2190972f,
    0.08199328f,      -0.07145068f,     -0.07617211f,     -0.0827426f,
    0.022946214f,     -0.2874535f,      -0.06359366f,     0.017877782f,
    0.0379398f,       -0.019390248f,    0.041494332f,     -0.020122109f,
    -0.10482644f,     0.022618756f,     0.089589894f,     0.18951494f,
    0.2139871f,       -0.07607009f,     -0.23211485f,     0.096615605f,
    -0.119454384f,    0.12256155f,      -0.15754688f,     0.086311236f,
    0.00921982f,      -0.028884236f,    -0.026289945f,    -0.14916673f,
    0.0046505947f,    -0.0006822787f,   0.067042604f,     -0.062117856f,
    -0.004516093f,    0.006937537f,     0.07958395f,      0.22603188f,
    0.2456259f,       -0.081432186f,    -0.18289365f,     0.14992236f,
    0.07509698f,      0.051680434f,     -0.12834543f,     -0.16767067f,
    0.00051819754f,   0.0067644306f,    0.02192773f,      -0.22673814f,
    0.14239049f,      0.15204912f,      0.053510267f,     -0.29077595f,
    -0.50649625f,     0.18864785f,      -0.11249243f,     0.023887279f,
    0.09254772f,      -0.009290806f,    0.04181025f,      -0.36240822f,
    0.014508832f,     0.05006074f,      -0.11547389f,     -0.1783421f,
    -0.0804043f,      0.0029004354f,    -0.015399775f,    0.12148571f,
    -0.0034222363f,   -0.08940158f,     0.11249466f,      -0.14839186f,
    0.075001225f,     0.2686512f,       0.12435292f,      0.17326832f,
    0.26418817f,      0.035307694f,     -0.0359042f,      -0.068250224f,
    -0.01682727f,     -0.09609547f,     0.08547177f,      0.14994346f,
    -0.22165535f,     -0.055260044f,    -0.17125943f,     0.009705893f,
    -0.030364044f,    -0.031554274f,    -0.13080207f,     -0.03186342f,
    0.11431678f,      0.004640074f,     -0.20488662f,     0.055320267f,
    0.074347466f,     0.1021126f,       0.004297655f,     0.2718435f,
    -0.058276426f,    0.112541154f,     0.15939915f,      -0.31907147f,
    0.037944157f,     0.040644057f,     0.40306512f,      -0.1898404f,
    -0.05142686f,     -0.118962936f,    -0.029766975f,    -0.16958272f,
    0.0592968f,       0.058613144f,     0.11212124f,      -0.22329542f,
    0.11392783f,      0.033269722f,     -0.07139236f,     0.1568962f,
    -0.032273896f,    -0.14789672f,     -0.007829725f,    -0.003394085f,
    0.014202239f,     -0.19776984f,     -0.08942655f,     -0.048486717f,
    -0.35410082f,     0.14489147f,      0.16555412f,      0.20485862f,
    0.063274495f,     0.0142917745f,    -0.04792945f,     0.029389134f,
    0.10248373f,      0.2826603f,       0.27012634f,      -0.058578085f,
    -0.032152783f,    0.09076191f,      -0.024199396f,    -0.06997396f,
    -0.0290094f,      -0.03576645f,     0.1382207f,       0.24040496f,
    -0.2681624f,      -0.118597984f,    0.10540762f,      -0.11226917f,
    -0.100544855f,    -0.08446438f,     -0.0046049645f,   -0.053208884f,
    0.042378616f,     0.17547897f,      0.083332665f,     0.22194962f,
    -0.1722784f,      0.024270777f,     -0.21078433f,     -0.056991667f,
    0.24729691f,      0.39468977f,      -0.6691905f,      -0.0032086135f,
    0.15872614f,      0.21650952f,      0.023585616f,     -0.030758746f,
    0.16382702f,      -0.13851637f,     0.023964189f,     -0.027185075f,
    -0.14148283f,     0.014197001f,     0.10422276f,      -0.094321325f,
    0.110126205f,     0.03922373f,      0.21784633f,      -0.005698237f,
    0.24216746f,      0.028380867f,     -0.10007358f,     -0.07418857f,
    -0.018274905f,    -0.018985854f,    0.18753563f,      -0.006298883f,
    0.14548272f,      -0.18302774f,     0.064306825f,     -0.12895074f,
    0.020258086f,     -0.12017515f,     0.0001991894f,    0.43593448f,
    0.15658572f,      0.16245535f,      0.133889f,        -0.04279877f,
    0.078424f,        0.016938169f,     0.13289736f,      -0.060344063f,
    -0.20098011f,     -0.153451f,       -0.03484055f,     -0.094345756f,
    -0.23740032f,     0.06322602f,      0.038860485f,     -0.091925606f,
    -0.099818945f,    -0.12959635f,     0.018762201f,     0.052886024f,
    -0.19221768f,     0.024282314f,     0.14888205f,      0.23020999f,
    0.15463537f,      -0.118041575f,    0.15938468f,      0.008569576f,
    -0.025388625f,    -0.20972364f,     -0.33703348f,     -0.21096078f,
    -0.15805313f,     -0.11485153f,     -0.22670077f,     0.10281488f,
    0.259602f,        0.047183163f,     0.26088688f,      0.041520007f,
    -0.08981905f,     0.0012300699f,    -0.081300475f,    0.17746556f,
    -0.24931592f,     0.0747774f,       0.029072948f,     -0.026438825f,
    0.20589072f,      0.33982757f,      0.049353305f,     0.2912601f,
    -0.03056559f,     -0.06342309f,     0.059435345f,     0.13777469f,
    -0.08119429f,     0.07814378f,      0.11348911f,      -0.073151f,
    -0.19303238f,     -0.04771495f,     0.09069375f,      0.09759095f,
    0.0060310145f,    0.31039968f,      0.43662503f,      -0.22673266f,
    -0.1427215f,      -0.05305961f,     0.030760458f,     -0.17956269f,
    -0.107243314f,    0.23579855f,      0.30153707f,      -0.20112129f,
    -0.03978429f,     0.04469336f,      -0.05508101f,     -0.3347576f,
    -0.013106139f,    0.044141103f,     0.018592179f,     -0.011000199f,
    0.0007699496f,    0.03571654f,      0.03867099f,      -0.16765186f,
    0.021275485f,     -0.116326384f,    -0.0031074088f,   0.26213178f,
    0.13773221f,      -0.04033788f,     0.14107504f,      0.18222448f,
    0.0079623405f,    -0.0020784864f,   -0.113189794f,    -0.11845948f,
    0.23582336f,      0.019552749f,     -0.11083557f,     -0.15987638f,
    0.12003576f,      0.066166826f,     -0.07833729f,     -0.13310248f,
    0.18128586f,      0.26925915f,      -0.1829705f,      -0.051023856f,
    0.021640293f,     -0.08408919f,     0.21590735f,      0.25592735f,
    -0.0926435f,      0.6059412f,       -0.15807633f,     -0.009485407f,
    -0.03520819f,     -0.18123017f,     0.18614659f,      -0.05780569f,
    0.35234886f,      -0.266884f,       0.3098046f,       -0.00094856473f,
    0.08796706f,      -0.2526803f,      0.1475138f,       0.13304693f,
    -0.13260011f,     0.057477895f,     0.3234009f,       -0.028252434f,
    -0.1009326f,      0.22525232f,      -0.2926503f,      -0.28572974f,
    0.14026009f,      -0.004896147f,    -0.07235309f,     0.31512198f,
    -0.103390425f,    0.21879908f,      0.18253633f,      0.105663285f,
    -0.042185396f,    0.15849493f,      0.16984522f,      0.10784016f,
    0.0346261f,       -0.13190061f,     0.056765374f,     0.028408546f,
    -0.13613528f,     0.0703257f,       -0.5399071f,      0.0377706f,
    -0.04327974f,     0.15042512f,      -0.022255458f,    0.018383006f,
    0.096584424f,     0.043259908f,     -0.08207291f,     -0.066484235f,
    -0.07050786f,     0.045709014f,     0.12027982f,      0.064593635f,
    -0.18754512f,     -0.18995021f,     0.15556131f,      0.05563444f,
    -0.08141411f,     0.008782357f,     -0.033457357f,    0.1993085f,
    -0.17789084f,     -0.090283714f,    0.10071427f,      -0.2421386f,
    0.12627073f,      0.07387694f,      -0.1063092f,      -0.005896317f,
    -0.18266453f,     0.037559085f,     -0.15518036f,     0.3775618f,
    -0.0588799f,      0.21274817f,      0.081768535f,     -0.02260846f,
    -0.2543622f,      0.20886797f,      0.26239586f,      0.018038696f,
    0.12147409f,      0.018094353f,     -0.0060500894f,   0.3057953f,
    -0.12656042f,     -0.0047839675f,   0.05819788f,      0.0789966f,
    0.08462031f,      -0.027866224f,    0.0016760153f,    0.10431263f,
    0.2518095f,       -0.002997976f,    0.037269413f,     0.15205562f,
    -0.14893164f,     -0.08722064f,     -0.15034994f,     -0.2690976f,
    0.05681241f,      0.1602238f,       -0.335075f,       -0.011790549f,
    0.28571513f,      0.10170888f,      -0.041578487f,    0.25526726f,
    0.067613564f,     -0.014413506f,    0.026974156f,     0.09277056f,
    0.10959897f,      0.13163158f,      0.06217397f,      -0.09000509f,
    -0.18322293f,     0.12344483f,      0.11451716f,      -0.14308079f,
    -0.16036347f,     -0.09586628f,     0.42831224f,      -0.0345462f,
    -0.022439416f,    -0.25242692f,     -0.07149985f,     0.11840215f,
    0.10594642f,      0.10738816f,      0.11769446f,      0.04257533f,
    -0.04411128f,     -0.46973684f,     0.10570195f,      -0.24521466f,
    -0.2476044f,      0.019190833f,     0.24710716f,      0.15405837f,
    0.28147152f,      0.12784623f,      0.16018048f,      -0.16796532f,
    0.04744773f,      -0.026982395f,    0.068074435f,     0.11168243f,
    -0.30627692f,     0.23253262f,      -0.16289534f,     0.15593691f,
    0.055249225f,     -0.14377046f,     0.046467707f,     0.04148524f,
    -0.20292537f,     0.036215235f,     0.20520851f,      -0.004543675f,
    -0.06320852f,     0.13001037f,      0.0629385f,       -0.007639112f,
    0.26613504f,      0.16054344f,      0.08505198f,      -0.098820224f,
    -0.22642279f,     0.049216777f,     0.03180305f,      0.10498017f,
    -0.124080986f,    0.17338173f,      0.31790406f,      -0.017456265f,
    0.16269395f,      0.055507325f,     0.03627294f,      0.023299716f,
    0.15215987f,      0.06299284f,      0.05881092f,      0.029952046f,
    0.16680533f,      -0.12061475f,     0.11655016f,      -0.19611448f,
    0.040288586f,     -0.12178203f,     -0.22775137f,     -0.3308705f,
    0.0026207047f,    0.1699086f,       0.16161858f,      -0.0043501705f,
    -0.07312607f,     0.1703306f,       -0.23430525f,     -0.07095423f,
    -0.19657476f,     0.04207831f,      -0.3428631f,      -0.064380385f,
    0.091941096f,     -0.0011408833f,   0.03981018f,      -0.0056725224f,
    -0.0415116f,      0.057291597f,     0.043313716f,     0.029865954f,
    -0.0144101055f,   -0.008729762f,    0.08598724f,      -0.12345567f,
    -0.031716626f,    0.28279355f,      0.07259552f,      -0.039669167f,
    0.37420222f,      0.052975934f,     0.17324764f,      0.031559974f,
    0.04797826f,      -0.11001333f,     0.009028141f,     -0.021706484f,
    -0.033501234f,    -0.035044316f,    0.06620752f,      0.119386666f,
    -0.0101133855f,   0.16395181f,      -0.14735924f,     -0.0673885f,
    -0.049094405f,    0.118712194f,     -0.034259893f,    -0.006125271f,
    -0.058383204f,    0.03093658f,      -0.2202935f,      -0.024319196f,
    -0.121812165f,    -0.039670948f,    -0.09567526f,     0.10183052f,
    0.066197164f,     0.038163546f,     -0.0026141072f,   0.04771291f,
    0.21846464f,      0.009238965f,     0.044578936f,     -0.12840502f,
    0.04653213f,      0.008239774f,     0.057881497f,     0.052539904f,
    0.1605014f,       -0.034717925f,    -0.005181302f,    0.026222551f,
    0.0646363f,       0.15608153f,      -0.021599025f,    0.077372424f,
    -0.18204375f,     0.007326979f,     0.08823665f,      0.08908732f,
    -0.14590304f,     -0.20698817f,     -0.12447524f,     0.09049378f,
    0.061279546f,     0.03346645f,      0.03299413f,      -0.036645338f,
    -0.04676808f,     -0.05480169f,     -0.0090828f,      -0.12461454f,
    0.063225955f,     -0.081462525f,    -0.012988344f,    -0.08130724f,
    -0.037330687f,    -0.030250285f,    -0.018155992f,    0.017995877f,
    -0.0063990764f,   0.10716282f,      -0.108897194f,    0.07205141f,
    -0.16598171f,     -0.05532394f,     -0.09200614f,     -0.0049349032f,
    0.040239748f,     -0.057455204f,    -0.12667912f,     0.0312144f,
    0.10421486f,      0.030603163f,     -0.027926132f,    -0.033506807f,
    0.21702133f,      0.016294524f,     0.16411747f,      -0.18681934f,
    -0.15476958f,     -0.028640617f,    -0.07351347f,     0.10400846f,
    -0.13424553f,     0.1227551f,       0.060826045f,     0.18013409f,
    0.019814106f,     -0.024507606f,    0.08235273f,      0.20576854f,
    -0.09378834f,     0.03577858f,      0.040056247f,     0.14751573f,
    -0.068588585f,    0.06732891f,      0.10069947f,      0.106263705f,
    -0.024080845f,    -0.076620266f,    0.09925607f,      -0.024501618f,
    -0.03208295f,     -0.075635396f,    -0.02567597f,     0.060473636f,
    -0.07011952f,     -0.038964655f,    0.16784929f,      0.1991247f,
    0.015206272f,     -0.14095598f,     0.13728248f,      -0.09179557f,
    -0.20167926f,     0.12692054f,      -0.12813602f,     -0.010927301f,
    -0.04290448f,     0.022691546f,     0.043095276f,     0.17191163f,
    -0.16195375f,     0.0034183739f,    -0.061406624f,    0.03535157f,
    0.065142654f,     0.13124116f,      0.11934301f,      0.03613907f,
    -0.04845565f,     0.031650998f,     0.03682753f,      -0.030580405f,
    0.057917964f,     0.20027708f,      0.10035255f,      0.19324301f,
    -0.051952228f,    -0.052441027f,    -0.006294689f,    -0.15294477f,
    -0.09573714f,     -0.10525124f,     0.1624248f,       0.27047306f,
    0.14365904f,      0.06831353f,      0.04013222f,      0.1328978f,
    -0.019292742f,    -0.044286523f,    0.17274049f,      -0.14016244f,
    0.1920708f,       -0.10826904f,     0.002601081f,     -0.02123865f,
    0.22381578f,      0.035352238f,     0.12766425f,      0.042036444f,
    -0.197936f,       0.0811109f,       0.08894194f,      0.10021757f,
    -0.1555802f,      -0.23912814f,     -0.09235773f,     0.006806309f,
    -0.026842333f,    0.22284007f,      0.03184873f,      -0.24425592f,
    0.035986897f,     -0.014695636f,    -0.08775461f,     0.08468971f,
    -0.08023654f,     0.10610661f,      -0.088735364f,    0.10409712f,
    0.04391834f,      -0.04317874f,     0.11520031f,      -0.3016882f,
    -0.07131763f,     0.07279549f,      -0.12611273f,     0.17468163f,
    0.07530836f,      0.129389f,        0.1617859f,       -0.14846319f,
    -0.07614751f,     0.067771725f,     -0.06565652f,     -0.08968082f,
    0.09471045f,      -0.07815533f,     0.003987541f,     0.039430343f,
    0.3367329f,       0.045806553f,     0.0009427076f,    -0.0337074f,
    0.3404091f,       -0.111228414f,    -0.061451737f,    -0.00068279414f,
    0.036457676f,     0.048246488f,     0.029982109f,     -0.073103875f,
    0.01985232f,      0.005997358f,     -0.073389456f,    -0.07397283f,
    0.08384325f,      -0.14011694f,     -0.070762865f,    -0.11687456f,
    0.22808184f,      0.12863043f,      0.051675994f,     -0.008726413f,
    0.11175463f,      0.08651064f,      0.094377086f,     -0.4591365f,
    0.21731955f,      0.15104522f,      -0.012898601f,    -0.034151f,
    -0.1399377f,      -0.025957098f,    0.13985868f,      -0.02460659f,
    0.08152583f,      -0.031012494f,    -0.01648278f,     -0.02555477f,
    0.071852736f,     0.082594454f,     0.0718716f,       0.12596142f,
    -0.026890682f,    0.0032440845f,    -0.03429075f,     -0.2465159f,
    -0.05827765f,     0.0046371757f,    0.06880132f,      0.15185419f,
    -0.25939077f,     0.10026807f,      0.028772289f,     -0.046495687f,
    -0.06159084f,     0.058193333f,     -0.104823284f,    -0.10854504f,
    -0.12920684f,     -0.08486844f,     0.123191044f,     -0.05864623f,
    0.0736888f,       -0.031504706f,    0.057727374f,     0.12866089f,
    0.0027473394f,    -0.022196649f,    0.15827417f,      -0.15386404f,
    0.019254973f,     0.110774085f,     -0.11060475f,     0.18620044f,
    0.06680576f,      -0.022806816f,    0.10543975f,      -0.033462517f,
    -0.08392143f,     -0.08242836f,     -0.04456691f,     -0.07625273f,
    0.17562623f,      0.020042118f,     0.04553246f,      -0.11778304f,
    0.115919866f,     -0.058845475f,    -0.023574483f,    -0.072668f,
    0.09506996f,      0.07650921f,      0.14844847f,      0.058236293f,
    0.024144975f,     -0.052850183f,    -0.07486775f,     0.19269626f,
    -0.05311662f,     -0.04415384f,     -0.1443712f,      0.004133325f,
    0.1432799f,       0.05209579f,      0.09567273f,      -0.10170683f,
    0.023602305f,     0.06838056f,      0.034810055f,     0.015290128f,
    0.05490028f,      -0.016824514f,    -0.22391255f,     0.20973648f,
    -0.14750986f,     0.0061873663f,    -0.025903553f,    -0.046986386f,
    -0.035140958f,    -0.02743512f,     0.08349542f,      -0.11334961f,
    -0.07829542f,     0.0018892757f,    0.15827374f,      -0.018680714f,
    -0.16131005f,     -0.12264171f,     0.15563807f,      0.13146162f,
    0.035091136f,     -0.050275084f,    0.14611644f,      -0.18753603f,
    0.045417845f,     0.1712959f,       0.061007615f,     -0.19327712f,
    0.057606865f,     0.22641079f,      -0.15898749f,     0.034123275f,
    -0.019836096f,    0.06649342f,      0.006734317f,     0.0529141f,
    0.33418223f,      0.1660896f,       -0.055547174f,    0.04244014f,
    0.28403366f,      0.042673863f,     0.109360024f,     0.05951188f,
    0.0881715f,       -0.05585998f,     -0.14710547f,     -0.076173835f,
    0.29317537f,      -0.14514002f,     0.19771065f,      -0.029895881f,
    -0.18771581f,     0.031548616f,     -0.024522398f,    0.09251058f,
    -0.07688596f,     -0.0076888674f,   0.15980962f,      0.06518668f,
    0.08190526f,      -0.064042635f,    0.027006201f,     -0.078853935f,
    -0.023450455f,    0.06654415f,      0.21322243f,      0.17644721f,
    0.2902441f,       -0.0515492f,      -0.24420533f,     0.052622885f,
    0.07441233f,      -0.02691155f,     -0.121536866f,    0.095318235f,
    -0.087699406f,    -0.15713908f,     0.020989183f,     0.03066936f,
    -0.026859969f,    0.01749541f,      -0.24689722f,     0.08948766f,
    0.20573518f,      0.02861938f,      0.008254787f,     0.038617503f,
    -0.099659316f,    -0.054967813f,    0.09635425f,      -0.06382372f,
    -0.051886782f,    0.048558403f,     -0.0031280331f,   -0.014359601f,
    -0.23242846f,     -0.10475663f,     0.08122885f,      -0.03149771f,
    -0.07830487f,     0.095242016f,     0.009720759f,     0.052141417f,
    0.053771988f,     0.014906762f,     0.16477366f,      0.0041158404f,
    0.08132685f,      -0.072519146f,    0.096100084f,     -0.04983167f,
    0.06943174f,      0.15120508f,      -0.05977202f,     0.12442352f,
    -0.026232779f,    -0.06317339f,     -0.13473044f,     0.051769875f,
    -0.0091484f,      -0.06085763f,     0.010809689f,     0.19094828f,
    -0.1472917f,      0.008328692f,     0.070293576f,     -0.10388069f,
    -0.061682686f,    0.06870711f,      0.05406392f,      -0.06639568f,
    0.3476732f,       0.10613087f,      0.080596f,        0.12283757f,
    -0.004737675f,    -0.026563922f,    0.07290323f,      0.010389017f,
    0.14523686f,      0.1358852f,       -0.0144051565f,   -0.025744256f,
    -0.018407108f,    0.044428807f,     -0.019445624f,    0.10832339f,
    -0.04453644f,     -0.10040776f,     0.121940054f,     -0.062528685f,
    -0.12031693f,     0.09354655f,      0.049568906f,     0.13567545f,
    -0.013397101f,    -0.05119258f,     0.02430549f,      -0.15451005f,
    0.06316299f,      -0.1606915f,      0.007936565f,     0.13889f,
    -0.059997875f,    -0.11819727f,     -0.07884079f,     0.028578155f,
    -0.019230047f,    0.042228997f,     0.07945693f,      -0.13363336f,
    -0.040721163f,    0.050134916f,     0.0262255f,       -0.122148156f,
    0.054559153f,     -0.020024423f,    0.010926072f,     0.06400356f,
    0.00614725f,      -0.17432584f,     0.10711027f,      -0.09815961f,
    -0.025168635f,    -0.06508141f,     -0.07813319f,     0.05222254f,
    0.021307329f,     -0.11670157f,     0.019076731f,     0.016127782f,
    0.021858647f,     0.08792616f,      -0.06352997f,     0.030677665f,
    -0.11396301f,     0.123753645f,     0.025038932f,     -0.049488973f,
    0.05476612f,      -0.027057314f,    0.17288126f,      0.058860295f,
    -0.05926445f,     0.090370975f,     0.22009109f,      -0.056683578f,
    -0.037007384f,    -0.09626316f,     0.02992883f,      -0.122066446f,
    -0.042404648f,    0.11377981f,      0.08234457f,      0.021778343f,
    -0.18224217f,     -0.11379322f,     -0.011056301f,    -0.10686921f,
    0.023539076f,     0.023643997f,     0.049207956f,     -0.003059712f,
    -0.04954416f,     -0.014111069f,    -0.10685694f,     0.09050198f,
    -0.12411247f,     0.023473611f,     0.053212456f,     -0.15406296f,
    -0.23027578f,     0.048370592f,     0.047996905f,     -0.0019720148f,
    0.0053525f,       0.23879115f,      0.06055271f,      -0.006358956f,
    0.12936753f,      -0.10861635f,     0.1432073f,       -0.15637447f,
    -0.050917763f,    -0.08808784f,     -0.12341486f,     -0.16714318f,
    0.12407155f,      -0.1937001f,      -0.01756894f,     -0.02310414f,
    0.11237539f,      -0.023615608f,    -0.22856359f,     -0.20595348f,
    0.11660892f,      -0.15335257f,     -0.38540292f,     -0.12088456f,
    -0.07117635f,     0.11360127f,      -0.16870081f,     -0.021356786f,
    -0.051429234f,    0.23093253f,      0.04437301f,      -0.28147855f,
    -0.047689762f,    0.07328944f,      0.029948665f,     0.15489155f,
    -0.14070383f,     -0.12984754f,     -0.15677175f,     0.21116666f,
    0.14986776f,      0.08556257f,      0.017555906f,     0.030850468f,
    -0.24826473f,     0.060808364f,     0.008336051f,     -0.06419371f,
    0.05424608f,      0.08123692f,      0.09750137f,      0.033361018f,
    0.06975484f,      -0.032051668f,    0.15075758f,      -0.07150121f,
    0.11220545f,      0.014552751f,     -0.018577665f,    0.021101147f,
    0.14958483f,      -0.13124996f,     0.03916267f,      -0.27229744f,
    -0.019338623f,    -0.22685039f,     0.083324194f,     -0.0152618345f,
    -0.005813906f,    -0.11570884f,     0.008966975f,     0.11305011f,
    -0.19513199f,     -0.022171164f,    -0.0042614676f,   0.20854537f,
    0.07699325f,      0.064186946f,     0.031057995f,     0.178467f,
    0.04938465f,      -0.07263469f,     0.03185532f,      0.2298345f,
    -0.07968073f,     -0.07984058f,     0.22126102f,      -0.11247884f,
    0.37808985f,      -0.022904769f,    0.21759011f,      -0.033908688f,
    -0.122528434f,    -0.06474035f,     0.0099743325f,    0.17071414f,
    -0.25712457f,     -0.11699355f,     -0.03192889f,     0.06037355f,
    -0.047609467f,    0.012471272f,     -0.032324985f,    0.13035002f,
    0.11196434f,      -0.18921408f,     0.13037826f,      0.20704335f,
    0.031246431f,     -0.072259575f,    -0.08737453f,     0.14303452f,
    0.0042389543f,    -0.107873105f,    -0.0044195973f,   0.29064727f,
    -0.026205447f,    -0.071638644f,    0.09214674f,      0.009051373f,
    0.07130847f,      0.0031990772f,    0.13299388f,      0.10781824f,
    -0.14530504f,     -0.11497806f,     -0.01866185f,     0.14877732f,
    0.039897516f,     0.031864177f,     0.035811685f,     0.06832365f,
    -0.0748591f,      -0.07668032f,     -0.07280416f,     -0.18960676f,
    0.09986257f,      0.27774826f,      -0.30996585f,     -0.2096921f,
    0.15322736f,      -0.20642568f,     -0.13055764f,     -0.21903703f,
    -0.034031093f,    0.056581076f,     0.026556307f,     0.14479809f,
    0.13122493f,      0.18294829f,      -0.25551027f,     0.08115856f,
    -0.21739043f,     0.15948065f,      -0.22008635f,     -0.011343233f,
    0.26462615f,      -0.060650613f,    -0.078773126f,    -0.17665042f,
    -0.042712465f,    0.37444893f,      -0.013719162f,    -0.2027753f,
    -0.1543453f,      -0.15989985f,     0.001980315f,     -0.09075086f,
    0.103857f,        0.18962736f,      0.13849868f,      -0.34318915f,
    0.11618563f,      0.022196848f,     -0.12313358f,     -0.1609653f,
    0.034276392f,     -0.112179965f,    0.07639697f,      -0.2559037f,
    0.023465272f,     -0.14952786f,     -0.10016577f,     0.11844793f,
    -0.25469422f,     0.03772432f,      -0.049456835f,    -0.11137147f,
    0.15563639f,      -0.05973953f,     0.12752652f,      0.06983077f,
    0.07552441f,      0.10231932f,      -0.0953087f,      0.0019482122f,
    -0.03795205f,     -0.21041818f,     0.192087f,        0.12455259f,
    -0.019435927f,    0.1793257f,       0.18619639f,      0.07926681f,
    0.015224315f,     0.23949045f,      0.21840729f,      -0.13848189f,
    0.029718397f,     0.06471688f,      -0.09014326f,     -0.058499288f,
    0.1857251f,       -0.11651973f,     -0.4864828f,      -0.26820678f,
    -0.36425138f,     0.13161781f,      0.012851163f,     0.13958877f,
    0.2048538f,       0.08761773f,      0.28688055f,      -0.13722335f,
    0.052727096f,     -0.01696888f,     0.140104f,        0.07874544f,
    0.03246855f,      0.08124741f,      0.052464664f,     -0.08324408f,
    -0.1645025f,      0.16482122f,      -0.042513743f,    -0.07636606f,
    0.01089084f,      0.17205517f,      0.12319409f,      -0.09100551f,
    0.046102285f,     0.18601471f,      0.08744158f,      0.14242709f,
    -0.06839604f,     0.031434327f,     -0.009138223f,    -0.05382723f,
    -0.34559932f,     0.027472585f,     0.032624558f,     -0.21620446f,
    -0.1305273f,      -0.03322729f,     -0.045105103f,    -0.038569827f,
    -0.20847657f,     -0.06330961f,     -0.07184636f,     -0.075951725f,
    -0.04070486f,     0.17677534f,      0.04341848f,      -0.040071897f,
    -0.103357665f,    -0.6645075f,      0.15336904f,      0.03857102f,
    0.48075008f,      0.27636713f,      0.28577286f,      0.12820679f,
    0.027264781f,     -0.09826032f,     -0.016136087f,    0.1258165f,
    0.030289296f,     0.33673534f,      0.098244645f,     0.082042165f,
    0.43878648f,      -0.13819091f,     -0.020502513f,    -0.12242704f,
    -0.10021404f,     -0.028293232f,    -0.20943697f,     -0.0040343264f,
    0.21950881f,      -0.14660962f,     -0.15916364f,     0.086197294f,
    0.31850263f,      0.15648302f,      0.08575439f,      0.056349955f,
    0.2108827f,       -0.09823605f,     0.047080345f,     0.3533074f,
    0.05271744f,      0.21852776f,      0.20729533f,      0.0091481125f,
    -0.099659316f,    0.29720765f,      0.026808713f,     -0.17251669f,
    0.2970102f,       -0.104866005f,    0.29572716f,      -0.021220846f,
    0.08916405f,      -0.10314286f,     -0.01269621f,     0.23907243f,
    -0.017823454f,    -0.07936135f,     0.10392082f,      0.12319252f,
    0.08069826f,      0.06485584f,      -0.2115084f,      0.06225901f,
    -0.07135191f,     0.0142469825f,    -0.09010026f,     0.044342764f,
    0.10153079f,      0.3263628f,       -0.23159753f,     -0.03997278f,
    -0.60347897f,     -0.28917062f,     -0.23590194f,     0.15772998f,
    -0.16979511f,     0.15939972f,      0.12089312f,      0.14867008f,
    -0.05685742f,     0.18402848f,      -0.32921344f,     -0.009572854f,
    -0.34435877f,     0.030066987f,     0.051249318f,     0.24197228f,
    0.39258775f,      0.013467544f,     0.1349331f,       0.018094683f,
    -0.25053668f,     0.057307784f,     -0.1715225f,      -0.08236565f,
    -0.20708281f,     0.14253654f,      0.0152095575f,    -0.1399963f,
    0.06879432f,      0.19256061f,      0.02041538f,      0.010568044f,
    -0.018009128f,    -0.1332476f,      -0.18720968f,     -0.063696615f,
    -0.04682293f,     0.09113737f,      0.19838199f,      -0.056074668f,
    -0.2484542f,      -0.11018597f,     -0.04681367f,     0.19228107f,
    -0.11194997f,     0.039695714f,     -0.057305478f,    -0.18067364f,
    -0.1711425f,      0.11934963f,      -0.11863166f,     0.01373253f,
    0.03614954f,      -0.03523688f,     0.0073843547f,    0.070220664f,
    -0.028621221f,    0.20936513f,      -0.060130607f,    0.060612775f,
    -0.046222195f,    -0.01775182f,     0.15307076f,      -0.21597394f,
    0.22908776f,      -0.09294904f,     0.19615594f,      -0.25919148f,
    -0.1689034f,      0.08797658f,      -0.07675452f,     0.09059942f,
    -0.13847528f,     -0.000101807775f, -0.3790281f,      -0.026389236f,
    0.2929741f,       0.02110752f,      0.14399804f,      -0.07738242f,
    0.14752656f,      -0.15961954f,     0.096632674f,     0.27072662f,
    0.012573774f,     0.23182441f,      0.11573572f,      -0.13239357f,
    -0.03430201f,     0.06483005f,      0.32090142f,      -0.14855444f,
    0.028318156f,     0.19508265f,      -0.17717485f,     -0.0661202f,
    0.031988803f,     0.0066130417f,    0.1630838f,       0.18065232f,
    0.17811933f,      -0.18256392f,     0.26499754f,      0.14825927f,
    -0.119626895f,    -0.0056417454f,   -0.05000875f,     -0.13577117f,
    0.05515617f,      -0.026422577f,    0.025924234f,     -0.011954755f,
    0.11015647f,      0.053315237f,     -0.1486832f,      0.14872174f,
    0.0351121f,       0.07796452f,      0.11200889f,      -0.20299141f,
    -0.06477625f,     0.0057099178f,    0.07260333f,      -0.016613793f,
    0.26459768f,      0.03981963f,      -0.066962264f,    0.054282453f,
    -0.22599213f,     -0.03679125f,     0.29367f,         -0.10625125f,
    0.16452819f,      0.012686885f,     -0.051750556f,    -0.2422274f,
    -0.08221647f,     -0.05768749f,     -0.046451423f,    0.008792878f,
    -0.29263154f,     0.09812497f,      0.028037092f,     -0.050294206f,
    -0.11498135f,     -0.039985463f,    0.08499896f,      -0.14499311f,
    0.0034531907f,    -0.16395175f,     0.115084745f,     0.17914459f,
    0.16299103f,      -0.25589687f,     -0.08832961f,     0.06979087f,
    0.058589637f,     0.020563876f,     0.12034109f,      -0.13905865f,
    0.09649898f,      -0.10007072f,     -0.09535064f,     -0.3050883f,
    -0.06442852f,     0.11921011f,      -0.08287779f,     0.19305608f,
    -0.15420468f,     -0.086714916f,    0.10489887f,      0.09176717f,
    0.018626291f,     0.034654357f,     -0.028480027f,    -0.10622846f,
    -0.10703258f,     0.027117975f,     0.110843f,        0.002811518f,
    0.0067594824f,    0.03153548f,      0.047453154f,     0.018431088f,
    0.05810912f,      -0.2678349f,      0.24195305f,      0.095801026f,
    -0.03257294f,     0.043329805f,     0.042698033f,     0.05084293f,
    0.25335228f,      0.19109565f,      0.0625241f,       0.03766894f,
    -0.026599169f,    -0.073824406f,    -0.08552274f,     0.23309849f,
    0.040689424f,     -0.02274511f,     -0.05999272f,     0.12952776f,
    0.15258782f,      -0.014804811f,    -0.020988531f,    -0.042791866f,
    0.18540156f,      0.0056281565f,    -0.10051496f,     0.057429466f,
    0.05989361f,      -0.0052441224f,   -0.0270208f,      -0.03859645f,
    -0.11500996f,     0.20982514f,      -0.05352262f,     -0.017222451f,
    -0.102592595f,    0.11133543f,      0.11884741f,      0.063654125f,
    -0.07007304f,     -0.0678443f,      0.25975206f,      0.111371905f,
    -0.034940038f,    -0.079442374f,    0.093259014f,     0.077409245f,
    0.23105623f,      0.049720213f,     0.13132654f,      0.028764522f,
    -0.04821317f,     -0.071363494f,    0.07715199f,      0.27725497f,
    0.14360799f,      0.048881125f,     -0.23641488f,     -0.04586072f,
    -0.0025616728f,   0.036311205f,     0.086692356f,     -0.15641007f,
    -0.019816423f,    0.24738196f,      -0.16508445f,     -0.17366871f,
    0.06928019f,      -0.18251061f,     -0.044937085f,    -0.12156157f,
    -0.3258015f,      -0.29343176f,     0.12518816f,      0.09187572f,
    0.20998146f,      -0.19187553f,     -0.0029559152f,   0.11432762f,
    -0.19082038f,     -0.3364103f,      -0.26483953f,     0.07534167f,
    -0.104608566f,    0.3045399f,       -0.3566966f,      0.11149437f,
    -0.044851f,       -0.25762022f,     -0.17410809f,     0.049043767f,
    0.25644037f,      -0.27118137f,     0.03360809f,      -0.11884759f,
    -0.12641756f,     -0.15245475f,     -0.0037254011f,   -0.089031495f,
    -0.21314353f,     0.09842755f,      -0.17038107f,     0.22559133f,
    -0.2082085f,      0.29307663f,      -0.15881328f,     0.11371159f,
    -0.0381843f,      0.16217923f,      0.28272542f,      0.2026395f,
    -0.04803576f,     0.13742006f,      0.016204968f,     -0.19183382f,
    -0.06774842f,     0.04510282f,      0.20703477f,      -0.081786215f,
    -0.18390042f,     -0.09695793f,     0.012011777f,     -0.11607931f,
    -0.1087888f,      0.14529575f,      0.021476323f,     0.17834222f,
    -0.14253512f,     -0.026349673f,    0.08314222f,      0.06146354f,
    -0.031128272f,    -0.10417481f,     -0.12224032f,     0.024472311f,
    0.13006502f,      0.13938072f,      0.04423065f,      0.024826854f,
    0.21286851f,      0.22672434f,      -0.27990833f,     0.124397874f,
    0.36420947f,      -0.420857f,       -0.1783581f,      -0.15904427f,
    0.39060643f,      0.13219129f,      -0.0033058766f,   -0.11849916f,
    -0.29945758f,     0.094317906f,     -0.3196827f,      -0.09627997f,
    0.069304936f,     0.16625236f,      -0.016482927f,    -0.074925676f,
    -0.18680745f,     0.34713796f,      -0.058930196f,    0.11030192f,
    -0.43622243f,     -0.03690877f,     0.37365636f,      0.16584827f,
    0.14980903f,      0.34744805f,      -0.009584664f,    -0.16112307f,
    -0.1287073f,      -0.26864517f,     -0.061264064f,    0.19279703f,
    -0.100719206f,    -0.11403761f,     0.16855301f,      0.0017146468f,
    0.21736264f,      0.19071704f,      0.23984905f,      -0.11399109f,
    0.07867898f,      -0.112848535f,    0.21878101f,      -0.14949904f,
    -0.3191157f,      0.113137335f,     -0.08064576f,     -0.047619786f,
    -0.024490124f,    0.109279044f,     -0.007133004f,    -0.031577356f,
    0.05637658f,      -0.036488686f,    0.14512001f,      -0.023440072f,
    -0.010414549f,    0.12869838f,      -0.11184403f,     0.11061276f,
    -0.11968184f,     0.05014682f,      0.24508977f,      0.0187089f,
    -0.0817955f,      0.22894469f,      0.20567957f,      -0.1391946f,
    -0.21167032f,     -0.018942067f,    -0.04900111f,     -0.18584245f,
    0.013282415f,     -0.0824906f,      -0.1309066f,      -0.084501706f,
    0.027685368f,     0.1728426f,       0.1733079f,       0.0035058453f,
    -0.09222715f,     0.04055158f,      -0.04240449f,     0.015189416f,
    0.014003836f,     0.029701868f,     0.0021656738f,    -0.0044221748f,
    0.09393085f,      -0.05523496f,     -0.064696945f,    -0.22227174f,
    -0.06298547f,     0.119999364f,     0.1839167f,       0.0271979f,
    0.050540198f,     -0.04927607f,     -0.06529098f,     -0.09860275f,
    -0.16567582f,     0.11668539f,      0.08237913f,      -0.060304727f,
    -0.0033032768f,   -0.090491846f,    -0.02875851f,     -0.029349407f,
    -0.30577096f,     -0.32291102f,     0.2436803f,       -0.09617168f,
    -0.15072577f,     0.16316202f,      -0.12431322f,     -0.07983025f,
    0.071475185f,     -0.19242589f,     -0.16111208f,     0.28391024f,
    0.12170612f,      0.1830909f,       0.0692506f,       0.045300685f,
    0.012505084f,     -0.05865911f,     -0.04060121f,     0.34249488f,
    -0.14824274f,     -0.11800177f,     0.0852859f,       -0.10117343f,
    -0.22243066f,     0.2918949f,       0.002413192f,     0.2390317f,
    -0.12511413f,     0.1513805f,       -0.067853026f,    0.09498578f,
    0.19088352f,      -0.18630505f,     0.07745038f,      0.20071396f,
    -0.011003043f,    0.12305348f,      0.25979483f,      0.13217258f,
    0.10420476f,      -0.14720675f,     0.11152577f,      -0.012590883f,
    0.029638791f,     0.11088015f,      -0.24721108f,     0.18890813f,
    0.06477089f,      0.027235206f,     0.2979388f,       0.31349474f,
    -0.016459122f,    -0.012044951f,    0.3809435f,       0.030017124f,
    5.1781535e-07f,   -0.051374666f,    0.18855166f,      0.009567647f,
    0.17947283f,      0.11074943f,      -0.098863214f,    -0.29496077f,
    -0.08055686f,     -0.008989976f,    -0.034725286f,    0.0071760444f,
    0.0027874825f,    -0.054550998f,    -0.17717637f,     0.038939107f,
    -0.08457402f,     0.019118227f,     -0.002551982f,    0.06627473f,
    0.0392953f,       0.068184756f,     0.06367483f,      0.032688662f,
    0.12888782f,      -0.021186998f,    -0.14355424f,     0.114984244f,
    0.13505024f,      0.098661f,        -0.30607215f,     -0.08985907f,
    0.11045276f,      0.19135354f,      0.10379233f,      -0.1298015f,
    -0.20465752f,     0.07671046f,      0.2727928f,       -0.20592347f,
    -0.0804185f,      0.08919675f,      0.08784372f,      -0.064247206f,
    0.015451431f,     0.16644043f,      -0.19131204f,     -0.08873857f,
    -0.09054868f,     0.10365996f,      0.024824856f,     0.033117097f,
    0.03768051f,      0.12505211f,      0.0777125f,       -0.49470383f,
    -0.03821204f,     0.026782399f,     0.014872883f,     0.15076476f,
    -0.09193084f,     0.12366867f,      -0.17213392f,     -0.07784767f,
    -0.06549705f,     0.3175625f,       0.060311746f,     -0.046344552f,
    -0.061926972f,    0.018785708f,     0.08596873f,      -0.14146256f,
    0.056384124f,     -0.070566066f,    0.02184337f,      0.12948424f,
    0.014001548f,     -0.046145644f,    -0.021183608f,    -0.07403003f,
    0.043385368f,     -0.24969716f,     0.23876508f,      -0.040034957f,
    -0.1355086f,      -0.08947599f,     0.3816991f,       0.06631998f,
    0.022062799f,     0.10244427f,      0.13422416f,      0.02500893f,
    -0.12909797f,     0.12534834f,      0.2439371f,       -0.055146772f,
    -0.023233924f,    0.044675775f,     0.067877345f,     0.023905933f,
    -0.15400171f,     -0.037325196f,    -0.04878265f,     -0.059481546f,
    -0.29811725f,     -0.027975917f,    -0.11405451f,     0.08266677f,
    0.20320684f,      0.2678161f,       -0.044874895f,    0.0063445023f,
    0.1432247f,       0.07330199f,      0.104999505f,     -0.14391916f,
    0.05827191f,      -0.15034318f,     -0.05774144f,     0.3708204f,
    0.006070355f,     -0.053799003f,    0.18030037f,      -0.22595952f,
    0.02146048f,      0.018624159f,     -0.017880064f,    0.14615777f,
    -0.16211279f,     0.24742723f,      0.18188196f,      -0.05290846f,
    -0.056367442f,    -0.10334303f,     -0.19606304f,     -0.24202797f,
    -0.032724436f,    -0.09528581f,     -0.26915938f,     -0.074275196f,
    -0.09769255f,     -0.0012540483f,   -0.1670251f,      0.019349646f,
    -0.008154749f,    0.0415409f,       -0.0070745707f,   0.04769309f,
    -0.3468974f,      0.13114052f,      0.098921865f,     -0.07759104f,
    0.07693281f,      -0.035725452f,    0.1530074f,       0.1755262f,
    -0.1626185f,      0.17206562f,      0.091528185f,     0.1328359f,
    0.09262875f,      0.07241587f,      -0.0917694f,      0.030060269f,
    -0.14862588f,     0.0125457775f,    -0.00040914273f,  0.14762495f,
    0.09038515f,      -0.05486364f,     0.010076994f,     -0.026917605f,
    -0.01057079f,     -0.25851214f,     0.120975114f,     0.037430488f,
    -0.17630677f,     -0.29201192f,     0.13980958f,      -0.037835058f,
    -0.2502016f,      -0.08497251f,     0.0076683653f,    0.13317096f,
    -0.02876652f,     -0.103095844f,    -0.16628149f,     -0.100250125f,
    0.0019495207f,    -0.010029818f,    0.26646972f,      0.05277083f,
    0.06350408f,      -0.069315374f,    -0.075130865f,    0.13905884f,
    0.004715137f,     0.15564005f,      -0.056436893f,    -0.10628789f,
    -0.0845821f,      0.18249403f,      0.031156609f,     0.042663805f,
    -0.12873769f,     -0.11026813f,     -0.103227265f,    0.17915419f,
    0.10202201f,      -0.043031894f,    0.0059274742f,    -0.040732574f,
    0.095759325f,     0.016893487f,     0.14378683f,      -0.14717369f,
    0.0016695287f,    0.046095196f,     -0.17339832f,     0.089038186f,
    -0.03597435f,     0.21223533f,      -0.048236147f,    0.09340987f,
    -0.26763886f,     0.04791077f,      0.27977479f,      -0.08360092f,
    -0.08911693f,     -0.008269261f,    0.3667315f,       -0.016406013f,
    0.058072425f,     0.19902536f,      0.03509841f,      -0.106295414f,
    -0.00979792f,     0.06238611f,      -0.033078004f,    -0.18049462f,
    0.08617039f,      -0.033162836f,    -0.20846532f,     -0.12630235f,
    0.15731487f,      -0.07563752f,     0.09064362f,      -0.16607943f,
    0.057219572f,     0.119869485f,     0.101610586f,     -0.09343591f,
    0.13494729f,      -0.090174064f,    -0.12668407f,     -0.12887447f,
    -0.23711078f,     0.0689241f,       -0.017542103f,    -0.014055015f,
    0.035365004f,     0.082223125f,     -0.089129776f,    -0.07538407f,
    -0.2541438f,      0.03154823f,      0.043229263f,     0.004358999f,
    -0.022409903f,    -0.027555296f,    -0.013799016f,    -0.024910334f,
    0.051935006f,     0.33068794f,      -0.08737273f,     -0.005434904f,
    0.1285451f,       -0.026828928f,    0.2692159f,       0.095249824f,
    0.108201884f,     0.027872635f,     0.0007407956f,    -0.0075909104f,
    0.16876626f,      -0.053000808f,    -0.060798027f,    -0.1299758f,
    0.031853408f,     -0.02540793f,     0.15317263f,      -0.08956007f,
    -0.263428f,       0.04615453f,      0.014172153f,     0.050050307f,
    -0.21088432f,     0.006306873f,     -0.02328051f,     0.24437675f,
    0.1251483f,       0.18377037f,      -0.014334958f,    0.072098486f,
    -0.10510892f,     0.0006707206f,    0.015679093f,     -0.010411072f,
    -0.106697716f,    -0.03332876f,     -0.01543173f,     -0.022511883f,
    0.04300988f,      -0.14686829f,     -0.14815435f,     0.07833176f,
    0.04651153f,      0.07083606f,      -0.18061653f,     -0.038419195f,
    0.0812907f,       0.16569187f,      0.048251845f,     0.16601005f,
    0.07430564f,      -0.08256394f,     -0.076028496f,    -0.02679936f,
    -0.17116311f,     0.005841907f,     -0.026020931f,    -0.10355572f,
    -0.020544752f,    0.025090313f,     -0.12200029f,     -0.042684887f,
    0.047971167f,     -0.07966649f,     -0.035526108f,    -0.14246874f,
    0.13264263f,      0.04762578f,      -0.087328054f,    0.15761708f,
    -0.048550557f,    -0.2184783f,      -0.05852189f,     0.03049444f,
    -0.09966897f,     0.03972916f,      0.012078945f,     0.09900206f,
    -0.27411753f,     0.032875035f,     -0.09155443f,     -0.06738105f,
    -0.012033916f,    -0.06838405f,     -0.0377592f,      0.08088412f,
    0.11883506f,      0.104842104f,     0.15798372f,      0.14665608f,
    0.15171449f,      0.02148144f,      0.109213516f,     -0.1719933f,
    -0.07663047f,     -0.066456415f,    -0.08763801f,     0.17767283f,
    0.040470377f,     -0.11150687f,     -0.058341302f,    -0.03678617f,
    -0.026375933f,    -0.09051834f,     -0.27595657f,     0.15894268f,
    -0.008008216f,    0.0064717242f,    0.02707888f,      -0.12730452f,
    -0.09278339f,     -0.010589162f,    -0.02191873f,     -0.10234677f,
    -0.25984484f,     -0.012746435f,    -0.021804962f,    -0.17822017f,
    0.0871178f,       0.2128365f,       0.0054095425f,    -0.100989595f,
    0.004150769f,     -0.23610288f,     0.20989731f,      0.08745881f,
    -0.081723906f,    -0.18323307f,     0.12709092f,      -0.01842799f,
    0.19315818f,      0.046179585f,     0.102248944f,     -0.09968669f,
    0.06142783f,      0.05825605f,      -0.052332323f,    0.120158404f,
    -0.16201621f,     0.11787479f,      -0.2103481f,      0.17537074f,
    0.09877307f,      -0.02341871f,     -0.17160097f,     -0.07576934f,
    -0.0004915984f,   -0.05634173f,     -0.0052033756f,   -0.08529712f,
    0.12394593f,      0.18214053f,      0.18753272f,      0.18563956f,
    0.337221f,        -0.058383718f,    -0.35172856f,     -0.054303695f,
    -0.05046071f,     -0.103598185f,    -0.098279595f,    0.28618446f,
    -0.044385895f,    -0.10013229f,     0.085963756f,     0.015582433f,
    0.12916744f,      -0.36302945f,     -0.25780433f,     0.08737112f,
    -0.14598796f,     0.04623716f,      -0.024455378f,    -0.15537141f,
    -0.11653643f,     -0.021654285f,    -0.15019035f,     -0.07760429f,
    -0.3702249f,      0.06574604f,      -0.0981439f,      -0.09987873f,
    0.05907714f,      -0.11521407f,     5.2149902e-05f,   -0.09548439f,
    -0.06967603f,     0.09791243f,      0.19452474f,      -0.039950006f,
    0.02901794f,      -0.047889553f,    0.27023697f,      0.15237896f,
    -0.24088094f,     0.0639057f,       0.0027788966f,    -0.1566056f,
    0.011470109f,     0.121326394f,     0.03404885f,      0.17807505f,
    -0.03775014f,     0.17236386f,      -0.010067057f,    0.048801478f,
    0.04214269f,      -0.11331335f,     -0.31593534f,     -0.041169215f,
    -0.024577636f,    -0.026156757f,    -0.10542974f,     0.083071426f,
    0.028851207f,     0.19965531f,      0.025450647f,     0.2109095f,
    -0.72754675f,     -0.028888008f,    -0.030654036f,    -0.18421865f,
    -0.07366817f,     -0.14059812f,     -0.07483367f,     0.016792009f,
    0.13621032f,      -0.08836086f,     0.11590515f,      -0.029038565f,
    0.05721036f,      0.072752714f,     -0.19481452f,     0.23887727f,
    0.0483352f,       0.04478643f,      0.038887493f,     0.17123249f,
    -0.03867496f,     -0.14181417f,     0.047759663f,     0.042894546f,
    0.20128687f,      -0.004524487f,    -0.08803472f,     0.025530726f,
    -0.024517724f,    -0.053588554f,    0.12403812f,      -0.08228705f,
    -0.030358495f,    -0.0025702568f,   0.11460518f,      -0.014043498f,
    0.10633302f,      0.17168921f,      -0.19100471f,     -0.041454803f,
    0.14082396f,      -0.0590587f,      -0.09042218f,     -0.22808015f,
    0.03167416f,      -0.24777414f,     -0.09387455f,     0.09321592f,
    -0.22593334f,     0.05997356f,      0.20211464f,      0.16446775f,
    0.22535856f,      -0.06431895f,     -0.2613912f,      -0.003747681f,
    -0.013713605f,    -0.025126472f,    -0.08353534f,     -0.057457164f,
    0.22238141f,      0.1176533f,       0.21799462f,      -0.021540593f,
    -0.0017742612f,   0.11746746f,      0.0566149f,       0.070954084f,
    0.025529196f,     0.0043586283f,    -0.048367094f,    0.067888096f,
    0.1503986f,       -0.2217293f,      -0.06404736f,     0.06237019f,
    0.115016446f,     -0.05583599f,     -0.10725476f,     0.15665218f,
    0.16167791f,      0.07162699f,      -0.09025335f,     -0.24511917f,
    -0.071818344f,    -0.054023474f,    -0.18253922f,     -0.06801738f,
    -0.034402203f,    0.0069141816f,    0.018993856f,     -0.2013826f,
    0.15919347f,      0.056914553f,     -0.032135956f,    -0.0068303924f,
    0.053916667f,     0.060077913f,     0.10095845f,      -0.1761595f,
    -0.021154264f,    0.17736171f,      -0.1164074f,      0.020757895f,
    -0.5140202f,      -0.013199851f,    0.14811471f,      0.035913333f,
    0.029820487f,     0.11929507f,      -0.0921939f,      0.07157135f,
    -0.03562475f,     0.14831057f,      -0.041960273f,    0.07165912f,
    -0.12721722f,     -0.01937577f,     0.54125375f,      -0.07943396f,
    -0.117049016f,    0.13983236f,      -0.18022364f,     0.010866852f,
    0.09099556f,      0.09848976f,      0.015864506f,     0.091433704f,
    -0.15810081f,     0.06405875f,      0.11034707f,      -0.11407657f,
    0.008459355f,     -0.20648241f,     -0.08337628f,     -0.23163225f,
    -0.15275912f,     -0.02500594f,     0.0032568527f,    -0.010669163f,
    0.19628651f,      0.1744206f,       -0.119844995f,    0.1568631f,
    0.132492f,        -0.035345238f,    0.048857983f,     0.1550039f,
    0.38414925f,      0.047816023f,     0.016856097f,     -0.13005412f,
    0.1869413f,       0.025087398f,     -0.092574336f,    -0.038371716f,
    -0.0033979304f,   -0.00866064f,     -0.17803174f,     0.0059863306f,
    -0.0044342363f,   0.0024964032f,    0.061803434f,     0.13985397f,
    -0.082110524f,    0.08241888f,      -0.0076318597f,   -0.05813411f,
    0.11474159f,      0.028058704f,     0.10011867f,      -0.09020389f,
    0.14821197f,      -0.056171518f,    -0.07019151f,     0.17263769f,
    -0.15880898f,     0.14611337f,      -0.055666424f,    0.07795858f,
    -0.25255415f,     -0.01861223f,     0.15398994f,      0.0032537426f,
    -0.13508299f,     0.013193938f,     -0.17557116f,     0.074893385f,
    -0.062162478f,    -0.14965491f,     0.08334198f,      0.023226947f,
    0.021904247f,     0.036804825f,     -0.0385893f,      0.055487927f,
    0.050963428f,     -0.07679785f,     -0.026576446f,    -0.24199256f,
    0.08787804f,      -0.04879134f,     0.054044493f,     -0.24740584f,
    0.08444553f,      0.19480275f,      -0.15755603f,     0.014445645f,
    0.04107105f,      -0.019876454f,    0.06683594f,      0.14543831f,
    -0.07566484f,     0.045974363f,     0.02350892f,      -0.0040196804f,
    -0.00446272f,     -0.069394514f,    -0.16762313f,     -0.18871464f,
    0.18755935f,      -0.10390346f,     -0.15392481f,     0.1681636f,
    0.034760304f,     0.04190741f,      0.21663056f,      0.076555856f,
    0.059594836f,     -0.08283296f,     -0.14717707f,     -0.0070727356f,
    -0.05158335f,     -0.1075565f,      -0.030357054f,    -0.1712782f,
    0.05389848f,      0.097454116f,     -0.10260019f,     0.17110668f,
    0.0021633178f,    0.184393f,        0.09131227f,      0.10143362f,
    0.2533653f,       -0.058857348f,    -0.028483495f,    0.13068798f,
    -0.05644388f,     0.015334007f,     0.027400931f,     0.0076424354f,
    0.11532422f,      -0.08964069f,     0.10120509f,      0.21629158f,
    -0.06588866f,     -0.052398693f,    0.18814231f,      0.18253082f,
    -0.05456659f,     -0.09481049f,     0.0035942167f,    -0.17534854f,
    -0.18445255f,     -0.044668507f,    0.07426795f,      0.011927519f,
    0.05341568f,      0.12286943f,      -0.06341761f,     0.10186813f,
    -0.30729175f,     0.11688739f,      0.03590587f,      -0.08430927f,
    -0.02676293f,     -0.1462096f,      -0.1165795f,      0.2367018f,
    0.2540845f,       0.04402432f,      -0.13827935f,     -0.18291892f,
    0.08760986f,      -0.10460943f,     0.19360165f,      0.14749357f,
    -0.13148646f,     0.104259886f,     0.029082911f,     0.1875818f,
    -0.21020098f,     0.013035255f,     -0.043254714f,    0.051409684f,
    0.18649222f,      -0.10586021f,     0.066612035f,     -0.111668386f,
    -0.01764988f,     0.09953752f,      0.030760791f,     0.21695717f,
    -0.1556054f,      0.16170067f,      0.173472f,        0.1395511f,
    -0.033086613f,    -0.058616705f,    0.041437093f,     0.012769922f,
    -0.10327231f,     0.03535819f,      -0.018269593f,    0.14317368f,
    -0.1144296f,      -0.017722039f,    0.06246103f,      -0.06345039f,
    0.26090246f,      0.04011365f,      -0.11196151f,     0.0549352f,
    -0.03013927f,     -0.20736112f,     -0.010607315f,    -0.17952475f,
    -0.13551475f,     -0.07084424f,     -0.059338745f,    -0.13159007f,
    0.07751694f,      0.10711817f,      -0.12929118f,     0.032336038f,
    0.041752335f,     -0.0029514069f,   0.1270178f,       0.12148876f,
    -0.13351414f,     -0.14394803f,     -0.020849984f,    0.13451047f,
    0.021652013f,     -0.055883683f,    -0.07343501f,     0.022114955f,
    0.13669093f,      0.04000923f,      -0.026077466f,    0.18234485f,
    -0.13069962f,     -0.098871306f,    0.06887681f,      -0.1781442f,
    0.17436546f,      -0.008765497f,    0.12045731f,      -0.050071105f,
    0.12102886f,      0.07464597f,      0.0774157f,       -0.029181128f,
    0.035705708f,     0.11499764f,      -0.08734208f,     -0.022406332f,
    -0.14642502f,     0.03424415f,      -0.09329182f,     0.13710658f,
    -0.075138316f,    -0.007717347f,    0.04061633f,      0.058857087f,
    -0.05453836f,     0.030210149f,     -0.07027164f,     -0.007131636f,
    -0.059391204f,    0.091615245f,     0.050393738f,     0.21447223f,
    0.0712637f,       0.031855404f,     -0.16015339f,     0.15100685f,
    -0.11140752f,     0.0069844685f,    -0.028005654f,    0.26698223f,
    0.09047208f,      -0.14686303f,     0.06739859f,      0.47192222f,
    0.16650075f,      0.16167356f,      -0.27364954f,     0.027652627f,
    0.032811075f,     -0.04533745f,     0.11021357f,      0.07201807f,
    -0.016256215f,    -0.08656268f,     -0.043513224f,    0.023356007f,
    -0.0667673f,      -0.04025683f,     -0.18625693f,     -0.067462705f,
    -0.011144339f,    0.10956436f,      0.042692497f,     -0.073786594f,
    -0.06099815f,     0.18969147f,      0.07242117f,      -0.020463353f,
    0.068367235f,     0.07561611f,      -0.2844005f,      -0.040416125f,
    -0.051136013f,    0.03219278f,      -0.017906409f,    -0.0937257f,
    0.036848832f,     -0.015867958f,    -0.17566511f,     0.028796693f,
    -0.0015301731f,   0.0587523f,       0.30213374f,      0.041555457f,
    -0.043107748f,    -0.086696595f,    0.14284405f,      0.066810064f,
    -0.14694938f,     -0.063939564f,    0.09607709f,      0.02194879f,
    0.035385616f,     -0.081623405f,    0.05585187f,      0.10815673f,
    0.2695233f,       0.2140608f,       0.085097544f,     -0.21492396f,
    0.16775449f,      -0.009912453f,    -0.22139618f,     0.17092746f,
    0.082358435f,     0.2230482f,       -0.22006492f,     -0.25419027f,
    -0.07319456f,     0.1402962f,       -0.047418725f,    0.037205685f,
    0.47377905f,      0.07147126f,      0.09747635f,      0.19809161f,
    -0.16922958f,     -0.31871223f,     -0.1543744f,      0.088180855f,
    -0.27840525f,     -0.036082648f,    -0.03969215f,     0.043044697f,
    -0.21375915f,     0.035751466f,     -0.103088744f,    -0.12090038f,
    0.010212003f,     -0.11239508f,     0.004723484f,     -0.06110649f,
    -0.090766124f,    0.08866907f,      0.13546911f,      -0.06584744f,
    0.0065056053f,    -0.16408926f,     -0.009574559f,    0.11952236f,
    0.009145368f,     -0.019038763f,    -0.10913417f,     -0.120893635f,
    0.043933954f,     -0.13949601f,     -0.037420657f,    -0.12030466f,
    -0.14358999f,     0.064051576f,     -0.20213819f,     -0.21989086f,
    0.109415f,        -0.07832933f,     -0.04933513f,     0.10884997f,
    0.19596508f,      -0.21770382f,     -0.062163986f,    -0.10798473f,
    -0.056672852f,    0.052092474f,     0.140577f,        -0.073740266f,
    -0.080058806f,    0.14271803f,      -0.2596265f,      -0.14591368f,
    0.016675778f,     -0.008390843f,    0.033657487f,     0.0141374795f,
    0.006651216f,     0.23984183f,      0.11725343f,      0.14754735f,
    -0.1245438f,      0.07460993f,      0.007768977f,     -0.17013466f,
    0.083016895f,     -0.41056824f,     -0.23824817f,     -0.27190402f,
    0.30761772f,      -0.08828889f,     -0.27664417f,     0.067961976f,
    0.21253651f,      -0.12595244f,     -0.11616868f,     -0.098400295f,
    0.32038403f,      -0.05205168f,     0.101739064f,     -0.074462324f,
    0.14869411f,      0.07035966f,      0.11863099f,      0.13843267f,
    0.25125608f,      -0.032024268f,    0.06687507f,      -0.1655537f,
    0.17109177f,      -0.020195317f,    -0.3337637f,      0.16569346f,
    -0.054612778f,    0.070501894f,     0.1891664f,       -0.10824481f,
    0.16767633f,      0.18480161f,      -0.10619593f,     -0.03843923f,
    -0.317926f,       -0.2206432f,      0.09293113f,      -0.18905142f,
    -0.032796767f,    0.009156808f,     -0.24873734f,     -0.057974804f,
    0.4062448f,       0.2108813f,       0.021681696f,     0.005609658f,
    -0.3415466f,      0.06907153f,      -0.019569442f,    0.04793828f,
    0.20578624f,      0.11178452f,      0.13597824f,      0.073719725f,
    -0.10466344f,     0.28894734f,      0.023450837f,     -0.013722951f,
    -0.29508996f,     0.16219749f,      -0.044744324f,    -0.13449754f,
    0.13136171f,      0.025739536f,     0.15145193f,      0.028452672f,
    -0.12412267f,     0.11030556f,      -0.07792523f,     0.13174047f,
    0.19116382f,      -0.05699079f,     -0.009684736f,    -0.15704368f,
    -0.011156566f,    -0.0718308f,      -0.016326226f,    0.018846653f,
    0.13555343f,      0.17208461f,      0.109395705f,     -0.04958778f,
    -0.15584075f,     -0.09890509f,     0.038878262f,     0.1015691f,
    0.08607737f,      0.14099428f,      -0.056602377f,    0.07806029f,
    0.15186062f,      0.31060237f,      0.056448128f,     0.124995336f,
    -0.066251986f,    -0.04029925f,     0.19606842f,      -0.10872562f,
    -0.020275136f,    0.15588973f,      0.13451754f,      -0.030076792f,
    -0.108886324f,    -0.28267297f,     -0.026131248f,    0.18966514f,
    0.27198598f,      0.007706951f,     -0.078262776f,    0.043902643f,
    0.060942486f,     -0.15384889f,     -0.12697993f,     -0.2066185f,
    0.059990052f,     -0.020899883f,    -0.2524112f,      0.19775334f,
    -0.044275954f,    0.031793226f,     0.048480105f,     -0.069248594f,
    0.027110433f,     0.29240718f,      -0.1574678f,      0.23636912f,
    0.0018169266f,    -0.29242328f,     -0.090885244f,    -0.09013446f,
    0.3446509f,       0.13144408f,      0.104890205f,     0.000528614f,
    0.14195164f,      0.09788029f,      -0.117917955f,    0.05170671f,
    -0.12528066f,     -0.07385373f,     0.104177065f,     0.26275802f,
    0.093926445f,     0.14514142f,      0.19037385f,      0.17118765f,
    0.3652245f,       0.022000372f,     -0.14398612f,     0.061339978f,
    0.11086109f,      -0.062427577f,    -0.15962802f,     -0.032510605f,
    -0.22089596f,     0.21346347f,      0.5485859f,       -0.08802335f,
    -0.11947649f,     -0.08500205f,     0.20890792f,      0.0439457f,
    -0.24048112f,     -0.061624665f,    0.06478483f,      0.03201282f,
    0.047859386f,     -0.31327716f,     -0.0028356614f,   0.113397606f,
    0.045038205f,     0.13311824f,      -0.15052676f,     0.17507534f,
    0.09638593f,      0.08421465f,      -0.42724922f,     0.17372783f,
    -0.10724989f,     -0.4063486f,      0.04575614f,      0.03790734f,
    -0.023549438f,    -0.38274923f,     -0.18249896f,     -0.14720629f,
    -0.206729f,       0.3531782f,       0.04000058f,      0.004615366f,
    -0.12592365f,     -0.1415085f,      -0.08751338f,     0.073641516f,
    -0.26524094f,     0.14122383f,      -0.2810134f,      0.09256276f,
    -0.034922816f,    -0.00017671226f,  0.039666094f,     0.043917242f,
    0.08538477f,      0.11419705f,      -0.017934682f,    -0.19446163f,
    -0.022111576f,    -0.20102288f,     -0.06595795f,     -0.16496408f,
    0.13233003f,      0.026860707f,     0.16857319f,      -0.052621793f,
    0.053076573f,     -0.06805536f,     -0.4330374f,      0.048493978f,
    0.18871382f,      0.16537718f,      -0.045456085f,    0.1102483f,
    -0.060490225f,    -0.013410067f,    -0.07511599f,     -0.017978758f,
    -0.121615596f,    0.05987979f,      -0.089673236f,    -0.09005073f,
    0.14314505f,      -0.2326119f,      0.017709099f,     -0.08298404f,
    0.050391357f,     0.038847927f,     0.052682016f,     -0.099473365f,
    0.06402906f,      0.053072877f,     -0.041259013f,    0.1511871f,
    0.06712618f,      -0.16434628f,     0.088365935f,     0.1322493f,
    -0.057283614f,    -0.014256671f,    0.29841352f,      0.27090025f,
    0.3553901f,       0.23892902f,      -0.080569535f,    -0.25981185f,
    -0.023597892f,    -0.1634109f,      0.11961808f,      -0.16464671f,
    -0.3101731f,      0.0054131728f,    -0.13399224f,     0.07104917f,
    0.14077994f,      -0.017333152f,    -0.17485824f,     -0.079018325f,
    -0.3139866f,      0.077986136f,     -0.029343002f,    0.0673807f,
    0.053552955f,     -0.16900139f,     0.04503728f,      0.023149505f,
    -0.1677502f,      0.18048568f,      -0.038269207f,    0.014271247f,
    -0.045761544f,    0.015276367f,     -0.0036037758f,   0.15543312f,
    0.090749726f,     0.06056526f,      -0.24643847f,     0.16793269f,
    0.08983357f,      0.049557824f,     -0.10662168f,     -0.035285003f,
    -0.23605396f,     0.10817769f,      0.013584388f,     0.049338665f,
    -0.122514375f,    -0.1444622f,      0.08381615f,      -0.08271402f,
    -0.15078844f,     -0.02251526f,     -0.058932975f,    0.15915714f,
    0.07045216f,      0.08255533f,      -0.31656238f,     0.06825785f,
    -0.2614356f,      0.26654622f,      -0.08737221f,     -0.005502405f,
    0.022950752f,     0.18792638f,      -0.19175477f,     0.08532234f,
    -0.024154713f,    0.31158224f,      -0.00034102995f,  0.22204764f,
    -0.003943573f,    0.03452401f,      -0.1309733f,      0.03927474f,
    -0.13069175f,     -0.041278046f,    0.19505326f,      0.32591945f,
    -0.23265989f,     0.13322386f,      0.042006776f,     -0.013706753f,
    -0.099027425f,    0.054829497f,     -0.09886183f,     0.19552758f,
    -0.017706402f,    0.019584814f,     0.011613655f,     -0.04312892f,
    0.16285573f,      0.1366494f,       0.028810782f,     0.08038396f,
    0.074958116f,     -0.056875464f,    -0.030424925f,    0.015717437f,
    0.01794493f,      -0.2144744f,      0.2981431f,       -0.049618546f,
    0.021580722f,     -0.060717802f,    0.04213835f,      -0.035551913f,
    0.021193556f,     0.07168817f,      -0.110698655f,    0.10115104f,
    0.090237916f,     0.14460947f,      -0.08687987f,     -0.13246615f,
    -0.1731243f,      0.13234481f,      0.014885395f,     -0.197508f,
    0.047812305f,     -0.0764751f,      -0.2585496f,      -0.1362474f,
    0.08865877f,      0.046665814f,     -0.07721931f,     -0.0065699494f,
    0.02619194f,      -0.19129926f,     -0.20961918f,     0.082792416f,
    -0.18077993f,     0.04787422f,      0.17233159f,      -0.1526252f,
    0.26458108f,      -0.42751393f,     0.11142535f,      -0.00079609593f,
    -0.012876208f,    -0.003013739f,    -0.14052115f,     0.12705317f,
    0.033061583f,     -0.034379743f,    0.07094907f,      -0.06436349f,
    0.058896717f,     0.025663024f,     0.063775875f,     -0.082816675f,
    0.14210379f,      0.12452962f,      0.061238807f,     0.08078735f,
    -0.31028184f,     0.06100861f,      -0.14925289f,     0.01589717f,
    0.02371605f,      0.20354915f,      -0.25196165f,     0.1481911f,
    0.1794416f,       -0.18845038f,     0.3725796f,       -0.09925506f,
    -0.22480682f,     0.19349296f,      0.1379424f,       0.20486745f,
    0.01873729f,      0.14174347f,      -0.085913144f,    -0.11696861f,
    0.043287903f,     -0.19420294f,     0.067257985f,     0.020609997f,
    -0.1896727f,      0.04450626f,      -0.032397795f,    0.15402658f,
    0.09359274f,      0.05224943f,      0.17713645f,      0.018067488f,
    -0.08361644f,     0.014073113f,     0.09172115f,      -0.26468274f,
    0.12439136f,      -0.11953656f,     0.019613972f,     0.02477522f,
    0.016975762f,     0.023947183f,     0.09010855f,      -0.07057614f,
    0.014318651f,     -0.22230576f,     0.23635216f,      0.19493529f,
    0.35223186f,      0.0737921f,       -0.15020697f,     0.057052523f,
    -0.053550303f,    -0.045409214f,    0.16254728f,      0.011951506f,
    -0.020457821f,    0.05201135f,      -0.115333684f,    0.19611667f,
    0.16393854f,      -0.031449493f,    -0.018162206f,    -0.12129604f,
    0.22561456f,      0.27258795f,      -0.002697613f,    -0.1675699f,
    0.07031053f,      -0.024497522f,    0.00085422816f,   0.0030752164f,
    0.12782377f,      -0.082241446f,    -0.095908456f,    0.2292074f,
    -0.05689383f,     -0.21530579f,     -0.17280932f,     0.027897518f,
    -0.118940935f,    0.022562295f,     -0.18971571f,     0.11365199f,
    -0.017344985f,    -0.006968743f,    -0.0009620427f,   -0.15389837f,
    0.026178781f,     -0.043400276f,    0.059989154f,     0.07398178f,
    0.008620745f,     0.08362812f,      0.010455771f,     0.22034012f,
    0.060069926f,     -0.11964575f,     -0.048734784f,    0.14701708f,
    -0.13442606f,     -0.102368526f,    -0.051553085f,    0.17885065f,
    -0.011924366f,    0.015263391f,     -0.049114317f,    -0.08684928f,
    -0.100128286f,    0.13071159f,      0.10931264f,      0.038022444f,
    0.0051255464f,    0.03392219f,      0.15470155f,      0.054186177f,
    -0.041845184f,    0.059961572f,     -0.06124688f,     0.06816532f,
    -0.14646664f,     -0.087593116f,    0.046925344f,     -0.020126782f,
    0.12971881f,      0.006032637f,     -0.0013946309f,   0.0056711473f,
    -0.039763972f,    -0.10379117f,     0.009397954f,     0.038045548f,
    -0.054691285f,    0.01750065f,      -0.019079756f,    0.0843711f,
    0.1350713f,       -0.10543129f,     -0.11479252f,     0.041729685f,
    0.15816581f,      0.1778285f,       0.1977169f,       -0.022539806f,
    0.113722496f,     -0.036249332f,    -0.07958176f,     -0.0010587443f,
    0.071880154f,     0.18775995f,      -0.16147263f,     -0.04088196f,
    -0.11440155f,     0.14461523f,      -0.07894653f,     0.008630555f,
    0.09135777f,      -0.17741844f,     0.08789509f,      0.11072884f,
    -0.0865354f,      0.22083853f,      -0.024532821f,    -0.18202838f,
    0.17830619f,      -0.03186309f,     -0.08337673f,     -0.15301473f,
    0.124091044f,     0.02025406f,      0.04356718f,      -0.037182555f,
    -0.15459909f,     0.007930184f,     -0.005772078f,    0.050228935f,
    -0.079686776f,    0.049966086f,     0.07843381f,      0.023792671f,
    -0.23863459f,     -0.18423174f,     -0.09802055f,     -0.12847006f,
    -0.18527636f,     0.017711736f,     -0.04472062f,     0.046267938f,
    -0.013809114f,    0.00404361f,      0.037959766f,     0.057065796f,
    0.06191419f,      0.22613432f,      0.09667465f,      0.26589322f,
    -0.012568594f,    -0.010794666f,    0.048390087f,     0.07238283f,
    0.13703248f,      0.024891878f,     0.25652063f,      0.03967354f,
    -0.0076305433f,   -0.08812426f,     -0.18713202f,     0.0031084388f,
    -0.15603185f,     0.012316156f,     -0.031776562f,    0.15650412f,
    -0.063352846f,    -0.18167421f,     0.15562621f,      -0.040100522f,
    0.003973803f,     -0.031488344f,    0.16485362f,      -0.08402614f,
    0.019427177f,     0.1383273f,       0.089022465f,     -0.22609496f,
    0.011841055f,     -0.18779717f,     -0.027977277f,    -0.016141098f,
    -0.044243682f,    0.019358542f,     -0.16318354f,     0.054100968f,
    -0.20365833f,     0.023632944f,     -0.039494254f,    -0.037053816f,
    -0.049691223f,    0.06521964f,      0.13255933f,      -0.042434685f,
    0.008881716f,     0.011135491f,     -0.1942289f,      0.16767868f,
    -0.040159095f,    -0.05447623f,     0.14626782f,      0.08042955f,
    0.15513176f,      0.04922005f,      -0.20470151f,     0.040253375f,
    0.015409668f,     -0.05500063f,     -0.13082127f,     -0.11441528f,
    -0.02216835f,     -0.03789274f,     -0.058275573f,    -0.041906126f,
    0.032299686f,     0.06763441f,      0.0038565856f,    0.018649342f,
    0.016527833f,     0.08241092f,      -0.015825944f,    -0.14164874f,
    -0.021594608f,    0.062485825f,     0.15188688f,      0.13308086f,
    0.036237203f,     0.017657302f,     0.110344656f,     -0.039295286f,
    0.049513143f,     -0.019747412f,    0.18116958f,      -0.21118914f,
    -0.08743891f,     0.09659885f,      0.061773624f,     -0.022760183f,
    0.044636246f,     -0.124227494f,    0.053487163f,     -0.09654431f,
    -0.040735286f,    0.01878192f,      -0.0926591f,      0.053357895f,
    0.13194889f,      0.031393263f,     0.15032646f,      -0.031522486f,
    -0.073207974f,    -0.14625782f,     0.04909603f,      -0.042987466f,
    -0.045976847f,    0.026357243f,     -0.029846275f,    -0.20760016f,
    -0.0296878f,      0.11252367f,      -0.14465082f,     0.0728914f,
    -0.047445532f,    -0.053553842f,    0.13988774f,      0.05024949f,
    0.07607151f,      0.113605134f,     -0.0855181f,      -0.11624816f,
    -0.25853786f,     -0.08641036f,     -0.14596882f,     -0.054011367f,
    0.13288173f,      -0.06794944f,     0.12812138f,      0.009980495f,
    -0.0008788252f,   -0.06691641f,     0.03206997f,      0.06296758f,
    0.23489991f,      0.042132504f,     -0.027416456f,    0.019840589f,
    -0.07771824f,     0.07833791f,      -0.03775803f,     -0.10922884f,
    0.07373772f,      0.04523726f,      0.11959914f,      0.039241586f,
    0.11369215f,      0.15619887f,      -0.15310478f,     -0.037389126f,
    -0.12940545f,     -0.07588477f,     0.048754565f,     0.14143299f,
    0.12879628f,      -0.13211206f,     0.013785011f,     -0.15285887f,
    0.061781645f,     -0.16201942f,     0.05709906f,      -0.22788687f,
    -0.008929454f,    0.0040336247f,    0.16371025f,      -0.13355705f,
    0.02842377f,      -0.113164425f,    -0.09216027f,     0.017879462f,
    -0.036849264f,    0.037199534f,     0.19034813f,      -0.018728076f,
    0.04016955f,      -0.0033643905f,   0.13202482f,      -0.10490799f,
    0.0739096f,       0.16833965f,      -0.03780092f,     0.03536529f,
    0.00042379473f,   -0.07463599f,     -0.13039896f,     -0.107394345f,
    0.008952134f,     -0.012260002f,    0.1922252f,       0.047550675f,
    0.06405054f,      -0.15496163f,     0.19675833f,      0.077441104f,
    0.04686107f,      -0.076130815f,    -0.012207159f,    -0.12198781f,
    -0.041367408f,    0.02104899f,      0.16218662f,      -0.072042584f,
    0.13080357f,      0.0073455144f,    0.079532795f,     0.02587011f,
    -0.345157f,       -0.0466131f,      0.032595605f,     0.042923275f,
    -0.023530565f,    0.040881217f,     -0.1067982f,      0.012641078f,
    0.12031605f,      0.096893586f,     -0.021918936f,    -0.06097541f,
    -0.050424058f,    0.124045074f,     -0.06761977f,     0.10503545f,
    0.014189752f,     -0.033050805f,    0.030085f,        0.18960701f,
    0.07203147f,      -0.21702568f,     -0.10327202f,     0.09126135f,
    0.1624543f,       -0.07763052f,     0.23756708f,      0.01052479f,
    -0.08727141f,     -0.014565462f,    0.0077877077f,    0.0750356f,
    -0.0088242525f,   0.039612122f,     -0.0099289715f,   0.023895212f,
    0.05266149f,      0.03309078f,      0.0069077876f,    -0.05017737f,
    0.018554421f,     -0.08953948f,     -0.16481246f,     0.027792288f,
    -0.10520403f,     0.06757031f,      -0.06489675f,     0.10463693f,
    -0.22461265f,     0.04702194f,      -0.10082066f,     0.06299325f,
    0.103553124f,     -0.029664136f,    0.04171248f,      0.116178825f,
    -0.020560399f,    0.099226795f,     0.016527375f,     0.09852221f,
    -0.035064884f,    -0.02143783f,     -0.037268974f,    0.19407593f,
    -0.029484218f,    -0.045904975f,    -0.03595119f,     -0.10108404f,
    0.0041924873f,    0.0091424715f,    0.010396063f,     -0.025336858f,
    -0.039938986f,    0.04434018f,      -0.034010928f,    -0.080885395f,
    0.02109669f,      -0.05613496f,     -0.09065182f,     -0.06500154f,
    0.13356887f,      -0.11647076f,     -0.09417858f,     0.13102415f,
    0.021239314f,     0.058266565f,     0.09601543f,      0.016057763f,
    0.036155067f,     0.022460548f,     0.05479909f,      0.027276821f,
    0.050641354f,     0.026107645f,     0.011024361f,     0.07360285f,
    0.03346804f,      0.020873046f,     0.1337876f,       0.12689938f,
    0.056853183f,     0.09481251f,      -0.09209805f,     0.15026657f,
    0.049271997f,     -0.101975575f,    -0.12640168f,     0.016455429f,
    0.10009549f,      0.08435708f,      0.086787954f,     -0.008528159f,
    0.11158078f,      0.10145763f,      -0.11619321f,     -0.16989361f,
    0.26146808f,      -0.030586876f,    0.03487819f,      0.119707726f,
    0.061029006f,     0.01627875f,      -0.19043384f,     -0.045232546f,
    -0.03481666f,     -0.06299686f,     0.06885085f,      -0.051588103f,
    0.0429809f,       0.0012220313f,    -0.047038823f,    0.04543618f,
    -0.055474278f,    0.13923424f,      0.058435436f,     -0.035642374f,
    -0.07875079f,     -0.12531482f,     0.018950075f,     -0.025639057f,
    0.03157109f,      -0.0680949f,      0.021792611f,     0.09800581f,
    -0.10663965f,     -0.05495707f,     0.103225194f,     0.0063606435f,
    0.20204285f,      -0.18057138f,     -0.08791938f,     -0.09792201f,
    -0.118415214f,    0.1616428f,       -0.16262364f,     -0.10033422f,
    0.096034214f,     -0.045364276f,    -0.03076509f,     0.023543281f,
    0.01367305f,      -0.15080155f,     -0.0189352f,      0.17230107f,
    -0.003785197f,    -0.06717216f,     0.0934517f,       -0.008601496f,
    0.0386752f,       0.018716034f,     0.114300184f,     -0.03243493f,
