/**
 * @file
 * Default cnn weights for x2 upscaling with sresnetp model.
 */

#ifndef AVFILTER_DNN_SRESNETP_H
#define AVFILTER_DNN_SRESNETP_H

static const float rtvsrgan_conv1_kernel[] = {
    -0.3618819f,     0.25243416f,     0.21723144f,     0.22502449f,
    -0.3948559f,     -0.0042946287f,  0.08321155f,     0.15269715f,
    -0.16338983f,    0.028165331f,    0.114999235f,    0.052083902f,
    -0.068348534f,   -0.47035596f,    0.35642654f,     0.03596558f,
    -0.025727475f,   0.011326472f,    -0.19778113f,    0.17958964f,
    0.00811418f,     0.28345445f,     -0.14658338f,    -0.10500488f,
    -0.2735009f,     0.17716905f,     0.09727178f,     0.00027337467f,
    -0.0029210157f,  0.0014433427f,   0.15919852f,     0.24096796f,
    0.025482107f,    -0.122410804f,   0.18072797f,     -0.094134115f,
    0.20163321f,     0.26012033f,     -0.10224532f,    -0.18888459f,
    0.21747425f,     -0.041800037f,   0.033224344f,    -0.06456356f,
    0.010340021f,    -0.11834106f,    0.7540235f,      -0.67790467f,
    0.10933021f,     -0.8591971f,     0.8065288f,      -0.0006589806f,
    0.13148914f,     -0.16052848f,    -0.0005842812f,  -0.026582668f,
    0.0032833084f,   -0.0067324704f,  0.017765023f,    -0.8508514f,
    0.009771423f,    0.0017780272f,   0.85891837f,     -0.018097654f,
    -0.048125945f,   0.698232f,       -0.010909721f,   0.028545897f,
    -0.1262897f,     -0.0038857316f,  -0.013026104f,   0.03715396f,
    -0.27003434f,    0.14775077f,     0.12790182f,     0.23242785f,
    0.123445086f,    -0.3230134f,     0.040071033f,    -0.2597424f,
    0.19211873f,     -0.023470271f,   -0.2733844f,     0.61712104f,
    0.0020401939f,   -0.14941168f,    -0.24786304f,    0.0064750994f,
    -0.025244268f,   -0.020615757f,   0.058247335f,    -0.05755974f,
    0.03297292f,     -0.02627819f,    0.25025207f,     -0.009900049f,
    0.17086801f,     -0.8977415f,     0.24129197f,     0.24244735f,
    -0.22319466f,    -0.029460944f,   -0.392122f,      0.3901554f,
    -0.07323669f,    0.21979167f,     -0.31590617f,    0.095904574f,
    0.5183818f,      -1.0165124f,     0.50178546f,     0.05418379f,
    -0.13569187f,    0.07866199f,     -0.008349103f,   0.01966942f,
    -0.013750244f,   -0.34295365f,    -0.01612927f,    0.20589018f,
    0.015815545f,    0.3748615f,      -0.13060471f,    0.22131658f,
    -0.15012345f,    -0.23297231f,    0.5055546f,      -0.17408793f,
    0.10767433f,     -0.46939772f,    0.045656163f,    -0.0927145f,
    0.0041733906f,   0.030724425f,    -0.019293481f,   0.0074183336f,
    0.004658563f,    0.010085306f,    0.11889849f,     0.105463594f,
    -0.04312232f,    -0.27373174f,    -0.28953293f,    0.18963975f,
    0.23272334f,     -0.14236781f,    -0.21260224f,    -0.008056041f,
    -0.10645771f,    0.30543724f,     -0.123445615f,   -0.00086437643f,
    0.028867558f,    0.005045511f,    -0.08182066f,    -0.05485646f,
    -0.043410838f,   -0.19018744f,    0.044947743f,    -0.08437376f,
    -0.12391674f,    0.406054f,       -0.14875159f,    -0.22335517f,
    -0.026383698f,   0.25299025f,     -0.114016145f,   -0.11152954f,
    -0.016325688f,   0.33520052f,     0.0374977f,      0.01754087f,
    0.040080238f,    -0.05066593f,    0.058423392f,    -0.09857565f,
    0.5112734f,      0.0076900874f,   0.017100057f,    0.04127295f,
    -0.032692812f,   -0.39453074f,    0.14233597f,     -0.035249595f,
    0.36421782f,     -0.006619748f,   0.020342845f,    -0.3473187f,
    0.10099183f,     0.039736472f,    -0.06151069f,    0.002254865f,
    0.43085277f,     0.043770522f,    -0.47751737f,    0.036463697f,
    0.03709057f,     -0.039658997f,   -0.05621613f,    -0.31431797f,
    0.24311744f,     0.15373546f,     0.075459816f,    -0.0030343602f,
    -0.13855669f,    0.17753766f,     -0.06375517f,    -0.10434078f,
    0.07874221f,     0.025298875f,    -0.2681749f,     -0.17561264f,
    0.4257404f,      0.40753925f,     -0.12888621f,    -0.2673649f,
    0.0011669826f,   0.017861752f,    -0.0019989847f,  -0.006139362f,
    -0.023993913f,   0.011087699f,    -0.020008076f,   0.9810978f,
    0.0024616322f,   0.46346828f,     -0.35220656f,    -0.10554148f,
    -0.5307264f,     -0.05265164f,    0.5743465f,      0.05525463f,
    0.40709266f,     -0.45736802f,    -0.23319173f,    0.01213903f,
    0.23970841f,     0.5265901f,      -0.116615094f,   -0.42299682f,
    -0.2869986f,     0.0665162f,      0.16002001f,     0.048755795f,
    -0.012439114f,   0.1809952f,      0.07271402f,     0.10756491f,
    -0.4059569f,     0.043704275f,    -0.035230897f,   -0.16271529f,
    0.10068211f,     0.06068109f,     -0.07442277f,    0.19145808f,
    -0.47837374f,    0.17539014f,     -0.15902022f,    0.34616864f,
    -0.020169603f,   0.09778427f,     0.23574589f,     -0.32442135f,
    -0.5356274f,     0.3712477f,      0.13363661f,     0.4420689f,
    -0.6245895f,     0.20703237f,     0.004155238f,    0.005287776f,
    -0.00967766f,    0.0046282737f,   -0.03309527f,    0.3769906f,
    0.006714283f,    -0.003509928f,   -0.029367754f,   0.027167354f,
    -0.08309568f,    0.26101318f,     -0.0008837935f,  0.0010230867f,
    0.21542688f,     -0.020621305f,   0.0630944f,      -0.48207435f,
    0.07868626f,     -0.028024098f,   -0.04664503f,    0.45765382f,
    -0.19662444f,    0.060424745f,    -0.111371785f,   0.046121404f,
    -0.06757729f,    -0.17589833f,    -0.23416308f,    -0.02857026f,
    0.13458364f,     -0.19599958f,    0.101486966f,    -0.0019067796f,
    -0.003005834f,   0.0011661794f,   -0.19018598f,    0.61767924f,
    -0.33023342f,    0.08726918f,     0.0268299f,      -0.23631915f,
    -0.0129870325f,  -0.039361224f,   0.018839438f,    0.02298914f,
    -0.04261485f,    0.2753695f,      -0.02651116f,    0.10099199f,
    -0.67445505f,    0.02682794f,     -0.10665134f,    0.39968896f,
    0.054106884f,    -0.18764023f,    0.28128257f,     -0.026319379f,
    0.036185622f,    -0.24904446f,    0.1920289f,      -0.116912276f,
    0.16984917f,     -0.031237412f,   -0.10694154f,    0.20168477f,
    0.21994388f,     -0.64917874f,    -0.013189979f,   0.39165223f,
    0.020148825f,    -0.058355328f,   -0.090234466f,   0.34740934f,
    0.06193622f,     0.07120754f,     -0.33329326f,    -0.037393842f,
    -0.00083499716f, 0.13808745f,     -0.05991783f,    0.02532745f,
    0.06978821f,     -0.06390877f,    -0.04604183f,    0.8558016f,
    -0.8001002f,     0.04039763f,     -0.061797332f,   0.00074939156f,
    0.38889384f,     0.22555156f,     -0.7681599f,     -0.3351933f,
    0.7116345f,      0.18604796f,     -0.48707828f,    -0.40747076f,
    0.45973074f,     0.034404512f,    0.3159706f,      -0.64441764f,
    0.039397478f,    -0.037567228f,   0.18592487f,     0.025203794f,
    0.007232951f,    -0.016474795f,   -0.23528966f,    -0.31764457f,
    -0.020466497f,   0.47883832f,     0.6365441f,      0.12546484f,
    -0.22502705f,    -0.3549253f,     -0.08176281f,    0.0124515705f,
    -0.00953531f,    0.059724174f,    -0.014743986f,   0.009126389f,
    -0.14307636f,    -0.04752634f,    0.06238546f,     0.1837628f,
    0.0117742475f,   -0.012291594f,   -0.10476726f,    0.014923395f,
    -0.17080472f,    -0.2904679f,     -0.033861637f,   0.22439986f,
    0.27767083f,     0.0054060193f,   0.95815724f,     0.04267086f,
    0.023743875f,    -0.9569066f,     -0.01480348f,    -0.03424991f,
    0.003357617f,    -0.034361992f,   0.5656708f,      0.52099305f,
    -0.51795703f,    0.45866433f,     -1.0979577f,     -0.16392584f,
    -0.47049716f,    -0.19331431f,    0.85886014f,     0.22842288f,
    -0.09747053f,    -0.12654406f,    -0.17935294f,    0.3252901f,
    -0.1388301f,     -0.07259677f,    -0.16754541f,    0.24740106f,
    -0.025907757f,   0.03977052f,     0.036382258f,    0.031290606f,
    -0.097717665f,   0.15998635f,     -0.31058276f,    0.12823118f,
    0.012907255f,    -0.0359988f,     -0.10066266f,    0.05248583f,
    -0.83724505f,    0.9317588f,      -0.046605106f,   -0.056977242f,
    0.052100826f,    0.030888524f,    0.003427292f,    -0.0053429003f,
    0.034681037f,    0.017732635f,    -0.042007666f,   0.536663f,
    -0.015702872f,   0.06224576f,     -0.57012147f,    0.01128575f,
    -0.019255674f,   0.021272257f,    -0.039265182f,   0.07075169f,
    -0.3300057f,     0.013044183f,    -0.025037732f,   0.025307368f,
    -0.089226484f,   0.07671739f,     0.02517298f,     -0.2813661f,
    -0.013498878f,   -0.032741617f,   0.03634299f,     -0.023150671f,
    0.054187052f,    0.108509146f,    -0.07673078f,    0.06872567f,
    -0.10433211f,    0.3810328f,      -0.28013662f,    -0.32425776f,
    0.07577978f,     0.08165829f,     0.06735067f,     0.015203332f,
    0.003690799f,    0.24386913f,     -0.6945587f,     -0.08371296f,
    0.047135726f,    0.11415412f,     0.010171268f,    -0.01910743f,
    -0.020540472f,   0.057113316f,    -0.26087877f,    0.3624123f,
    -0.13162751f,    0.4979936f,      -0.54606533f,    0.073847614f,
    0.10528039f,     -0.10054413f,    -0.022772027f,   -0.6236104f,
    0.37288582f,     0.21334907f,     0.022256734f,    -0.013018504f,
    -0.014840707f,   -0.029592257f,   0.04999114f,     -0.050886024f,
    -0.025049165f,   -0.18026938f,    0.04215237f,     0.06902284f,
    0.5260375f,      -0.20185056f,    0.013433008f,    -0.00824884f,
    0.0027326052f,   -0.0446918f,     0.52918214f,     0.008359482f,
    0.014267751f,    -0.045538098f,   0.001537077f,    0.2094141f,
    -0.1682105f,     -0.09360937f,    -0.12965538f,    0.16078682f,
    0.004533062f,    -0.1696605f,     0.2726803f,      -0.075813845f,
    0.14015026f,     -0.112518996f,   -0.0076363496f,  0.12856956f,
    0.12370521f,     -0.1711239f,     -0.09644348f,    -0.12123707f,
    0.11349663f,     0.007282222f,    -0.0024759953f,  0.049901996f,
    -0.024062825f,   -0.03388763f,    -0.13369969f,    0.07414262f,
    -0.24763988f,    0.5334229f,      0.06603974f,     -0.3304178f,
    0.28256398f,     0.17189096f,     -0.21683607f,    -0.14394666f,
    -0.20666993f,    0.5890863f,      -0.269844f,      0.011649486f,
    -0.6396313f,     0.20833197f,     0.03280524f,     0.25482404f,
    -0.083061144f,   0.060960244f,    0.05058462f,     0.012569879f
};

static const long int rtvsrgan_conv1_kernel_dims[] = {
    64,
    3,
    3,
    1
};

static const float rtvsrgan_conv1_bias[] = {
    -0.006024302f,  0.0064352634f,  0.0024463022f,  -0.08857947f,
    -0.2644243f,    -0.010507962f,  -0.0037334473f, -0.40859538f,
    0.0047748834f,  -0.013638914f,  0.0083128195f,  -0.01833736f,
    -0.0003246118f, -0.022785898f,  -0.0052142087f, 0.020030223f,
    -0.015344125f,  -0.004787558f,  -0.009676697f,  -0.37097013f,
    0.0039063245f,  -0.0047106897f, -0.07497346f,   -0.0059129633f,
    -0.80258155f,   0.0015244067f,  -0.014277442f,  0.008274105f,
    -0.09574933f,   -0.005077175f,  -0.14277522f,   -0.02334516f,
    -0.1691735f,    0.090798125f,   -0.01948155f,   -0.026784388f,
    -0.12212353f,   -0.010342215f,  -0.09613406f,   -0.0044341036f,
    -0.027503656f,  0.01167433f,    -0.0059651257f, -0.06084182f,
    -0.02027398f,   -0.0044861534f, -0.013324965f,  0.003969045f,
    -0.016291607f,  -0.0039016022f, 0.005245648f,   0.08996328f,
    0.035933964f,   -0.030680023f,  0.002369688f,   -0.011507594f,
    -0.011531958f,  -0.16151729f,   -0.27103695f,   -0.01101014f,
    -0.031607352f,  -0.17719336f,   -0.021825813f,  0.00026340384f
};

static const long int rtvsrgan_conv1_bias_dims[] = {
    64
};

static const float rtvsrgan_conv2_kernel[] = {
    1.298196f,        -0.21786374f,     1.3904891f,       0.21473964f,
    -0.4099505f,      0.04093647f,      -0.09836568f,     -0.4901181f,
    0.31433773f,      0.19070144f,      -0.2832524f,      -0.22463551f,
    0.42933014f,      -0.36151937f,     0.8842962f,       0.4546006f,
    0.28448054f,      0.47940287f,      0.36893427f,      0.12084588f,
    -0.13210376f,     0.10051662f,      0.2679387f,       -0.56610453f,
    -0.301576f,       -0.8343163f,      -0.7769417f,      -0.44041437f,
    0.58849174f,      -0.18516766f,     -0.0024196827f,   0.056019392f,
    1.8528681f,       0.2207506f,       0.06888559f,      -0.32846892f,
    -0.67407095f,     -0.4639177f,      0.6685734f,       1.215203f,
    -0.15468994f,     -0.41290367f,     0.35027215f,      -0.28000352f,
    0.1611162f,       -0.29485324f,     -0.37929025f,     0.5828041f,
    0.66045976f,      -0.12224538f,     0.71169734f,      0.18142347f,
    -1.2233365f,      0.14953499f,      -0.75826466f,     1.2442403f,
    1.9931728f,       0.62729913f,      0.024408892f,     -0.29943258f,
    0.76923764f,      -0.38462996f,     -0.032395758f,    0.061083227f,
    0.060345665f,     0.299078f,        -0.32941696f,     -0.104391724f,
    -0.3961954f,      -0.029359942f,    -0.06389651f,     0.07866298f,
    0.37587225f,      0.42760858f,      0.34435487f,      0.12819424f,
    0.13809755f,      0.0032488124f,    0.8115653f,       0.6319128f,
    -0.3333337f,      0.5208253f,       0.27975923f,      0.32924756f,
    -0.05255267f,     -0.386935f,       0.071026325f,     -0.22789542f,
    -0.46673578f,     0.101271905f,     0.29801294f,      0.18460253f,
    -0.43061f,        -0.09848103f,     0.26517522f,      0.19612366f,
    0.1844638f,       -0.37422624f,     -0.017321406f,    -0.22303322f,
    -0.67681944f,     -0.57950836f,     0.034352485f,     0.038372297f,
    -0.101377666f,    0.21953829f,      0.10030541f,      -0.53773224f,
    -0.2546281f,      0.22690849f,      -0.34583998f,     0.47540656f,
    -0.05978138f,     -0.8610143f,      -0.1642591f,      -0.77472496f,
    0.47059068f,      0.78156245f,      -0.06484853f,     0.79654324f,
    0.23349169f,      -1.097023f,       -0.091431476f,    0.26249325f,
    0.17954415f,      -0.68909866f,     -0.18771091f,     -0.22529256f,
    -0.77366036f,     -0.23922426f,     0.36899978f,      0.06221858f,
    0.17730056f,      0.0077862716f,    0.6435536f,       0.24692352f,
    0.716616f,        0.39248595f,      -0.14242579f,     0.14766912f,
    -0.067402095f,    0.14122777f,      -0.24529104f,     -0.6721125f,
    -0.22375865f,     -0.4533311f,      0.115661055f,     -0.23337893f,
    0.20242713f,      0.5787884f,       -0.4899498f,      0.6953649f,
    -0.3681447f,      -0.28269434f,     -1.2240736f,      -0.8248144f,
    0.7139445f,       -0.24173541f,     -0.01835536f,     0.18528995f,
    -0.101330504f,    -0.464284f,       -0.48921925f,     0.030176492f,
    -0.94660944f,     0.36902764f,      -0.2837167f,      0.052726407f,
    0.3052768f,       -0.3363971f,      0.07895785f,      0.35998923f,
    -0.30404285f,     -0.02798784f,     -0.26412082f,     0.19724527f,
    0.070822485f,     -0.19398133f,     -0.09245089f,     0.38706258f,
    0.25570744f,      -0.27269867f,     -0.33952892f,     0.94531405f,
    -0.045031957f,    -0.18485825f,     -0.048568547f,    0.45909452f,
    -0.48848867f,     0.5010322f,       0.8414164f,       0.25443402f,
    -0.10929674f,     1.1780823f,       -1.2299501f,      -0.19810393f,
    1.2533022f,       -1.359098f,       0.46864843f,      -0.5839365f,
    -2.7029214f,      -0.21846043f,     -0.09982728f,     0.17661087f,
    0.11503071f,      1.0294784f,       -0.81163144f,     -0.8217728f,
    0.22804768f,      0.24681312f,      0.30294153f,      0.2920987f,
    -0.035869543f,    0.6556343f,       0.084371015f,     0.19832037f,
    0.18914561f,      0.59768873f,      1.227296f,        -0.30335137f,
    0.15745786f,      0.26568308f,      -0.0043411274f,   -0.17031352f,
    -0.3711968f,      -0.26030558f,     0.7939176f,       -0.07942808f,
    0.17352645f,      0.22447293f,      0.09428941f,      0.09396518f,
    0.4741672f,       -0.8097633f,      -0.21180391f,     0.017836524f,
    -0.0076587624f,   0.24112214f,      -0.8933914f,      0.17888945f,
    -0.29927692f,     -1.1828678f,      -0.26251847f,     -0.023380633f,
    1.6952691f,       -0.43917567f,     0.1306415f,       -0.49924022f,
    -1.4784083f,      0.98631465f,      -0.08289343f,     0.011640463f,
    0.89225835f,      -0.83578306f,     -0.8152981f,      -0.09881584f,
    -0.21138461f,     0.17539793f,      -0.3186164f,      -0.13487777f,
    0.5983075f,       -0.100536376f,    -0.12310079f,     -0.14090808f,
    0.6045266f,       -0.26548058f,     -0.6026029f,      -0.1808531f,
    -0.4348802f,      0.15301745f,      -0.1900077f,      -0.27764383f,
    -0.19101591f,     -0.7413749f,      -0.090861656f,    -0.19036259f,
    -0.897559f,       0.46184117f,      0.029131971f,     0.6283562f,
    -0.31289163f,     0.4881405f,       0.3910135f,       -0.48375568f,
    -0.96869755f,     -0.39130425f,     0.11748806f,      -0.009213349f,
    -1.0126791f,      -0.20315263f,     0.20241536f,      -0.12870306f,
    -0.12938897f,     0.4547001f,       -0.36124605f,     -0.47656018f,
    0.27720597f,      0.66033274f,      -0.21042383f,     0.5056642f,
    0.33011833f,      0.014178358f,     -0.90690655f,     -0.33720466f,
    -0.028717149f,    -0.31171012f,     0.13000463f,      0.10235036f,
    -0.2904873f,      -0.68968445f,     -0.48677465f,     -1.3057891f,
    -1.4624224f,      -0.24326773f,     0.2697157f,       -0.07100693f,
    -0.22683555f,     -1.0646504f,      0.08871942f,      0.34334624f,
    0.25035867f,      -0.16389209f,     -1.3210855f,      0.041860525f,
    -0.39307216f,     -0.2494516f,      -0.68708944f,     -0.4350579f,
    -1.4908106f,      -0.07425604f,     0.5810193f,       -0.37292987f,
    -0.2238601f,      -0.867559f,       0.46614876f,      0.43689972f,
    0.07885565f,      1.9470565f,       -0.3027351f,      -0.5479737f,
    0.8574336f,       0.81753844f,      -0.09130551f,     -0.34658056f,
    -0.23820585f,     0.22168867f,      0.49773338f,      0.49744523f,
    0.26600224f,      -0.4148095f,      0.09759701f,      -0.114182085f,
    -0.6846704f,      0.12462935f,      1.1397914f,       0.5359845f,
    1.172037f,        0.017800353f,     -0.14538972f,     -1.4030282f,
    -0.13635175f,     0.04223095f,      0.51957655f,      0.32831538f,
    -0.11011826f,     -0.246011f,       -0.33807987f,     -1.2190706f,
    -0.95257f,        0.1160043f,       0.8242554f,       -0.13968349f,
    -0.012069553f,    -0.5285435f,      -0.42150682f,     -0.21764119f,
    -2.1357453f,      -0.015073408f,    -0.09869449f,     -0.4625605f,
    -0.26206458f,     -0.60465884f,     -0.57202345f,     -0.027657792f,
    0.7304421f,       0.29848954f,      0.84844226f,      0.027103087f,
    -0.31464162f,     0.7977188f,       0.053931084f,     -0.5375096f,
    0.37989026f,      -0.75181264f,     -0.88529f,        0.952088f,
    -0.086498216f,    -1.3082606f,      0.0371174f,       0.274896f,
    0.39454177f,      0.7588658f,       0.4604f,          -0.36040232f,
    -0.33764207f,     -0.9833709f,      0.77297777f,      0.055697262f,
    -0.46386316f,     -0.55573916f,     -1.3357816f,      0.716808f,
    -0.26745898f,     -0.1347457f,      -0.03450889f,     -0.6456051f,
    0.31267715f,      0.10517749f,      0.208787f,        0.043450277f,
    -0.021612322f,    -0.0008752231f,   0.29537547f,      -0.24181853f,
    0.08304242f,      -0.4507209f,      0.3468536f,       -0.17651813f,
    -0.13458839f,     0.03750841f,      -0.45009273f,     -0.14611754f,
    0.9986216f,       -0.7043506f,      -0.17048992f,     -0.32288215f,
    -0.55467093f,     0.112751745f,     -0.46354622f,     0.34873408f,
    2.1099503f,       -0.5374979f,      0.028687784f,     0.03757315f,
    -0.6873078f,      0.21573114f,      0.02991996f,      -0.19881408f,
    -0.4905632f,      -0.32992068f,     0.14871992f,      0.015154921f,
    0.049628075f,     1.182142f,        0.02814837f,      -0.0038705152f,
    0.29200962f,      0.4201581f,       -0.1573301f,      -0.61401826f,
    -1.2429396f,      -0.13637646f,     -0.07715273f,     0.2556821f,
    -0.70078576f,     -0.9717045f,      0.16166942f,      0.40898857f,
    -0.43265674f,     -0.62307155f,     -0.7646582f,      -0.6380045f,
    -0.3695717f,      0.4149429f,       0.29056028f,      0.29692513f,
    -0.554807f,       -0.15694189f,     0.3507033f,       0.6794597f,
    -0.8118393f,      0.07450907f,      -0.8487929f,      0.4104503f,
    -0.0012044419f,   0.69066876f,      -0.08109508f,     -0.8582996f,
    0.3845554f,       0.34946117f,      0.001546288f,     -0.38356656f,
    -0.4860823f,      0.040780537f,     -0.48608628f,     -0.16623048f,
    -0.08217896f,     -0.9596057f,      -0.6379611f,      -0.22500321f,
    -0.70556116f,     -0.063409604f,    0.28603762f,      -0.29150093f,
    0.9005933f,       -0.9293434f,      -0.078775115f,    -0.00026748158f,
    -0.7123623f,      0.3630744f,       -0.18967879f,     -0.17846695f,
    0.058688387f,     -0.48325992f,     0.3530064f,       -0.09863979f,
    0.11457596f,      1.8033396f,       0.4733744f,       1.0197421f,
    0.96695226f,      -0.16716467f,     -0.34524617f,     0.13015299f,
    0.07708473f,      0.15341662f,      0.30026725f,      -0.57626307f,
    0.4295121f,       -1.6975971f,      0.7283341f,       -1.0999573f,
    0.53175336f,      -0.6112245f,      -0.19675113f,     -1.1795723f,
    0.47452566f,      -0.4300363f,      -0.15391517f,     -0.06853001f,
    0.38649848f,      0.45684302f,      0.22001389f,      0.55165935f,
    -0.2730453f,      -0.18904914f,     -0.50986516f,     -0.33640122f,
    0.08684665f,      -0.064360894f,    0.39895132f,      -0.12798943f,
    0.9169857f,       -0.12214028f,     0.04588156f,      0.32130244f,
    -0.2291694f,      0.39659035f,      -0.57452136f,     0.14487687f,
    0.26050082f,      -0.1780522f,      -1.033521f,       0.8386354f,
    0.20674668f,      1.0929929f,       0.102583036f,     0.066694796f,
    1.5255868f,       0.22254805f,      0.40405083f,      0.13734671f,
    0.33826607f,      1.5420406f,       0.4672169f,       -0.6836065f,
    0.039677817f,     -0.06880799f,     -0.3736413f,      -0.46016634f,
    -0.046355065f,    0.024595588f,     -0.28973567f,     0.27952012f,
    0.07385228f,      -0.045423977f,    0.12565395f,      -0.1813069f,
    0.01833013f,      0.026617628f,     -0.019170197f,    0.2647268f,
    -0.008112429f,    0.014149368f,     -0.12630194f,     0.16186653f,
    -0.13209051f,     -0.07199404f,     -0.17389363f,     -0.08107485f,
    0.5834388f,       0.08595675f,      -0.06031139f,     -0.18887058f,
    -0.036445122f,    0.061334353f,     -0.33894166f,     0.12430479f,
    0.020890811f,     0.009699864f,     0.020550651f,     0.04616494f,
    0.2708008f,       -0.23240903f,     0.14387798f,      0.1651595f,
    0.07095143f,      -0.13302791f,     0.25877303f,      0.58930546f,
    0.05637194f,      -0.1587463f,      0.020912936f,     0.10254384f,
    -0.14919493f,     0.04802623f,      -0.3962828f,      -0.09304376f,
    0.11302117f,      -0.11724838f,     -0.13330898f,     -0.0537566f,
    -0.075783886f,    -0.47793558f,     -0.18189126f,     -0.11003902f,
    -0.15431188f,     0.9576346f,       0.20556644f,      -0.13382073f,
    0.016996836f,     0.22231254f,      0.016038977f,     -0.2975821f,
    0.06356555f,      -0.06852268f,     -0.3560676f,      0.06779557f,
    -0.17617589f,     -0.47987446f,     -0.06762625f,     0.06388206f,
    0.1461574f,       0.15790233f,      0.06511329f,      -0.28709248f,
    -0.13342668f,     -0.020426836f,    -0.14402069f,     -0.011845429f,
    -0.14233643f,     -0.06848883f,     0.028221425f,     0.23427047f,
    1.7500072f,       -0.04703687f,     -0.1884159f,      -0.02451887f,
    0.5605964f,       -0.10882231f,     -0.15392092f,     0.19308405f,
    0.10973074f,      -0.005421194f,    -0.37654382f,     0.094211735f,
    -0.033398706f,    -0.06470737f,     0.13588229f,      -0.20598672f,
    0.25083026f,      0.10636976f,      0.4380398f,       0.21456495f,
    -0.05503059f,     -0.07334018f,     -0.07575859f,     -0.022029914f,
    0.05852996f,      -0.4104418f,      0.024364548f,     -0.0025794315f,
    -0.048441947f,    0.17338331f,      0.0952487f,       -0.012725547f,
    -0.011764742f,    0.5560147f,       -0.20289887f,     -0.29830438f,
    -0.059549768f,    -0.11372879f,     0.12617803f,      -0.044212244f,
    -0.2041818f,      0.12659739f,      0.12937653f,      -0.33469552f,
    -0.008596272f,    -0.031281535f,    -0.019637354f,    0.012374087f,
    0.16957584f,      0.21097817f,      -0.17867742f,     0.050787468f,
    -0.030855961f,    0.045661088f,     -0.15209658f,     -0.3672626f,
    -0.05545735f,     0.032423045f,     0.040674217f,     -0.106051676f,
    -0.2883073f,      -0.10125545f,     -0.13825363f,     -0.041526344f,
    0.8830633f,       -0.26392186f,     0.03652787f,      0.029230896f,
    0.25025642f,      -0.100021586f,    -0.045378234f,    0.19416204f,
    -0.11766354f,     0.04291183f,      -0.03177062f,     -0.18236838f,
    0.25768408f,      -0.11833358f,     -0.06671508f,     -0.0016300121f,
    0.11346904f,      -0.12919207f,     0.19905382f,      -0.01698842f,
    0.07262295f,      0.028313883f,     0.22811025f,      -0.071038015f,
    0.12178901f,      -0.07006383f,     -0.28355268f,     0.1394201f,
    -0.0012095706f,   0.25044975f,      0.0919092f,       -0.16986163f,
    -0.21293488f,     0.5265989f,       -0.038852368f,    -0.026547492f,
    -0.05771521f,     0.25684813f,      0.15944284f,      -0.073316716f,
    0.12620105f,      0.3195291f,       0.058723897f,     -0.41194865f,
    -0.11075263f,     0.05041271f,      0.7995743f,       -0.4121185f,
    -0.003331368f,    0.40084556f,      0.08092752f,      -0.09067734f,
    0.12554674f,      -0.34013778f,     0.047530517f,     0.17748952f,
    0.24871598f,      -0.10307616f,     0.036024604f,     0.7331388f,
    0.3034412f,       0.51167345f,      -0.020651152f,    0.09742031f,
    0.55900764f,      -0.1293154f,      -0.11255906f,     0.5952363f,
    -0.057648554f,    -0.07612735f,     -0.1496313f,      -0.09055329f,
    0.055289466f,     0.29181337f,      0.24854006f,      0.06661821f,
    -0.04660857f,     -0.12599212f,     -0.20507132f,     -0.21963103f,
    0.12900998f,      0.4458512f,       0.15538013f,      -0.5387459f,
    -1.1498315f,      -0.26105216f,     0.07715145f,      -0.08036203f,
    -0.029260056f,    0.18614079f,      0.20693672f,      0.4100813f,
    -0.1523508f,      -0.15917188f,     -0.30257425f,     0.2598063f,
    0.027729355f,     -0.4138984f,      -0.016537191f,    0.08014648f,
    0.055288292f,     0.3212137f,       -0.28877813f,     0.17819396f,
    0.2745359f,       -0.3653553f,      0.26045892f,      -0.2256484f,
    0.20630068f,      0.32714418f,      0.21658832f,      0.03452223f,
    0.06589101f,      0.37158558f,      0.0023171734f,    -0.1502756f,
    -0.0758839f,      -0.2689386f,      0.54095495f,      -0.293306f,
    -0.1929803f,      -0.2583361f,      0.06787877f,      0.11354449f,
    0.12642501f,      -0.37086448f,     0.30835697f,      0.32369238f,
    2.037706f,        0.08821713f,      0.0009925502f,    0.29498154f,
    -0.12648037f,     0.063021876f,     -0.3295568f,      -0.07844186f,
    -0.33304274f,     0.20193766f,      0.08611959f,      -0.027292838f,
    -0.06336886f,     0.1743122f,       -0.42650858f,     0.3589432f,
    -0.30152947f,     0.20308454f,      -0.33720928f,     0.19186051f,
    -0.7509439f,      -0.07462098f,     0.0325071f,       0.17381614f,
    -0.1431175f,      -0.26972502f,     0.06748575f,      0.11917499f,
    0.24434897f,      -0.18817694f,     0.1337703f,       -0.11674781f,
    -0.26972222f,     0.3668717f,       0.0009365962f,    -0.19457845f,
    0.18255547f,      -0.35823655f,     -0.610727f,       0.2659994f,
    0.06804624f,      -0.02057611f,     0.07188084f,      -0.36542925f,
    -0.363944f,       0.09836384f,      0.32278156f,      0.23809864f,
    -0.11269681f,     0.11912891f,      -0.0933006f,      -0.23182881f,
    -0.07590423f,     0.12378746f,      0.36608306f,      -0.26787516f,
    0.17734708f,      -0.26278824f,     -0.14877526f,     -0.25940114f,
    0.28491867f,      -0.089390196f,    0.44344208f,      0.23914176f,
    0.79188305f,      0.18660332f,      -0.078534864f,    0.24666014f,
    0.082003295f,     0.07247387f,      -0.16112518f,     -0.01611408f,
    0.28217018f,      0.27601257f,      -0.29286212f,     -0.26865214f,
    0.2116085f,       -0.39407793f,     0.27669752f,      0.028238047f,
    0.02058491f,      0.17280684f,      -0.109040506f,    0.10221527f,
    -0.26759636f,     -0.018167939f,    -0.0016127736f,   0.09294729f,
    -0.10943281f,     -0.04556288f,     -0.07887787f,     0.036614057f,
    0.2078716f,       -0.0066156373f,   0.27764058f,      0.15851809f,
    -0.019731743f,    0.42259848f,      -0.06557402f,     -0.0076406244f,
    -0.108800866f,    -0.10128794f,     -0.059068143f,    0.32195193f,
    -0.31094024f,     0.21479753f,      -0.31489217f,     -0.22957912f,
    -0.21866424f,     0.094916426f,     -0.8685083f,      0.55467373f,
    -0.077712335f,    -0.42951608f,     -0.020214045f,    0.20854862f,
    0.37475732f,      0.34261367f,      -0.45410946f,     0.21733603f,
    -0.34553686f,     0.41001752f,      -0.04703358f,     0.30509412f,
    0.08463601f,      0.6178413f,       -0.03909925f,     -0.24338531f,
    0.21893181f,      0.17036095f,      0.15334705f,      -0.5107893f,
    -0.2869859f,      0.037824765f,     -0.076316066f,    -0.40147772f,
    0.1472415f,       0.2986807f,       0.65866655f,      0.30047044f,
    -0.07779922f,     0.09072609f,      0.0069920956f,    -0.23657061f,
    -0.08067829f,     -0.22948593f,     0.21695945f,      -0.43399402f,
    1.0603832f,       0.39710444f,      0.1427749f,       -0.13794987f,
    0.10133125f,      0.26240563f,      0.6273714f,       0.6231283f,
    -0.5053694f,      0.23263863f,      -0.2651603f,      0.17784688f,
    -0.16872369f,     -0.06719405f,     -0.22388546f,     0.3850338f,
    0.08109676f,      -0.37421918f,     -0.22960144f,     0.059072524f,
    0.013100068f,     -0.1301385f,      -0.02488308f,     -0.24651198f,
    0.82792145f,      0.0038003959f,    0.022936106f,     0.2727517f,
    0.34361967f,      -0.12649512f,     0.27964988f,      -0.31086168f,
    -0.2121175f,      -0.14228775f,     -0.44350117f,     0.08653259f,
    0.13497229f,      0.1252363f,       0.3818004f,       -0.1268366f,
    -0.3374062f,      -0.269108f,       0.051781435f,     -0.27861148f,
    0.31947178f,      0.25363037f,      0.6971267f,       -0.11522771f,
    -0.4388917f,      0.35929164f,      -0.29154405f,     -0.0054202667f,
    -0.52560973f,     0.02361693f,      -0.57564765f,     -0.052814946f,
    -0.25235006f,     0.62862f,         0.09931545f,      0.055623416f,
    -0.0796981f,      -0.3877785f,      -0.1646761f,      0.2348422f,
    0.60014474f,      0.2782945f,       -0.049164597f,    0.17127767f,
    0.033868838f,     -0.29153353f,     0.041854087f,     0.27241117f,
    0.39028928f,      -0.1934631f,      0.22214775f,      0.059790175f,
    -0.18331774f,     -0.38453338f,     0.076996885f,     0.14827684f,
    0.20402215f,      -0.14959207f,     0.28652796f,      -0.9126536f,
    0.12959379f,      -0.1197918f,      0.36830863f,      -0.25675803f,
    0.42077294f,      0.1269562f,       0.06784781f,      0.0056136884f,
    -0.21068496f,     0.2748231f,       0.15407272f,      0.2097846f,
    0.18079287f,      0.114806056f,     -0.47176322f,     0.45927343f,
    -0.1555988f,      -0.10118249f,     -0.0014814129f,   -0.1903059f,
    0.1380461f,       -0.1446866f,      -0.17942508f,     0.13876773f,
    -0.005960662f,    0.31298795f,      -0.361217f,       -0.12311998f,
    0.18276437f,      0.267482f,        -0.4406666f,      -0.046523046f,
    0.5763906f,       0.07044447f,      0.37481055f,      -0.11652391f,
    -0.083905414f,    -0.14902562f,     0.059532695f,     0.017503425f,
    -0.055121228f,    -0.42152882f,     0.09054869f,      0.012572458f,
    0.17262864f,      0.13760202f,      -0.12486495f,     -0.17335752f,
    0.10044464f,      0.021252727f,     0.01191637f,      -0.0182557f,
    0.3455666f,       0.18852518f,      0.31648603f,      -0.13972084f,
    0.37304506f,      -0.33979148f,     -0.07445522f,     0.31783187f,
    0.05527561f,      0.15782328f,      -0.3005008f,      0.0007006879f,
    -0.122526355f,    0.28798974f,      -0.68646663f,     -0.0081806285f,
    0.36415887f,      -0.13628267f,     0.3987918f,       -0.57951534f,
    -1.0777255f,      -0.14176089f,     0.29449782f,      0.49436957f,
    -0.31782657f,     -1.0205892f,      -0.304941f,       0.12197992f,
    0.22271378f,      -0.04110604f,     0.5634087f,       0.04902537f,
    0.46603626f,      0.6862038f,       0.39562625f,      0.6047126f,
    0.105665006f,     0.30081394f,      0.029379087f,     1.3191955f,
    0.13209361f,      0.11407644f,      0.20815305f,      0.032577936f,
    -0.6733902f,      0.047818907f,     1.1115999f,       0.15357333f,
    0.28702745f,      0.8502252f,       0.1123107f,       -0.48886555f,
    0.55730826f,      0.00934583f,      0.27862003f,      0.093320526f,
    -0.1300346f,      0.13396323f,      -0.77422774f,     0.33912113f,
    -0.5354691f,      -0.826261f,       0.33911723f,      -0.35542732f,
    -0.03621916f,     -0.09398804f,     0.60089076f,      -0.55669147f,
    -0.8102176f,      0.02159361f,      -0.4635072f,      -0.69546354f,
    0.33417448f,      0.5613699f,       -0.6539175f,      -0.22388022f,
    0.16853914f,      -0.6079594f,      0.45977345f,      -0.064703494f,
    -0.15713802f,     0.018250547f,     0.6658923f,       0.5157016f,
    -0.071654566f,    -0.13765149f,     0.16045341f,      0.44306636f,
    0.23252605f,      -0.3341636f,      -0.20644516f,     0.22428845f,
    -0.46737438f,     -1.1332284f,      -0.13361995f,     -0.20714754f,
    0.5528691f,       0.7983718f,       -0.57122594f,     0.13469927f,
    -0.8177067f,      0.07296895f,      0.54696965f,      0.13144015f,
    0.20728636f,      0.15944587f,      0.13465762f,      -0.14731531f,
    -0.3254851f,      0.25023443f,      -0.15000549f,     -0.12585835f,
    -0.74752617f,     0.30955258f,      0.16315433f,      -0.07578556f,
    0.491368f,        0.070755504f,     0.09236138f,      0.5576134f,
    -0.59812367f,     0.2797249f,       -0.60796106f,     0.12989607f,
    0.36773703f,      -0.6653512f,      0.33110982f,      0.16025044f,
    -0.5888421f,      -0.45537803f,     0.044892948f,     0.13333818f,
    -0.099836394f,    -0.32179075f,     0.22837298f,      -1.041005f,
    -0.2629955f,      -0.18795516f,     -0.6741967f,      -0.14126025f,
    -0.1749355f,      0.24780035f,      0.11266316f,      -0.04266553f,
    0.40866202f,      0.3155886f,       -0.089409314f,    0.20948993f,
    0.43629706f,      0.13044503f,      0.33164078f,      0.5659939f,
    -0.16840751f,     -0.2807174f,      0.6666667f,       0.2611676f,
    -0.52266175f,     -0.80809015f,     0.22416767f,      0.52308774f,
    0.59636855f,      0.25052226f,      -0.28453973f,     -0.114645235f,
    0.029853296f,     0.24478762f,      -0.06930892f,     -0.30813143f,
    0.17854162f,      -0.3818557f,      0.0032738417f,    0.03754975f,
    0.93528044f,      0.40751144f,      -0.13762552f,     -0.5739696f,
    -0.613814f,       0.24733073f,      -0.53426296f,     -0.34784296f,
    0.47937402f,      -0.11088196f,     -0.017699482f,    -0.4318572f,
    0.10886274f,      0.34553212f,      -0.8333565f,      0.15612322f,
    0.34118953f,      -0.36934534f,     0.25710556f,      0.20592017f,
    0.42654708f,      -0.4483521f,      -0.10974471f,     0.100808434f,
    0.28117505f,      -0.24884208f,     -0.055732712f,    0.03709562f,
    0.00045447884f,   -0.21530756f,     0.045255158f,     -0.6352628f,
    0.6012854f,       -0.1813369f,      -0.39451274f,     -0.07972563f,
    0.23674722f,      0.47826785f,      0.38191986f,      0.3311178f,
    0.11354053f,      0.23800051f,      0.26035166f,      -0.24377035f,
    -0.9201005f,      -0.48820502f,     -0.20158304f,     -0.00010658834f,
    0.5273046f,       -1.197599f,       0.37628388f,      -0.37416273f,
    -0.41784403f,     -0.22707553f,     -0.07866019f,     -0.17739524f,
    0.54731435f,      0.65481937f,      0.5113761f,       0.23532197f,
    -0.13005708f,     0.23091033f,      -0.39903006f,     0.3676335f,
    -0.39588702f,     -0.5295668f,      -1.0400238f,      0.32337055f,
    0.5949592f,       0.23785943f,      0.47266045f,      0.34127146f,
    0.38862768f,      -0.4864308f,      -0.2993989f,      -0.12283624f,
    -0.57274365f,     0.34875652f,      -1.1802024f,      -0.24254549f,
    -0.077269554f,    -0.5203737f,      0.22708802f,      -0.01147558f,
    -0.19676057f,     -0.1961497f,      0.7743228f,       0.11766048f,
    -0.14266233f,     -0.07872491f,     0.014947368f,     -0.37252435f,
    0.12722278f,      -0.34600702f,     -0.7378943f,      -0.6150666f,
    -0.28411978f,     -0.39621013f,     0.17923704f,      -0.13249576f,
    -0.38431984f,     0.18470117f,      0.59777164f,      -0.04690472f,
    -0.06569204f,     -0.060043637f,    -0.124474764f,    -1.120385f,
    -0.51806056f,     -0.9401579f,      0.3494984f,       -0.72391105f,
    0.43382177f,      -0.18261103f,     -0.70083064f,     0.44336337f,
    -0.14710122f,     0.16655445f,      0.3518135f,       0.18500748f,
    -0.11171997f,     0.5554114f,       0.32869306f,      -0.51509243f,
    -0.20310913f,     -0.33667213f,     0.22149931f,      0.22277412f,
    0.08379238f,      -0.051561937f,    0.19140804f,      0.2642589f,
    0.38920686f,      -0.04855073f,     0.32050994f,      -0.5003175f,
    0.84466606f,      -0.1666631f,      0.1872146f,       0.17692445f,
    -0.43804824f,     0.12854078f,      -1.0390157f,      -0.63056433f,
    0.4078218f,       -1.3757308f,      -0.3070705f,      -0.2914678f,
    -0.3449147f,      0.24049084f,      -0.24107713f,     -0.61184657f,
    -0.15669599f,     0.04617075f,      -0.4590429f,      -0.31004152f,
    0.40201238f,      0.0111076385f,    -0.46252817f,     -0.28690365f,
    0.39021066f,      0.47291875f,      0.26385733f,      -0.046790753f,
    0.45472082f,      0.32643238f,      -0.25787532f,     -0.08143357f,
    -0.12240901f,     -0.16807899f,     -0.1472019f,      0.8101818f,
    -0.30532512f,     0.55456275f,      -0.82405293f,     -0.31252295f,
    0.38815933f,      0.5602414f,       0.25607517f,      0.21084386f,
    0.29483742f,      -0.02161693f,     -1.0592836f,      -0.053709026f,
    -0.24487084f,     0.2842745f,       -0.010063724f,    -0.35025126f,
    0.042610954f,     0.005248681f,     -0.2193327f,      -0.51321304f,
    -0.11615379f,     0.02175974f,      0.64877206f,      -0.60261834f,
    -0.10616045f,     0.03031066f,      0.15711114f,      -0.43117526f,
    0.92491066f,      0.22781117f,      0.056950912f,     -0.46729076f,
    0.19614102f,      -0.22275634f,     -1.3301865f,      -0.7292588f,
    0.07581641f,      -0.8841751f,      0.13617569f,      -0.030086607f,
    0.39948764f,      0.5014462f,       -0.58262455f,     0.6941956f,
    -0.4375645f,      0.043802693f,     0.61624f,         0.31253392f,
    -0.26221734f,     -0.51995134f,     0.11779786f,      -0.3036519f,
    0.3975058f,       0.5783683f,       0.38269493f,      -0.080953024f,
    0.18642335f,      -0.009946543f,    -0.35715875f,     -0.36869448f,
    0.31803858f,      -0.41295058f,     -0.16287999f,     -0.49575633f,
    -0.40585804f,     -0.4488758f,      -0.030840378f,    -0.124054804f,
    0.32224637f,      0.3170414f,       0.44070294f,      1.2463167f,
    -0.5942893f,      -0.11389074f,     0.3928707f,       0.19749191f,
    0.5617319f,       0.3410301f,       0.38361508f,      -0.24147199f,
    -0.18507288f,     0.46235245f,      0.20790255f,      -0.31013548f,
    0.18186875f,      0.14727134f,      -0.14452384f,     0.9469583f,
    -0.18372658f,     -0.12964554f,     -0.055014566f,    -0.030771013f,
    0.7380199f,       -0.082461044f,    -0.44861186f,     -0.43964383f,
    -0.49064493f,     0.5772387f,       -0.8797617f,      0.122897536f,
    -0.31290767f,     -0.42500675f,     0.43619397f,      0.3851118f,
    0.73293334f,      0.045419026f,     -0.24447973f,     -0.71595037f,
    0.58563095f,      0.3288289f,       0.25831857f,      0.032444146f,
    0.17634414f,      -0.006357996f,    -0.48974794f,     0.38595152f,
    0.43661335f,      0.027741324f,     0.12644462f,      -0.12091025f,
    -0.41659364f,     -0.03913712f,     -0.074486226f,    0.2455589f,
    0.41764128f,      -0.03725627f,     0.26875168f,      -0.21512584f,
    -0.91635126f,     -0.19226278f,     -0.4772592f,      0.6467993f,
    -0.4462546f,      1.0192517f,       -0.24960534f,     -0.245456f,
    -0.10902482f,     -0.016093625f,    0.3060509f,       0.64167494f,
    -0.29332668f,     0.5045074f,       0.5223704f,       -0.7826307f,
    0.25625187f,      0.17523605f,      0.32137832f,      -0.067858025f,
    -0.4210076f,      -0.12633514f,     2.3260293f,       0.5231739f,
    0.059253316f,     -0.038845904f,    -0.6320517f,      -0.4899499f,
    0.550098f,        -0.14630264f,     0.5609296f,       0.108106285f,
    0.26742035f,      0.34830573f,      -0.96744275f,     0.30696782f,
    -0.5924854f,      -0.10037684f,     -0.31253633f,     0.018628212f,
    0.50052994f,      -0.2087722f,      0.3592509f,       -0.8101181f,
    0.1789577f,       -0.34092763f,     0.20133105f,      0.47501504f,
    -0.4599181f,      0.41119114f,      -0.31522f,        0.16936068f,
    0.29328826f,      0.7492924f,       0.025605995f,     -0.015115917f,
    0.27720755f,      0.03698631f,      0.46701252f,      -0.20979808f,
    -0.5517395f,      0.31500414f,      -0.4378338f,      -0.09521187f,
    -1.1733563f,      -0.12790929f,     -0.2949932f,      0.3921233f,
    0.24267639f,      0.22747575f,      0.29244605f,      -0.66981316f,
    0.49201885f,      0.32052702f,      -0.48052585f,     0.28949192f,
    -0.011922213f,    -0.21919255f,     0.34523275f,      -0.51767004f,
    0.116255574f,     -0.06652686f,     -0.5867095f,      -0.79586387f,
    -0.008949129f,    -0.100229315f,    -1.9190625f,      -0.11805533f,
    -0.029846348f,    -0.09390877f,     0.1892173f,       -1.0439931f,
    1.0746295f,       0.83069265f,      -0.33609402f,     0.4070561f,
    -0.27062055f,     0.048869867f,     -1.5141711f,      0.2821071f,
    -0.12654519f,     -0.8965518f,      -0.3259415f,      -0.03196816f,
    -0.6701519f,      -0.5678583f,      -0.4061303f,      0.13811341f,
    0.31512672f,      -0.18663001f,     -0.5138488f,      -0.5793717f,
    0.21190569f,      -0.34343904f,     -0.34112084f,     0.10471645f,
    -0.27804986f,     -0.28745872f,     0.11546892f,      0.2479301f,
    0.14863183f,      0.24099301f,      0.27880713f,      0.68182033f,
    0.547859f,        0.030125301f,     0.61631954f,      0.25850755f,
    0.077971496f,     -0.6912321f,      0.1025859f,       0.5878556f,
    0.28222612f,      -0.64560795f,     0.022677919f,     0.09456192f,
    0.7986536f,       -0.41920045f,     -0.34965304f,     -0.28338435f,
    0.82988954f,      -0.6440307f,      -0.6940602f,      0.254994f,
    0.5185434f,       -0.49246153f,     -0.010618119f,    0.22229272f,
    -0.5197463f,      -0.3591672f,      0.22513175f,      0.28997564f,
    0.43642735f,      -0.27988517f,     0.09125832f,      -0.2620854f,
    -0.013118906f,    -0.7438048f,      0.28888464f,      -0.17810766f,
    0.074101344f,     -0.642819f,       -0.06929382f,     0.6464551f,
    -0.09243165f,     0.20587894f,      -0.3435617f,      0.36914474f,
    -0.3596116f,      0.036840428f,     0.7054551f,       0.0032543417f,
    0.18446349f,      -0.45948535f,     0.22453786f,      -0.81318694f,
    -0.09238693f,     -0.12911363f,     0.38148358f,      -0.31341314f,
    -0.29650152f,     0.14989603f,      0.03461251f,      0.364428f,
    -0.4852339f,      -0.7690579f,      0.046895448f,     0.044981144f,
    -0.6947622f,      0.07446004f,      -0.52058f,        0.19610766f,
    0.31670746f,      -0.19908035f,     0.57594883f,      -0.8123507f,
    -0.31530643f,     0.36412328f,      -0.060132876f,    0.029388666f,
    -0.445383f,       0.20661204f,      0.08794311f,      0.14094839f,
    1.0649434f,       -0.52918565f,     0.17309842f,      -0.8194489f,
    0.12359203f,      -0.34129483f,     0.08304564f,      0.12236197f,
    -0.50295144f,     -0.24037236f,     0.51669407f,      0.041607823f,
    -0.27251878f,     0.44486636f,      0.45940444f,      0.15488301f,
    0.22865969f,      -0.32059392f,     0.031100644f,     0.39781573f,
    -0.06617723f,     0.13331492f,      0.2267292f,       -0.24226937f,
    0.49791923f,      -0.465113f,       -0.27372468f,     0.17210148f,
    -0.07438377f,     -0.19823885f,     1.0671616f,       0.041821115f,
    0.18992478f,      0.23657697f,      -0.120845474f,    0.2935602f,
    -0.39245993f,     -0.2749019f,      -0.1961858f,      -0.35666138f,
    0.028000804f,     0.3341098f,       -0.29787463f,     0.2124738f,
    0.38948083f,      -0.18999135f,     -0.49315f,        0.29565567f,
    -0.44316456f,     -0.12647301f,     -0.33524215f,     0.21194573f,
    -0.06285468f,     -0.5396165f,      -0.3125006f,      0.2568088f,
    -0.35015655f,     -0.28085724f,     0.45817822f,      0.6682025f,
    -0.92869365f,     0.0034158772f,    0.36932957f,      -0.7102163f,
    -0.104688026f,    -0.31500325f,     0.56938f,         -0.53664696f,
    0.42182958f,      -0.024776116f,    -0.23663993f,     0.09167617f,
    -0.12167845f,     -0.43384135f,     0.26032668f,      -0.20902453f,
    0.06774845f,      0.13703078f,      -0.10115927f,     0.16422099f,
    0.15696111f,      -0.2394836f,      -0.09859806f,     0.071394436f,
    0.57777464f,      -0.27003986f,     -0.02003306f,     0.23765506f,
    0.17083077f,      -0.39764518f,     -0.35732445f,     0.4748496f,
    1.428171f,        -0.12030954f,     -0.16403651f,     0.2734317f,
    -0.1774552f,      -0.21025127f,     0.1057168f,       0.54680026f,
    -0.042695027f,    0.09174911f,      -0.22209498f,     0.3538846f,
    0.79418665f,      0.26276195f,      0.3136717f,       -0.22056147f,
    -0.397711f,       -0.12148851f,     1.4625536f,       -0.9801946f,
    -0.09192093f,     0.56131613f,      -0.14324462f,     -0.1576338f,
    0.24639869f,      -0.016270729f,    0.36445397f,      0.72995126f,
    0.08513999f,      -0.29780746f,     -0.6526952f,      0.5706499f,
    -0.1029053f,      0.26702195f,      0.9337962f,       0.08698316f,
    -0.5688343f,      -0.067863315f,    0.26595673f,      -0.06463457f,
    -0.49765876f,     0.047563955f,     0.19913423f,      0.07274326f,
    0.91052014f,      -0.042926297f,    0.087427124f,     2.0359762f,
    -0.85373706f,     0.6733702f,       0.14132932f,      0.1175331f,
    -0.34136766f,     0.9934478f,       0.20764555f,      -0.05062609f,
    0.18838844f,      -0.26051477f,     -0.11041532f,     0.50601435f,
    -0.19991979f,     0.021478863f,     0.49398908f,      0.108466856f,
    -0.6323674f,      -0.4305432f,      -1.0809281f,      -0.056926828f,
    0.48060936f,      0.67121804f,      0.25942495f,      -0.13493688f,
    0.43621016f,      -0.14162868f,     0.00071683625f,   -0.0852767f,
    0.65406674f,      -0.16908647f,     0.22579841f,      -0.13025619f,
    -0.1173471f,      -0.24726185f,     -0.5423577f,      -0.3930995f,
    0.16945648f,      0.33884344f,      -0.47625047f,     -0.2594119f,
    0.563427f,        0.4609506f,       -0.28045875f,     -0.33171684f,
    -0.3309694f,      -0.14730383f,     -0.9013205f,      0.030687492f,
    0.26643255f,      -0.07634471f,     -0.14883862f,     0.28075615f,
    -1.1553063f,      -0.7191366f,      0.059166584f,     0.1306597f,
    1.1280504f,       0.05412091f,      0.02941724f,      -0.42323798f,
    0.16429426f,      0.50821584f,      -0.41418514f,     0.9425485f,
    0.349935f,        0.5836373f,       -0.20940834f,     -0.13163516f,
    -0.7693034f,      -0.12897569f,     0.37646765f,      -0.1702296f,
    0.4370669f,       0.4620316f,       -0.06875126f,     -0.07388531f,
    -0.2645545f,      -0.17678031f,     1.0526834f,       0.7090423f,
    -0.4528776f,      0.8653227f,       -1.0369842f,      0.07486033f,
    0.8050876f,       -0.34660244f,     0.22338724f,      -0.43830323f,
    0.3982545f,       0.47424072f,      -0.41862112f,     0.7935926f,
    -0.081492834f,    0.08727623f,      -0.4264778f,      -0.15661916f,
    -0.729807f,       -0.30628514f,     -0.9531462f,      -0.6240017f,
    0.589639f,        -0.2452162f,      0.03851848f,      -0.23083828f,
    0.83871716f,      -0.03500198f,     -0.68622106f,     0.0883805f,
    0.34120676f,      0.62542117f,      0.068017565f,     -0.23128358f,
    -0.26890734f,     0.17804559f,      0.17959554f,      -0.1142145f,
    -0.7494221f,      -0.1697407f,      0.06663896f,      1.6121247f,
    0.4316567f,       -0.22973736f,     -0.0319149f,      0.14639711f,
    0.5486982f,       0.0041937134f,    -0.00073388295f,  0.3351757f,
    -0.43230662f,     0.21532974f,      -0.9871091f,      -0.013251003f,
    0.0086602615f,    0.20886038f,      -0.1136794f,      -0.25238568f,
    0.09937912f,      -0.71718043f,     0.06840053f,      -0.10225022f,
    -0.19884743f,     0.33873987f,      0.4061505f,       -0.29246202f,
    -0.9922167f,      -0.38908628f,     -0.37545455f,     -1.1084396f,
    -0.5419025f,      -0.5990769f,      -0.5889189f,      -0.08881336f,
    0.3646242f,       0.908408f,        0.8156291f,       -0.33379582f,
    -0.49491632f,     1.932376f,        -0.05029542f,     -0.32179987f,
    -0.10454245f,     -0.22539674f,     1.2601209f,       0.7608816f,
    -0.3379436f,      -0.0138144f,      -0.13845372f,     -0.03947413f,
    0.1288969f,       -0.37977383f,     -0.008848311f,    0.12598838f,
    -0.10954838f,     0.32645696f,      -0.19124827f,     -0.95848686f,
    0.097357355f,     0.06948848f,      0.5387878f,       0.08472871f,
    0.19531131f,      -0.00657968f,     -0.48446968f,     0.41914368f,
    -0.705013f,       0.2559741f,       0.14172055f,      -0.9664558f,
    -0.48601604f,     0.13116777f,      0.29350126f,      -1.1044025f,
    0.15326327f,      0.0046758614f,    -0.029027024f,    -0.20170291f,
    0.018295566f,     -0.8254988f,      0.19588962f,      1.0962199f,
    -2.3939583f,      -0.2866496f,      -0.26114306f,     -0.3598579f,
    0.48517507f,      0.07285942f,      -0.1637074f,      -0.24116474f,
    0.14560491f,      0.4181063f,       0.16237204f,      -0.2891234f,
    -1.1901112f,      0.31104344f,      -0.46886697f,     0.47801608f,
    0.14551413f,      -0.10372256f,     0.051390063f,     0.15786257f,
    -0.05688744f,     -0.4174657f,      -0.6182216f,      -0.15189028f,
    0.3061071f,       0.11294122f,      0.53649795f,      0.4137791f,
    -0.16469634f,     -0.5169966f,      -0.0113208555f,   -0.15649255f,
    -0.017929545f,    0.29121014f,      -0.67040753f,     -0.21815072f,
    0.31505477f,      -0.027134892f,    -0.14799736f,     -0.81020516f,
    0.36144835f,      -0.06850974f,     -0.42714337f,     0.23259944f,
    -0.28884998f,     -0.13891771f,     -0.6359655f,      -0.32142732f,
    -0.41242704f,     0.3655304f,       0.121670194f,     -0.56497717f,
    -0.21669988f,     -0.7592088f,      0.023149757f,     -0.89698535f,
    -0.41227692f,     -0.44354564f,     0.23109674f,      -0.6776159f,
    -0.2672681f,      0.5989771f,       0.13403462f,      0.088005215f,
    -0.5590629f,      0.944837f,        -0.12018628f,     -0.42629007f,
    -0.12647396f,     -1.0505068f,      -0.36345935f,     0.2813617f,
    0.53755033f,      -0.29367444f,     -0.46248588f,     -0.31723943f,
    -0.15759042f,     0.6826374f,       0.1823498f,       0.583191f,
    -0.3580386f,      0.22896291f,      -0.5074427f,      -1.2816663f,
    0.040447693f,     -0.5925807f,      0.9195432f,       -0.2983755f,
    0.5125768f,       0.007841363f,     0.032308877f,     -0.20203009f,
    -0.1170332f,      0.03767409f,      0.38662907f,      0.013472558f,
    -0.12579072f,     -0.29786193f,     -0.8530943f,      -0.48955145f,
    0.3371467f,       0.68925124f,      0.21491668f,      -0.5405486f,
    -0.15727563f,     -0.5361489f,      -1.1574235f,      0.05788171f,
    -0.7670193f,      0.23626906f,      0.83465713f,      -0.66765475f,
    -0.2853263f,      -0.26927966f,     0.117804f,        0.46306273f,
    -0.83383614f,     -0.7570579f,      0.035393517f,     -0.0074212933f,
    0.44010848f,      0.17772812f,      0.3502705f,       -0.16274367f,
    -0.05292938f,     0.9211388f,       0.70469904f,      -0.8350874f,
    0.17372479f,      0.09308766f,      -0.14225739f,     -0.30858037f,
    0.10037933f,      0.38269037f,      -0.54478836f,     -0.8468284f,
    -0.5557007f,      0.05796278f,      -0.45639762f,     0.27006775f,
    0.80738807f,      -0.111772284f,    0.015645502f,     -0.63397557f,
    -1.0016631f,      0.052590244f,     0.3060353f,       -0.7864462f,
    0.4314462f,       -0.19424881f,     0.92539364f,      0.15751167f,
    -0.5833353f,      0.9929416f,       0.3329363f,       0.025292352f,
    -0.08814583f,     -0.41788784f,     -1.7538487f,      0.007881328f,
    0.25846735f,      0.37504593f,      -0.033660397f,    -0.17548327f,
    0.2500791f,       -0.95563895f,     0.24200793f,      -0.16640835f,
    -0.57426244f,     0.28671867f,      0.21345814f,      0.4129992f,
    1.3561053f,       0.6353055f,       -1.0213327f,      0.3758315f,
    -0.6491285f,      0.43735018f,      -0.012516949f,    0.0018874394f,
    0.8461112f,       0.15534028f,      0.19163765f,      0.41548595f,
    -0.00468748f,     -0.581071f,       0.48290572f,      -0.21656865f,
    0.059680495f,     -0.3784701f,      -0.26197538f,     -1.2733332f,
    0.3330691f,       -0.19586587f,     -0.10336005f,     -1.1476334f,
    0.3838584f,       0.17518054f,      0.34158167f,      0.06151866f,
    -0.28296396f,     0.39324528f,      0.07726575f,      0.47543702f,
    -0.098911844f,    0.38938716f,      0.050013125f,     0.25026867f,
    0.37046307f,      -0.15105452f,     -0.3588819f,      0.028473744f,
    -0.46675923f,     -0.50161994f,     -0.5952619f,      -0.22566657f,
    -0.46142226f,     1.3760836f,       0.6525977f,       0.40486196f,
    0.101138376f,     -0.59853077f,     -0.8856984f,      -0.43606856f,
    0.22224283f,      0.52382386f,      -0.022822872f,    -0.5154771f,
    -0.722089f,       0.9589943f,       -0.15756796f,     -0.22060083f,
    -0.2245383f,      0.033683345f,     -0.43853217f,     0.12198817f,
    0.0007257132f,    -0.18256363f,     -0.16319317f,     -1.2774739f,
    0.47025332f,      0.46118897f,      0.18240207f,      0.7798824f,
    -1.2182809f,      0.006262424f,     0.27550417f,      -0.52316636f,
    0.18144064f,      -0.05418524f,     -0.8799734f,      0.3250904f,
    -0.34641638f,     -0.7906607f,      -0.5761464f,      0.6626236f,
    0.12343667f,      -0.15135425f,     -0.22768255f,     0.03934478f,
    -0.36876678f,     0.11121005f,      -0.83689994f,     0.13382037f,
    0.33807677f,      0.47406766f,      -0.3825014f,      -0.24092329f,
    0.022324145f,     -0.5228672f,      0.09571799f,      -0.23146705f,
    -0.21599174f,     -0.031149385f,    0.89527136f,      0.4244652f,
    0.020185072f,     0.04060389f,      -0.008557329f,    -0.012907255f,
    0.10346577f,      0.80629313f,      -0.33248553f,     -0.32171664f,
    -0.19354253f,     -0.05424818f,     -0.17321521f,     -0.987307f,
    0.6201825f,       -0.104479164f,    -0.123265244f,    -0.61539817f,
    0.07965963f,      -0.2553672f,      -0.76161283f,     0.7216183f,
    0.05605653f,      0.13600534f,      0.7739427f,       -0.23892301f,
    -0.17239426f,     -0.38331363f,     -0.7375826f,      -0.31437856f,
    0.21584846f,      -0.11282576f,     0.26177493f,      0.12526567f,
    1.2262406f,       0.1093121f,       0.04217258f,      0.091795474f,
    -1.367551f,       -0.12174823f,     -0.03522125f,     -0.047499888f,
    -0.08038554f,     0.41792554f,      -1.0345787f,      -0.1598337f,
    0.3609378f,       0.04965777f,      -0.2099294f,      -0.47563082f,
    0.3938997f,       0.09345196f,      0.37330654f,      -0.026728233f,
    -0.65735084f,     1.0895054f,       0.34653604f,      0.028928991f,
    -0.89428806f,     -0.93734866f,     -0.4599669f,      0.18705258f,
    -0.75440484f,     -0.43486127f,     0.3778689f,       -0.32111356f,
    -0.18813787f,     -0.20122854f,     -1.290206f,       -0.08905892f,
    0.0595082f,       0.37043026f,      0.25457633f,      0.98231417f,
    -0.50081867f,     -1.0234166f,      0.87338257f,      0.4731427f,
    0.23464929f,      -0.4854054f,      -0.6040182f,      0.53931373f,
    -0.08435803f,     1.1889656f,       0.029481968f,     -0.41347834f,
    0.61447424f,      -0.2936576f,      0.3183274f,       0.17832549f,
    -0.07151549f,     0.47443473f,      -0.8043041f,      0.0077236393f,
    0.80710334f,      -0.20525567f,     -0.39840242f,     -1.1992971f,
    -0.14029683f,     -0.17119054f,     0.7458472f,       -0.49676695f,
    -0.41426757f,     0.10807505f,      0.54062253f,      0.40016833f,
    -0.02105477f,     0.024703905f,     -0.63647926f,     0.499255f,
    0.097854234f,     -0.23454304f,     0.28619927f,      -0.3400323f,
    -0.24293691f,     -0.32567212f,     -0.20899002f,     0.5341928f,
    0.6626701f,       -0.629004f,       0.38479906f,      -0.02041255f,
    0.100001924f,     -0.6108237f,      -0.08563412f,     0.06963601f,
    -0.6602375f,      -0.47431684f,     -0.2970714f,      -0.68876874f,
    0.13416767f,      0.2431327f,       0.21264261f,      0.022174932f,
    0.06176501f,      0.1172735f,       0.18384193f,      -1.166288f,
    -0.04171783f,     0.9200326f,       0.36105093f,      0.23091297f,
    -0.3107307f,      0.96563804f,      0.89524955f,      -0.091523916f,
    -0.015030046f,    -0.59151655f,     -0.07930876f,     0.3968269f,
    0.02652257f,      -0.17693576f,     -0.3730812f,      0.048580043f,
    -0.21118923f,     0.13026525f,      -0.041887626f,    -0.43388927f,
    -0.21278201f,     -0.30232403f,     0.11227818f,      0.80981445f,
    0.15438516f,      -0.5448844f,      -0.35169315f,     0.6067512f,
    -0.15384696f,     -0.23597057f,     0.03508389f,      -0.49104828f,
    0.0051703914f,    0.9158485f,       -0.26396465f,     -0.26553455f,
    -0.041025538f,    0.46972385f,      0.17632362f,      -0.36839235f,
    0.5186968f,       -0.3208463f,      -0.019030415f,    -0.87249196f,
    -0.4528444f,      1.491411f,        -0.39283454f,     -0.3478474f,
    0.923327f,        -0.17563212f,     0.1390013f,       -0.1432051f,
    -0.062035963f,    0.08864353f,      0.5891315f,       0.48618028f,
    0.51497275f,      -0.034598615f,    -0.20362687f,     0.11767029f,
    -0.056916185f,    0.6599823f,       -0.38286185f,     0.08739692f,
    -1.1420548f,      -0.40281f,        0.15501407f,      0.30939698f,
    -0.05474036f,     -0.36045521f,     -0.49337298f,     0.7915961f,
    -0.102683544f,    0.47779194f,      0.20229132f,      0.18699183f,
    -0.05012223f,     0.275325f,        0.13482301f,      0.3133182f,
    1.090033f,        -0.4838746f,      0.21972594f,      0.94341046f,
    -0.2024343f,      -0.4240186f,      -0.0010959144f,   -0.8309109f,
    -1.2584146f,      -0.36863726f,     0.16571979f,      -0.80471104f,
    -0.09656677f,     0.10168694f,      -0.46118894f,     -0.2132649f,
    0.04226917f,      -0.14864516f,     -1.3744466f,      0.42207333f,
    -0.67683506f,     -0.4431773f,      0.210415f,        0.9382094f,
    -0.79245573f,     0.46718195f,      0.048806578f,     -0.4188354f,
    -0.14861317f,     -1.6974419f,      -0.06415642f,     0.5184574f,
    0.102415204f,     -0.4547162f,      -0.12420924f,     -0.49969855f,
    0.32553115f,      -0.77819157f,     -0.7322235f,      -0.28947553f,
    -0.3821293f,      -0.27399045f,     -0.81479436f,     -0.26961195f,
    -0.22169712f,     -0.06969168f,     0.50847787f,      -1.0458431f,
    0.98832333f,      1.2057867f,       0.5018719f,       -0.31854108f,
    -0.20724666f,     -0.13548131f,     0.3446851f,       0.36761424f,
    0.27174726f,      -1.1646907f,      0.7503058f,       -0.98399377f,
    -0.44995072f,     -0.14746724f,     -1.3037401f,      -0.33629212f,
    -0.816196f,       -0.5585883f,      -0.052479215f,    0.7933569f,
    -0.9803027f,      0.5049502f,       0.30325103f,      0.84531504f,
    -0.1113303f,      -0.16047081f,     -0.46724954f,     -0.47843468f,
    2.4297767f,       -0.87256926f,     -1.2971703f,      0.37564442f,
    -0.1399117f,      0.4731312f,       -0.9564968f,      0.53703594f,
    -1.0012546f,      -0.3192856f,      0.058883075f,     0.2925153f,
    0.38882822f,      0.26518258f,      -1.1411917f,      -0.35692263f,
    0.47634488f,      -0.3934401f,      0.31807172f,      1.0119292f,
    0.2864189f,       -0.7043421f,      0.71153736f,      0.80949014f,
    0.6014679f,       0.52565235f,      0.4902085f,       -0.63872695f,
    0.35608336f,      0.33656493f,      0.6571804f,       0.19891499f,
    0.3904095f,       -0.6957435f,      -0.44096002f,     -0.62906253f,
    -0.1589336f,      -0.58481026f,     -0.31015277f,     -0.17063949f,
    -0.7355459f,      1.0170314f,       0.5608993f,       0.57827634f,
    -0.2552918f,      0.31506896f,      -0.78286225f,     0.32343185f,
    -0.4750448f,      0.5562994f,       -0.22290781f,     -0.651066f,
    0.35316643f,      0.38070107f,      -0.46334562f,     -0.39485356f,
    0.11558195f,      0.49770173f,      -0.5083986f,      -0.23323232f,
    -0.088185385f,    -0.10373675f,     0.19619259f,      0.5590243f,
    -1.3475266f,      0.05436711f,      0.72300243f,      -0.4464137f,
    -0.26279375f,     -0.22329238f,     -1.0116233f,      -0.012896312f,
    -0.37547067f,     0.17534524f,      0.1619559f,       -0.4329723f,
    0.73093855f,      -0.28124747f,     0.8760183f,       -0.38235018f,
    -0.21527894f,     -0.67655486f,     0.055919558f,     0.66135055f,
    -0.45912743f,     1.4902929f,       -0.5344322f,      0.104836375f,
    -0.14996134f,     -0.6878689f,      -0.28306687f,     -0.4692825f,
    -0.20584963f,     0.36637357f,      -0.11393025f,     0.020954179f,
    -0.6550427f,      -0.34070998f,     -0.31882796f,     0.081927106f,
    0.57626575f,      0.7104947f,       0.49721134f,      0.37968016f,
    -0.211314f,       -0.60428846f,     -1.3433046f,      -1.1049135f,
    0.84831184f,      0.25771758f,      1.0303041f,       -0.6073314f,
    0.51031774f,      0.07637209f,      -0.43161362f,     -0.18018204f,
    -0.84052527f,     0.029888434f,     0.8693327f,       0.15909882f,
    0.7540419f,       -0.28063098f,     0.37860948f,      0.57109475f,
    -0.0047711427f,   -0.16586031f,     0.5500525f,       -0.771374f,
    0.1594134f,       -0.55256116f,     -0.486659f,       0.07602853f,
    0.10394621f,      -0.35406867f,     -0.678616f,       -0.8498471f,
    -0.12262952f,     -0.33772534f,     0.124350674f,     1.0099912f,
    -0.22693712f,     0.083874516f,     -0.23291367f,     0.45636305f,
    0.46295577f,      1.1730884f,       -0.4128638f,      0.03693503f,
    0.21433413f,      0.22038154f,      0.76357836f,      -0.44743985f,
    0.5324953f,       0.21554016f,      0.40940878f,      1.3714868f,
    -0.2578676f,      -0.3166016f,      0.28561565f,      0.10900699f,
    0.3276167f,       -0.08699208f,     1.0565706f,       0.68195385f,
    -0.42857438f,     -0.4133738f,      -0.7180616f,      0.24321909f,
    0.037457235f,     -0.5705152f,      -0.003869953f,    0.19005552f,
    -0.06482173f,     -0.473044f,       0.22727731f,      0.09194266f,
    -0.18121894f,     0.1315154f,       0.41450846f,      1.2606239f,
    0.69317406f,      -0.36707073f,     0.13299556f,      0.073216155f,
    -0.648688f,       0.5071867f,       -0.21943551f,     -0.7203309f,
    -0.4231428f,      -0.1369062f,      0.63920355f,      0.30251318f,
    -0.082728356f,    0.15528439f,      0.1123937f,       0.9507494f,
    0.15667346f,      0.2952958f,       0.46692234f,      0.3193912f,
    -0.80560184f,     -0.10958184f,     -0.17873609f,     0.29756558f,
    0.9269049f,       -0.20593491f,     -0.3233455f,      0.584558f,
    0.07770204f,      -0.20274487f,     0.2557222f,       -0.6932701f,
    0.23933265f,      -0.28551853f,     0.025797194f,     -0.07487317f,
    0.442782f,        -0.63887537f,     0.08753344f,      -0.0051635597f,
    0.48970455f,      0.5482201f,       -0.7870613f,      -0.0817431f,
    0.54407614f,      0.12361733f,      0.32430506f,      0.043606278f,
    -0.20082164f,     -0.70742565f,     -1.661403f,       0.6216878f,
    -0.24444938f,     0.23590608f,      0.28265083f,      -0.731994f,
    -1.0847542f,      0.1574851f,       -0.26949802f,     -0.4512523f,
    -1.0553957f,      -0.22344667f,     0.7634759f,       0.16225936f,
    0.13733621f,      0.31710687f,      -0.15930304f,     0.5314228f,
    0.3792892f,       0.11415105f,      0.04775962f,      -0.027026683f,
    0.31506163f,      0.0015816971f,    0.67288774f,      -0.49912584f,
    -0.5219771f,      -0.58545357f,     0.11926366f,      -0.25857055f,
    0.21190271f,      0.5534862f,       -0.434705f,       -0.51395327f,
    0.23279925f,      0.16952693f,      -0.3810965f,      -1.9966601f,
    0.057376772f,     -0.30710632f,     0.5245355f,       -0.7301295f,
    0.37687403f,      0.37946638f,      0.27495033f,      1.1330384f,
    0.18709876f,      0.68309015f,      -0.3735001f,      -0.90878373f,
    -0.3177087f,      -0.13991678f,     -1.1166236f,      -0.28625244f,
    0.25062186f,      1.5554752f,       -1.0307187f,      -0.4310852f,
    0.8509516f,       -0.73791504f,     -0.7583657f,      -0.7252374f,
    -0.38281086f,     0.25628322f,      0.54431945f,      0.049061958f,
    -0.5782909f,      -0.30064407f,     -0.4247174f,      -0.69213265f,
    -0.6928659f,      0.88584644f,      -0.6885655f,      0.7449526f,
    -0.76946735f,     0.3632798f,       -0.6689931f,      -0.52939314f,
    -0.45717216f,     -0.28866512f,     0.6031803f,       -0.58183604f,
    0.62884754f,      0.05556427f,      0.13166216f,      0.024329014f,
    -0.5549326f,      -0.33918697f,     0.011669776f,     -0.2805752f,
    -0.09128083f,     -0.014768179f,    -0.38810265f,     -0.7287084f,
    0.16239557f,      0.49457747f,      0.10634028f,      0.8984181f,
    0.80708855f,      0.023583012f,     -0.23340172f,     -0.41486138f,
    -1.6124171f,      -0.00056941976f,  0.58294636f,      -0.32219392f,
    1.1251023f,       0.59520805f,      -0.98980606f,     0.66146547f,
    -0.48592034f,     -0.013138615f,    0.06414631f,      -0.087731294f,
    0.2994615f,       0.6834113f,       0.16105816f,      -0.2870231f,
    0.32294357f,      0.13209912f,      0.5220559f,       0.23370507f,
    -0.24741456f,     0.1732294f,       0.7119055f,       -1.2796594f,
    0.349544f,        0.94687533f,      0.4527302f,       -0.28450143f,
    0.324959f,        -0.7083722f,      -0.13722688f,     0.5997989f,
    0.62476397f,      0.42923707f,      -0.06307354f,     0.39810604f,
    -0.15900807f,     -0.42352924f,     -0.8115897f,      -0.57150775f,
    -0.70888484f,     -0.39939266f,     -0.4536894f,      -0.45108768f,
    -0.6107824f,      0.21591277f,      0.43050534f,      -0.47457206f,
    -0.6330749f,      0.32872865f,      -0.49679795f,     0.20316416f,
    1.0082188f,       0.08508876f,      -0.23529209f,     1.4672945f,
    -0.11705375f,     -0.109064825f,    -0.14623415f,     0.85730267f,
    0.5292579f,       -0.21414179f,     -0.1113688f,      0.32520443f,
    -0.10658833f,     -0.057028938f,    -0.80443245f,     -0.7417762f,
    -0.09142032f,     -0.9972557f,      0.13937603f,      -0.68939507f,
    0.45483506f,      -1.2626327f,      0.55055106f,      -0.09839283f,
    -0.4242582f,      0.63633513f,      0.5012378f,       0.033008453f,
    0.2931106f,       -2.0016422f,      0.25573432f,      0.064229295f,
    -0.14537364f,     1.1089741f,       0.30253255f,      0.8799706f,
    0.6061803f,       -0.78615427f,     -0.56476665f,     0.022796396f,
    -0.24079765f,     0.09243253f,      0.3531049f,       0.2810895f,
    0.7124977f,       -1.0597405f,      -0.7473422f,      -0.098221295f,
    2.188088f,        -0.41413182f,     1.124842f,        0.19180053f,
    0.7933573f,       0.030621901f,     -0.35204145f,     1.1090773f,
    0.3705823f,       -0.20874426f,     -0.558316f,       0.8273279f,
    0.63822716f,      0.3640615f,       0.4973209f,       -0.7915698f,
    0.5589561f,       0.103702106f,     -0.20907512f,     0.9446677f,
    0.29390165f,      -1.6213841f,      0.32106984f,      0.009717228f,
    -1.0960912f,      0.28427002f,      -0.13328297f,     0.119758576f,
    0.098086566f,     -1.0898104f,      -0.7800251f,      0.18050933f,
    -0.5549221f,      0.22855368f,      -0.8355539f,      -0.34971714f,
    0.287122f,        -0.3386797f,      -0.3921988f,      -0.41154364f,
    0.9036796f,       -0.3681327f,      -0.202339f,       0.71678644f,
    -1.1631125f,      -0.19351372f,     0.030948756f,     -0.100003146f,
    -0.624343f,       0.40381205f,      -0.100889765f,    -0.12027066f,
    0.6709626f,       -0.10896953f,     -0.029159963f,    -0.13276155f,
    0.23755883f,      -0.17909163f,     0.84739923f,      0.4291852f,
    0.12538311f,      0.18339485f,      -0.3367667f,      -0.5755392f,
    -0.19836687f,     0.03959566f,      0.14141995f,      0.2162462f,
    0.60422957f,      -0.32779557f,     -0.9331722f,      -0.77027863f,
    0.16730319f,      0.06551115f,      -0.053114746f,    0.10052243f,
    -0.022956954f,    -0.1738183f,      -0.4514494f,      0.8372723f,
    -0.20614725f,     -0.98294413f,     0.46712038f,      0.2620997f,
    0.6891619f,       0.32745156f,      -0.46228918f,     -0.6727319f,
    -0.3224589f,      -0.16897297f,     -0.272303f,       -0.38771945f,
    0.008822596f,     1.1325508f,       0.81032157f,      0.3527913f,
    -0.13675608f,     -0.2860275f,      0.7362332f,       -0.6935447f,
    0.63417906f,      0.14097193f,      -0.33614326f,     -0.47723845f,
    -0.6172049f,      -0.21810073f,     0.35473692f,      -0.9955111f,
    0.21025911f,      0.8273148f,       -0.3442095f,      -0.1640359f,
    -0.06794323f,     -0.36799103f,     -0.8336904f,      -0.4670572f,
    -0.5842379f,      -0.014819965f,    0.23148447f,      -0.025504703f,
    -0.30607083f,     0.25133806f,      -0.33386785f,     -0.33749273f,
    -0.06655193f,     0.31194493f,      0.360076f,        -0.15720008f,
    -0.08230306f,     0.055518646f,     -0.18294732f,     -0.28530985f,
    -0.6908937f,      -0.09261483f,     0.37745187f,      -0.4737749f,
    -0.25375184f,     -0.7846502f,      0.3223455f,       0.48921338f,
    0.395867f,        -0.23566473f,     -0.64194584f,     0.016020466f,
    0.394876f,        0.8040019f,       -0.24717095f,     -1.1977267f,
    -0.16958104f,     -0.47423548f,     -0.21233863f,     -0.8097476f,
    0.10715242f,      -0.5481793f,      -0.21656893f,     0.7622245f,
    -0.07678257f,     0.15429561f,      0.27804503f,      -0.22689119f,
    0.08588506f,      0.57220066f,      -0.070630774f,    0.010777425f,
    -0.34053567f,     0.29198223f,      -0.18939672f,     -0.13189796f,
    -0.17746827f,     -0.32072955f,     0.63384885f,      0.05110855f,
    -0.52166814f,     -0.050632168f,    0.5106825f,       0.007309304f,
    0.083659746f,     -0.05117371f,     -0.031859465f,    -0.65479314f,
    -0.35243028f,     0.78587633f,      0.2721079f,       -0.20081653f,
    -0.07477265f,     0.5959089f,       -0.6805852f,      -0.5732394f,
    0.3592647f,       -0.37156838f,     0.21340601f,      1.0794916f,
    -0.14360549f,     -0.008884557f,    -0.9515861f,      -1.0264827f,
    -0.36447015f,     -0.0015291973f,   0.5818143f,       -0.24339719f,
    0.071029305f,     -0.07518632f,     0.36392516f,      -0.5421697f,
    -0.30356282f,     -0.16402814f,     -0.07438039f,     0.1930198f,
    -0.6094035f,      0.80834675f,      -0.17055917f,     -0.46144217f,
    -0.28758717f,     0.65814024f,      -0.11820031f,     -0.35882473f,
    0.9121724f,       0.105949655f,     -0.16722135f,     0.7908433f,
    0.044168133f,     -0.07035077f,     -0.9045615f,      -0.026021052f,
    0.29220426f,      -0.43792665f,     0.49535605f,      -0.34408945f,
    -0.42329866f,     0.613194f,        0.19146536f,      0.79441696f,
    0.14363135f,      -0.11801061f,     0.12845859f,      -0.3861819f,
    0.70570415f,      -0.44954604f,     0.047924835f,     0.13367623f,
    -0.0053055757f,   -0.15601608f,     0.23581347f,      0.118544504f,
    -0.09343313f,     -1.2643795f,      0.621775f,        0.13895799f,
    0.48155925f,      -0.2827757f,      0.023110569f,     0.32264706f,
    0.17223252f,      -0.55278563f,     0.26832187f,      -0.23123156f,
    0.46850982f,      -0.12273192f,     -0.05021628f,     0.16452235f,
    -0.15367883f,     -0.4287195f,      0.3856939f,       0.79093415f,
    0.55462897f,      0.2912185f,       -0.2949068f,      -0.49545148f,
    0.070065424f,     0.5304795f,       0.12847614f,      0.3140591f,
    -0.6071193f,      -0.021285035f,    -0.06540394f,     -0.0131831085f,
    0.45206925f,      -0.06109814f,     0.6850345f,       0.0987241f,
    -0.28017676f,     0.27874452f,      -0.40906128f,     0.2047126f,
    0.5069465f,       -0.109995514f,    0.0027723508f,    0.17314957f,
    -0.7423331f,      -0.2884799f,      -0.3018875f,      -0.28936625f,
    0.43400452f,      -0.46074766f,     0.27534845f,      0.5754554f,
    -0.44203535f,     -0.29955274f,     -0.24238528f,     0.29002222f,
    -0.075597756f,    0.49728608f,      0.3147523f,       0.06935245f,
    0.3327015f,       0.23072362f,      0.24658988f,      0.65268683f,
    -0.0100823715f,   -0.034488376f,    0.24709943f,      -0.3032433f,
    0.48045662f,      -0.38251537f,     -0.31164128f,     -0.44231543f,
    -0.49480876f,     -1.0340413f,      -0.100571044f,    -0.24079904f,
    0.19943981f,      -0.6172282f,      -0.54895526f,     0.2267926f,
    0.30835575f,      0.12446242f,      0.37190408f,      0.7470943f,
    -0.2861824f,      0.20450436f,      -0.17836231f,     -0.725927f,
    -0.1671499f,      -0.03698258f,     0.20847894f,      0.8391157f,
    -0.095704906f,    0.07655523f,      0.32712653f,      0.33404726f,
    0.0019387873f,    -0.47354773f,     0.5328699f,       0.5530341f,
    -0.17449461f,     -0.3899943f,      0.0568822f,       0.3661727f,
    0.2072903f,       0.18183295f,      -0.17034076f,     -0.16882786f,
    -0.763981f,       0.44762534f,      -0.7641195f,      0.24505922f,
    -0.13796039f,     -0.28689474f,     -0.0078032f,      -0.17986955f,
    0.18361688f,      1.8200594f,       0.17332579f,      -0.4180249f,
    -0.10354023f,     0.48853302f,      0.12830575f,      -0.024517862f,
    -0.2747135f,      0.5317273f,       -0.059884924f,    0.3634191f,
    -0.41947493f,     -0.6879522f,      0.65440583f,      0.45363808f,
    0.79881346f,      0.1132809f,       0.05334334f,      -0.55541f,
    -0.31062788f,     -0.26367033f,     0.28735027f,      -1.149834f,
    0.048647143f,     -0.7923622f,      0.8318236f,       -0.43318787f,
    0.8941276f,       0.48530874f,      -0.21206176f,     0.6950677f,
    0.7907414f,       0.5289012f,       -0.71071506f,     0.047911614f,
    -0.23314942f,     0.21645243f,      0.17416333f,      0.38398835f,
    0.3110162f,       0.44954655f,      -0.79633516f,     0.08693197f,
    0.026420569f,     0.013931277f,     0.1906708f,       -0.11025136f,
    0.12349517f,      0.2482721f,       -0.39985287f,     0.52269787f,
    -0.13559249f,     -0.27903172f,     0.1404275f,       0.5170867f,
    0.13998508f,      -0.13236141f,     -0.19416018f,     0.46714133f,
    -0.13291296f,     0.791163f,        -0.553312f,       -1.2085497f,
    1.1505518f,       0.2757422f,       -0.333214f,       -0.7110484f,
    -0.25004286f,     -0.20690745f,     0.11193666f,      -0.34628382f,
    -0.24816208f,     0.14652991f,      -0.3864914f,      -0.33722427f,
    -0.09133394f,     -0.07422279f,     0.8026506f,       -0.49860674f,
    -0.010701556f,    0.05502498f,      0.23656811f,      1.4428861f,
    -0.030029431f,    0.029018417f,     -0.8956924f,      0.17691956f,
    0.15885463f,      -0.704462f,       -0.6521328f,      0.015999136f,
    -0.45571908f,     -0.13235918f,     0.51297456f,      -0.39536735f,
    0.7822795f,       -0.5396627f,      -0.27990645f,     -0.24389884f,
    1.0967209f,       -0.6370403f,      0.52975637f,      0.6839693f,
    0.17506723f,      0.07925161f,      -0.5737755f,      0.015800731f,
    -0.050764408f,    0.06605263f,      0.71351767f,      -0.55715954f,
    0.61838526f,      0.012221635f,     -0.28951377f,     -0.26615044f,
    -0.16859174f,     -0.2593003f,      -0.23422654f,     0.53021854f,
    0.3962274f,       0.105343476f,     0.14149496f,      0.4399548f,
    -0.31698304f,     1.0351027f,       -0.08087802f,     -0.212682f,
    -0.26749024f,     0.49454653f,      -0.3437893f,      -0.0996848f,
    -0.40808734f,     0.092930555f,     1.0230956f,       -0.063570835f,
    0.8509114f,       -0.060967628f,    0.09772999f,      -0.48698625f,
    0.15566505f,      0.19779909f,      -0.5830248f,      0.5449773f,
    0.79798657f,      -0.1818998f,      0.012114186f,     -0.5367841f,
    -0.16907878f,     -0.6593428f,      -0.63956183f,     -0.2043784f,
    -0.41090146f,     -0.16938192f,     -0.2710849f,      0.11303984f,
    0.8687402f,       -0.4949887f,      -0.5695755f,      0.5749439f,
    0.00062498194f,   0.10369967f,      0.3693122f,       -0.26919147f,
    0.0059260633f,    0.1448005f,       0.5582599f,       0.6334517f,
    0.30921113f,      0.009292658f,     0.06041545f,      0.5696224f,
    -0.13634601f,     -0.58276784f,     0.34698763f,      0.5479699f,
    -0.01639025f,     -0.71147865f,     -0.15603879f,     0.0011785924f,
    0.17341335f,      0.26109105f,      0.5302855f,       1.713607f,
    0.2098212f,       -0.3063225f,      -0.33808085f,     0.14526449f,
    -0.59885687f,     0.5846336f,       0.4355639f,       0.5373615f,
    0.07365098f,      0.5851805f,       -0.08786854f,     -0.034960017f,
    0.10967721f,      -0.0951025f,      -0.27982676f,     0.1073839f,
    0.2634841f,       0.7331959f,       -0.15975426f,     0.55775046f,
    0.052767448f,     0.46156633f,      -0.13029552f,     -0.61637264f,
    -0.1955176f,      0.3199362f,       0.6166804f,       1.6727405f,
    0.10810803f,      0.011797356f,     0.2179603f,       0.9023451f,
    0.18387322f,      -0.16001242f,     0.042752616f,     0.37709478f,
    -0.37854704f,     0.43251434f,      -0.08008186f,     -0.8642058f,
    -0.58202213f,     0.53163713f,      -0.29666921f,     0.4404127f,
    -0.6932411f,      0.6511952f,       -0.18697639f,     -0.15164354f,
    0.14635912f,      -0.57694197f,     0.33719248f,      0.18741359f,
    0.08103616f,      0.07665591f,      0.115678735f,     -0.25920367f,
    -0.27162653f,     -0.19093403f,     -0.10558807f,     0.37998027f,
    -0.08482377f,     0.18538311f,      0.16453625f,      -1.0700704f,
    -0.5323306f,      0.13506798f,      1.1060867f,       -0.18546721f,
    0.20084815f,      -0.14905058f,     1.2115245f,       0.044944495f,
    -0.59472406f,     -0.49950743f,     -0.61437607f,     0.91716677f,
    0.12310418f,      -0.5792493f,      0.11923741f,      0.13381034f,
    -0.39102763f,     0.1296695f,       -0.62863857f,     -0.09968469f,
    0.6268056f,       0.2923747f,       0.7050845f,       -0.17849842f,
    0.6106755f,       -0.0041247346f,   0.15163223f,      -1.1562672f,
    -0.18763795f,     0.24001239f,      -0.64913696f,     -0.5205823f,
    -0.9036615f,      -0.6999138f,      0.5858071f,       0.15295155f,
    0.11331775f,      -0.37155512f,     -0.9855216f,      -0.085513234f,
    0.03382634f,      0.062883645f,     0.2475495f,       -0.33282533f,
    0.11304657f,      0.26199055f,      -0.2906376f,      0.60734004f,
    -0.45414495f,     0.42147902f,      0.66832125f,      -0.048792195f,
    -0.072077006f,    0.6021687f,       -0.4014464f,      -0.36829126f,
    0.6553669f,       -0.1584694f,      0.0845283f,       -0.4840706f,
    -0.6705038f,      0.84603935f,      -0.18511026f,     1.1111937f,
    1.3759084f,       0.40806726f,      1.312548f,        0.5069405f,
    -0.6251075f,      0.17448007f,      0.27487326f,      0.23074728f,
    -0.13862212f,     0.39f,            0.28977162f,      -0.14041956f,
    -0.30701303f,     0.74882895f,      0.10830295f,      -0.14223604f,
    0.30254847f,      0.24549195f,      -0.11244824f,     1.6337056f,
    -0.28334722f,     -0.75768423f,     0.10444011f,      0.6424138f,
    0.6913645f,       0.29813024f,      -0.008342437f,    -0.34205818f,
    0.86989f,         0.11497888f,      -0.27393186f,     -0.47104812f,
    0.585553f,        -0.34989646f,     -0.074098095f,    -0.69978267f,
    -0.40372106f,     -0.098804764f,    0.6576788f,       -0.8646816f,
    -0.3202465f,      -0.27966374f,     0.014407831f,     -0.98873883f,
    0.009314566f,     0.6590878f,       0.17359115f,      0.26795918f,
    0.6145124f,       0.2938489f,       0.2527424f,       0.3771514f,
    -0.12057059f,     0.09592545f,      -0.07362324f,     0.24785492f,
    0.65323967f,      -0.27746707f,     -0.050974894f,    -0.7079451f,
    -0.26477444f,     0.25145012f,      -0.1497767f,      0.021917785f,
    0.14004852f,      -0.25127274f,     -0.5388696f,      0.25273058f,
    -0.23431124f,     -0.056507878f,    -0.11096773f,     0.21846622f,
    -0.30833673f,     -0.6032262f,      0.21872312f,      -0.027575329f,
    0.30548444f,      0.642088f,        0.008437465f,     -0.061223254f,
    -0.13238f,        0.29625115f,      0.08885287f,      0.5262321f,
    -0.15457715f,     0.38079643f,      0.49698362f,      -0.16306867f,
    0.0036258413f,    -0.69157f,        0.7588376f,       0.2471589f,
    -0.5706024f,      0.52330357f,      -0.6700219f,      -0.3036507f,
    0.3267581f,       -0.61778593f,     0.107531115f,     -0.42356423f,
    0.25838843f,      0.11685204f,      -0.11967176f,     -0.39237913f,
    -0.11832442f,     0.4189043f,       0.5655315f,       -0.12626909f,
    0.8801604f,       1.6510627f,       -0.2903548f,      0.21640202f,
    -0.15887162f,     0.09428963f,      0.8189405f,       -0.41300043f,
    -0.2564688f,      0.14439732f,      0.3585721f,       -0.36146337f,
    0.3697663f,       0.18210082f,      0.14588152f,      -0.14726613f,
    -0.44579014f,     0.08286705f,      -0.24989597f,     -0.33675468f,
    -0.27181274f,     0.46787322f,      -0.3188217f,      0.44410363f,
    0.09896769f,      -0.7110112f,      0.216565f,        0.46706912f,
    -0.34370396f,     0.17800231f,      -0.028431352f,    0.21831383f,
    0.4106663f,       -0.019077234f,    -0.3955357f,      -0.2327858f,
    -0.03724652f,     0.62697387f,      -0.07066467f,     0.22463877f,
    -0.1553065f,      -0.2061136f,      0.5927164f,       0.41056836f,
    0.7745398f,       -0.1250684f,      -0.117048115f,    -0.5465173f,
    0.10253123f,      -0.6984544f,      -0.28608653f,     -0.43520474f,
    0.5470776f,       -0.49536583f,     -0.5802147f,      -0.29812035f,
    -0.6649939f,      -0.48889014f,     0.6913485f,       -0.7375385f,
    -0.34363338f,     0.34807348f,      0.022261424f,     -0.007380646f,
    -0.06823337f,     1.2720236f,       0.36199018f,      0.69544166f,
    0.6363422f,       0.35137436f,      0.6911696f,       0.24624863f,
    -0.5851199f,      0.58168894f,      0.778289f,        0.27590758f,
    -0.6076071f,      -0.4334926f,      0.16426262f,      0.22414692f,
    0.47650892f,      0.018731266f,     -0.26529387f,     0.88902044f,
    -0.5022148f,      -0.10249573f,     0.26589683f,      -0.05491008f,
    -0.033814333f,    -0.054525107f,    0.59774095f,      0.51779115f,
    -0.023183798f,    -0.2321011f,      0.43330088f,      0.044639997f,
    0.08305303f,      -0.3188973f,      -0.4458943f,      -0.1221161f,
    0.05395653f,      0.046277173f,     0.038028315f,     0.138571f,
    0.7735272f,       0.10698606f,      0.11351406f,      -0.29458156f,
    0.5436796f,       -0.29304332f,     0.30234078f,      0.5904505f,
    -0.10755643f,     -0.45844162f,     -0.55464363f,     -0.20873077f,
    0.18441546f,      0.2106309f,       -0.15780273f,     0.145778f,
    -1.2771649f,      -0.052978806f,    -0.21833746f,     -0.45459068f,
    0.07543792f,      -0.10713121f,     -0.13745439f,     -0.16048007f,
    -0.012229433f,    0.30202797f,      -0.1256677f,      0.13982995f,
    0.41268218f,      -0.26825354f,     -0.66274947f,     -0.16833495f,
    0.055841874f,     -0.22266403f,     -0.1376704f,      -0.40126806f,
    0.58199227f,      -0.007157397f,    -0.13713485f,     0.051239338f,
    -0.3462794f,      -0.015991898f,    0.37906575f,      -0.38330925f,
    0.2800718f,       -0.87597775f,     -0.31122372f,     -0.19915159f,
    0.16778806f,      -0.75848264f,     -0.017538704f,    -1.3604609f,
    -0.014439412f,    -0.303468f,       -0.19861476f,     -0.1054716f,
    -0.22730775f,     0.31521952f,      1.0024171f,       0.15547836f,
    -0.53288585f,     -0.2547031f,      -0.56169605f,     -0.083301194f,
    -0.47569707f,     0.047278408f,     -0.13457145f,     0.4612248f,
    0.2475597f,       0.51532495f,      0.23222399f,      0.17344135f,
    -0.23256049f,     0.022377599f,     0.25040594f,      -0.4006348f,
    -0.23805593f,     -0.5916111f,      0.26336625f,      0.18133336f,
    1.3218948f,       0.30848795f,      -0.3145829f,      0.5806955f,
    0.15554444f,      0.8290003f,       -0.03481679f,     -0.6041496f,
    0.49792618f,      0.22982192f,      -0.059207164f,    0.29015538f,
    -0.801668f,       0.29468253f,      -0.39882746f,     0.22789903f,
    -0.056818124f,    0.23615372f,      0.15629351f,      0.41673318f,
    -0.8300344f,      0.026882248f,     0.10806681f,      -0.6130017f,
    -0.074604094f,    -0.5138996f,      0.7469194f,       0.25630617f,
    0.11815392f,      0.3646865f,       0.16787784f,      0.78827333f,
    0.16752553f,      0.08024261f,      -0.19450858f,     0.0011056396f,
    -0.045979436f,    -0.9664112f,      -0.51606786f,     0.33430547f,
    0.04450944f,      -0.20250139f,     -0.58230644f,     0.35721204f,
    1.039875f,        -0.058564693f,    -0.004047593f,    0.0840939f,
    -0.4629724f,      0.10408169f,      0.19485381f,      0.028779065f,
    -0.04623541f,     -0.5455971f,      -0.46684435f,     -0.77325255f,
    0.4084283f,       0.07769598f,      0.5582167f,       -0.17733064f,
    -0.16214575f,     -0.12576276f,     -0.15808682f,     -0.5347465f,
    -1.2000148f,      -0.19336197f,     -0.2140572f,      -0.4514012f,
    0.31030703f,      -0.03216054f,     -0.03805112f,     0.24162903f,
    -0.22593361f,     -0.36224994f,     0.13062274f,      -0.07769905f,
    -0.07221371f,     0.7286868f,       0.35562587f,      0.022180099f,
    -0.24098365f,     -0.1002502f,      0.16216223f,      0.2845589f,
    -0.08137456f,     0.08442888f,      0.0035978411f,    0.09478587f,
    -0.30917567f,     -0.52023613f,     -0.4392916f,      -0.027148042f,
    -0.19780467f,     -0.44747803f,     -0.01480774f,     -0.37906113f,
    -0.055220097f,    0.944155f,        0.3000706f,       0.0719907f,
    -0.0010063854f,   0.55630785f,      0.7304291f,       0.02391317f,
    -0.5107386f,      0.8615721f,       -0.005063156f,    -0.09495826f,
    -0.69628453f,     -0.36258343f,     0.061501537f,     -0.599766f,
    -0.15112904f,     -0.6111876f,      -0.4052951f,      0.76587886f,
    -0.40269628f,     0.59646845f,      0.4047639f,       0.45515895f,
    -0.26644635f,     -0.82446855f,     -0.69243467f,     0.572086f,
    -0.5879042f,      0.5749336f,       -0.03791126f,     0.0038445517f,
    -1.2126559f,      0.1624151f,       -0.39529583f,     -0.54584634f,
    -0.7862407f,      -0.094950244f,    0.020652218f,     -0.33891922f,
    1.1280028f,       -0.25652912f,     1.3454233f,       0.22597285f,
    -0.11187464f,     -0.09739396f,     -0.011397094f,    -0.067557134f,
    0.25744888f,      0.8228815f,       -0.27558956f,     -0.48954576f,
    0.29055557f,      -0.37816694f,     -0.20791231f,     -0.6697713f,
    -0.068175495f,    0.35827088f,      0.36813745f,      0.20700124f,
    -0.52793187f,     -0.11455077f,     -1.1891317f,      -0.011248591f,
    -0.41361636f,     -0.37937975f,     -0.52053326f,     -0.97932696f,
    -0.187821f,       -0.5279895f,      0.9188909f,       -0.4115422f,
    -0.25187317f,     -0.6399905f,      0.199588f,        0.054953326f,
    0.31574756f,      0.06490735f,      -0.09137515f,     0.11481658f,
    -0.37181753f,     0.04495043f,      -0.45379633f,     -0.6841956f,
    -1.139389f,       0.1721706f,       0.9370341f,       0.1431711f,
    0.45682243f,      0.83289135f,      -0.28270823f,     -0.06319511f,
    1.1953164f,       -0.65325737f,     0.48582026f,      -0.35957333f,
    1.0731026f,       0.28253868f,      0.05685816f,      0.73485875f,
    -0.27282196f,     -0.2168463f,      -0.025767975f,    0.063623324f,
    -1.5728773f,      -0.115464084f,    -0.2292629f,      0.014485926f,
    -0.71408343f,     0.4830733f,       -0.35963047f,     0.4264874f,
    -0.35535243f,     -0.14954224f,     0.12808754f,      0.52107435f,
    0.41577673f,      -0.06612538f,     0.04393976f,      0.7892705f,
    0.74861795f,      0.15465859f,      -0.007803608f,    0.23840776f,
    0.631901f,        -0.6015318f,      -0.15114792f,     -1.070026f,
    -0.18225604f,     -0.45042914f,     0.39050183f,      0.1011447f,
    -0.2990044f,      -0.98569936f,     -0.21050228f,     1.2353796f,
    0.33292672f,      -0.12150902f,     -0.035359424f,    0.22572853f,
    -0.012430265f,    0.18394434f,      -0.019504245f,    0.33400914f,
    0.28688237f,      0.14077678f,      0.22427694f,      0.070205875f,
    -0.20862475f,     -0.1256315f,      -0.2827346f,      -0.33087546f,
    -0.17324921f,     -0.049287852f,    0.19169633f,      0.24928306f,
    -0.29350588f,     0.39587295f,      -0.19205587f,     -0.07654124f,
    -0.71350735f,     -0.26153874f,     0.44273692f,      -0.36350426f,
    0.7012189f,       -0.106963746f,    0.02318184f,      0.3500218f,
    0.29243216f,      -0.21613233f,     -0.2488791f,      0.41519433f,
    0.35399443f,      -0.031668514f,    0.37744144f,      -0.37903658f,
    0.19462116f,      0.17049277f,      0.2104079f,       -0.7261191f,
    -0.21093197f,     0.12395185f,      -0.10680857f,     -0.19737586f,
    -0.2167893f,      0.36280772f,      -0.24735753f,     -0.1707022f,
    -0.104849644f,    -0.15558226f,     0.6494613f,       0.086339645f,
    0.3420601f,       0.70589584f,      -0.08844988f,     -0.36445126f,
    0.38226378f,      0.42628944f,      -0.2643576f,      -0.07952425f,
    -0.5746864f,      1.0994586f,       -0.32662842f,     -0.16606449f,
    -0.85794395f,     0.049207f,        0.2767928f,       0.5986815f,
    -0.020422306f,    -0.27387065f,     -0.035674326f,    -0.16134313f,
    0.9381773f,       0.029132089f,     0.073417835f,     -0.38785037f,
    -0.16902286f,     -0.31256342f,     0.522186f,        0.52130014f,
    0.026568113f,     0.054401908f,     0.12768337f,      0.048462056f,
    0.11007159f,      -0.18010853f,     -0.087771215f,    0.24113381f,
    -0.28498384f,     0.38169888f,      0.44101113f,      0.9696073f,
    1.3030355f,       0.3572717f,       1.2588207f,       -0.33533704f,
    0.026706276f,     -0.4011202f,      -0.6091644f,      -0.3209137f,
    0.27187607f,      -0.7346266f,      0.3237268f,       0.31714004f,
    -0.32499072f,     -0.5358692f,      -0.21129623f,     -0.2317884f,
    -0.18578842f,     0.22829686f,      -0.9264296f,      -0.25499624f,
    -1.0492125f,      0.5645898f,       -0.9788658f,      -0.039820768f,
    -0.45711893f,     0.18952954f,      -0.9514191f,      0.42727983f,
    0.32428363f,      0.092633374f,     -0.42831564f,     0.47287372f,
    0.7013756f,       -0.24697915f,     0.6748135f,       -0.18226612f,
    -0.8815664f,      -0.03174447f,     0.36400244f,      -0.24289007f,
    -0.29382858f,     0.48907557f,      0.46960264f,      -0.2673173f,
    0.7792109f,       -0.09781868f,     0.35239902f,      0.34971002f,
    0.25299767f,      -0.43980563f,     -0.19909056f,     0.18152043f,
    0.35449314f,      -0.47686797f,     -0.939903f,       -0.21040288f,
    -0.27683124f,     0.23023108f,      -0.074548766f,    -0.023901744f,
    -0.14991805f,     0.090881675f,     0.7503595f,       0.09320108f,
    -2.0188851f,      -0.29244813f,     -1.0957336f,      -0.20908412f,
    0.4109169f,       0.25757757f,      0.7509506f,       0.5226921f,
    -0.51295877f,     0.08799479f,      -0.011321047f,    0.39449647f,
    0.33583382f,      0.20531975f,      -0.07875986f,     0.37172464f,
    0.06542263f,      -0.232768f,       -0.40064266f,     0.10721774f,
    0.9245316f,       -0.1950777f,      -0.39018977f,     0.4856538f,
    0.31114656f,      -0.3713676f,      0.3084444f,       0.5509118f,
    -0.76819724f,     0.14225495f,      0.03574197f,      -0.69285095f,
    -0.33553994f,     -0.5393685f,      -0.37170914f,     0.20433496f,
    0.28843403f,      -0.045915466f,    -0.29149395f,     0.58460224f,
    0.47564754f,      -0.099132076f,    -0.082363784f,    -0.04240531f,
    0.7819669f,       -0.30467987f,     0.0909961f,       -0.53525466f,
    -0.20902187f,     0.1227463f,       -0.06842794f,     0.14972492f,
    -0.15915266f,     -0.35832468f,     0.5279634f,       -0.3275736f,
    -0.0034462328f,   -0.20132038f,     0.4283483f,       -0.33775982f,
    0.34620264f,      -0.14191425f,     -0.33303642f,     -0.25579947f,
    0.39392668f,      0.07937277f,      0.41175237f,      0.18952048f,
    -0.44809514f,     -0.31532052f,     0.0651694f,       -0.026918005f,
    0.055623174f,     -0.6321015f,      0.5023292f,       -0.61052126f,
    0.18689759f,      0.029735865f,     -0.032648776f,    0.13676366f,
    -0.2099967f,      -0.5256591f,      0.4982367f,       -0.03483919f,
    -0.4284695f,      -0.0032578586f,   0.77675164f,      0.35619092f,
    0.4024795f,       0.51000273f,      -0.21191296f,     0.263739f,
    0.062765814f,     0.5864647f,       -0.31259814f,     -0.3708043f,
    -0.18169582f,     0.15117194f,      -0.16275413f,     -0.25180426f,
    -0.30746853f,     -0.10034899f,     -0.1750388f,      0.44548157f,
    -0.3218394f,      -0.7194454f,      0.89255816f,      -0.62330866f,
    -0.337552f,       0.073131f,        -0.6461023f,      1.0229096f,
    0.069360316f,     -0.3574669f,      -0.34996876f,     0.035728097f,
    0.24733508f,      -0.48095563f,     -0.5382894f,      -0.20592767f,
    0.5672608f,       0.36822146f,      -0.6673725f,      -0.23670876f,
    -0.52947366f,     0.42484388f,      -0.023312692f,    0.36881578f,
    -1.071442f,       0.14716637f,      0.003430405f,     0.7098809f,
    -0.2397647f,      0.08304073f,      0.11029115f,      -0.21446794f,
    -0.54765606f,     0.0320004f,       0.13497148f,      0.30491433f,
    -0.11181369f,     -0.4109843f,      0.48999318f,      0.43302366f,
    0.13288157f,      -0.08848558f,     0.51865405f,      -0.24319665f,
    0.34762284f,      0.07034651f,      0.5975562f,       -0.66755116f,
    -0.08988335f,     -0.71376103f,     0.6615772f,       -0.12083975f,
    -0.8414539f,      -0.27304298f,     0.81302667f,      0.031230062f,
    0.14045148f,      0.4865522f,       0.6274122f,       -0.22372194f,
    -0.46757606f,     0.075417526f,     0.2596118f,       -0.7780953f,
    -0.024738478f,    -0.5715371f,      0.1402021f,       0.056554247f,
    -0.046991684f,    0.18076955f,      0.35851562f,      -0.43894637f,
    0.7052834f,       0.18741272f,      -0.4445674f,      -0.23522592f,
    0.11575175f,      -0.6055716f,      0.9169037f,       0.083517775f,
    0.384394f,        0.045414113f,     -0.043864857f,    -0.27015468f,
    -0.28111598f,     0.54891014f,      -0.0012269766f,   0.5874633f,
    -0.13077672f,     -0.04574906f,     0.038677208f,     0.25950012f,
    -0.29254666f,     0.11963977f,      -0.50529677f,     0.012001998f,
    -1.0171077f,      -0.47798645f,     -0.008725324f,    -0.60744405f,
    -0.23421684f,     -0.054153018f,    0.60095835f,      -0.5491509f,
    -0.053725354f,    0.51248133f,      -0.31932545f,     0.054728545f,
    -0.17679799f,     0.08879492f,      0.3691615f,       -0.57199043f,
    -0.43445477f,     0.6034133f,       -0.2707894f,      -0.70845383f,
    -0.304651f,       0.017774215f,     0.016114775f,     -0.23764509f,
    -0.12558138f,     0.061172616f,     -0.43014798f,     -0.1986958f,
    -0.43092704f,     -0.44650272f,     -0.19350739f,     -0.64910275f,
    -0.21396132f,     -0.18254317f,     -0.6858024f,      -0.0027709727f,
    -0.11693743f,     0.27187204f,      -0.39344603f,     0.30732614f,
    0.6373282f,       0.46345946f,      0.08538898f,      -0.05158875f,
    -1.0658473f,      -0.62561446f,     -0.5177028f,      -0.15778582f,
    -0.17504337f,     -0.16444403f,     0.049317572f,     -0.3422244f,
    0.20229144f,      -0.3993793f,      -0.4650361f,      0.49984348f,
    -0.60637486f,     -0.2066453f,      0.4366862f,       -0.39195883f,
    -0.1202011f,      -0.67456675f,     -0.24686767f,     0.5060655f,
    -0.9884509f,      -0.10711376f,     -0.67372614f,     -0.22783619f,
    -0.010316903f,    -0.41641203f,     0.7293928f,       0.4166936f,
    -0.49804845f,     0.32173273f,      -0.662266f,       -0.17310305f,
    0.36497864f,      0.5472561f,       0.4868596f,       0.25158358f,
    0.05536512f,      -0.010324235f,    0.07476459f,      -0.120653085f,
    0.040580805f,     -0.179581f,       -0.59581286f,     0.379031f,
    -0.17573406f,     0.02370078f,      0.6543586f,       -0.034771476f,
    -0.025666093f,    0.07221712f,      0.5288422f,       -0.6820744f,
    0.07040845f,      0.6281042f,       0.7786602f,       -0.23671556f,
    0.13541044f,      0.019133959f,     0.6336903f,       -0.24623063f,
    0.024002468f,     0.10199161f,      0.09072575f,      0.053553704f,
    0.77200806f,      -0.04802245f,     0.2897093f,       0.33991712f,
    0.58845055f,      0.27839455f,      0.49558932f,      -0.4730215f,
    0.106028646f,     0.31282675f,      0.00017955044f,   -1.1928167f,
    0.60317427f,      0.53989166f,      -0.28474626f,     -1.0893381f,
    -0.6268443f,      -0.4258437f,      0.59969807f,      0.44373766f,
    -0.53623235f,     0.09435711f,      -0.78121406f,     -0.4259384f,
    -0.28877947f,     0.47320575f,      0.404561f,        -0.92087364f,
    0.096271895f,     0.13780843f,      -0.631788f,       -0.13357781f,
    -0.18191259f,     1.081703f,        -0.6904083f,      -0.20558709f,
    -0.016279975f,    0.15956669f,      0.09168773f,      0.20727386f,
    -0.04207581f,     0.98917806f,      -0.93998826f,     0.017426414f,
    0.058314607f,     0.1287463f,       0.07733651f,      -0.05389267f,
    0.17643136f,      -0.15047242f,     0.3239989f,       0.46981943f,
    0.027242087f,     0.25098193f,      -0.57931864f,     0.047788028f,
    0.14472358f,      -0.2998805f,      -0.36081186f,     -0.49808207f,
    -0.5905116f,      -0.85384846f,     -0.6927469f,      0.062033974f,
    -0.5421009f,      0.31208834f,      0.46790475f,      0.07127748f,
    0.084616125f,     -0.0616437f,      -1.3226391f,      0.28961575f,
    0.43339628f,      0.25417778f,      -0.09235857f,     -0.89259005f,
    0.124680735f,     0.18931706f,      -0.37018827f,     -0.2943697f,
    0.5718246f,       -0.6105712f,      0.018412104f,     0.1852628f,
    -0.6613212f,      -0.36747345f,     -0.66312027f,     -0.21980868f,
    -0.1355817f,      -0.25215432f,     0.09542762f,      -0.3217386f,
    -0.24844413f,     -0.21674524f,     0.45147383f,      0.33555683f,
    0.12543534f,      -0.8048286f,      -0.024384351f,    0.66236776f,
    -0.1928845f,      -0.42369565f,     0.1669775f,       0.1894992f,
    0.264922f,        0.6907731f,       0.4241977f,       0.14753328f,
    -0.44334182f,     0.2785256f,       0.20380369f,      -0.13704522f,
    0.09405584f,      0.051762134f,     -0.030671814f,    -0.15200855f,
    -0.0132649215f,   0.6626067f,       -0.73054975f,     0.004642895f,
    0.118959166f,     0.23005082f,      -0.6181849f,      0.4963799f,
    -0.35824853f,     0.18622863f,      -0.49897757f,     0.37703744f,
    0.45058358f,      0.014384532f,     -0.1611869f,      0.15797679f,
    0.311524f,        0.26030815f,      -0.15110655f,     -0.5565974f,
    0.36806944f,      -0.5154465f,      0.0082368795f,    1.1473784f,
    1.0753564f,       0.012918272f,     -0.6239011f,      0.124156296f,
    -0.18342786f,     -0.6491992f,      -0.40540096f,     0.17100336f,
